-5.055209249258041382e-02,1.144715324044227600e-01,-4.418281465768814087e-02,-9.210232645273208618e-02,4.940267279744148254e-02,8.787577599287033081e-02,-6.423999369144439697e-02,3.603904694318771362e-02,1.304882764816284180e-01,3.485616669058799744e-02,-6.722827255725860596e-02,-4.237547516822814941e-02,-1.325988024473190308e-01,3.120312467217445374e-03,3.892056271433830261e-02,4.341936483979225159e-02,-7.878958433866500854e-02,-3.235351443290710449e-01,-9.505734592676162720e-02,3.150227665901184082e-02,-3.672596439719200134e-02,2.927656518295407295e-03,-1.047731935977935791e-02,-1.008361503481864929e-01,-3.763497620820999146e-02,8.358424156904220581e-02,4.989719763398170471e-02,3.300740197300910950e-02,-3.349610790610313416e-02,5.870803073048591614e-02,-1.734295859932899475e-02,-3.481426043435931206e-03,1.337412744760513306e-01,-4.160536453127861023e-02,-9.076615422964096069e-02,1.179338917136192322e-01,-2.763346768915653229e-03,-3.539912030100822449e-02,-3.414419293403625488e-02,-4.563091788440942764e-03,1.967298239469528198e-02,-2.981265448033809662e-02,1.366186439990997314e-01,1.366296261548995972e-01,-1.760936379432678223e-01,2.387952059507369995e-02,5.256574600934982300e-03,4.416381008923053741e-03,-3.191187977790832520e-01,-2.988407388329505920e-02,4.227835685014724731e-02,7.357225567102432251e-02,-4.489069059491157532e-02,4.628172516822814941e-02,4.324057698249816895e-02,-4.797449707984924316e-02,6.771436333656311035e-02,-2.431210316717624664e-02,3.116865269839763641e-02,9.972788393497467041e-02,-4.495601356029510498e-02,-4.037528764456510544e-03,-4.274335876107215881e-02,1.713888160884380341e-02,-4.746564198285341263e-03,3.246948868036270142e-02,1.465788334608078003e-01,1.726746559143066406e-01,4.940989241003990173e-02,1.832877099514007568e-02,1.694309152662754059e-02,-3.972205333411693573e-03,-2.807156741619110107e-01,1.476608566008508205e-03,5.971824005246162415e-02,-1.367714703083038330e-01,-6.045042350888252258e-02,-7.297296077013015747e-02,-4.128798246383666992e-01,1.878903806209564209e-02,2.369181811809539795e-02,3.293166635558009148e-03,2.561806887388229370e-02,-1.755249127745628357e-02,-1.530212257057428360e-02,-3.081333264708518982e-02,-6.119683012366294861e-02,8.110034465789794922e-02,1.429847180843353271e-01,3.037915006279945374e-02,8.850429952144622803e-02,3.217414021492004395e-02,1.954774931073188782e-02,-5.544124171137809753e-02,-4.004195332527160645e-02,5.680840834975242615e-02,-4.966242238879203796e-02,-1.495489105582237244e-02,-1.735552586615085602e-02,1.036464869976043701e-01,8.399181067943572998e-02,1.415606681257486343e-02,9.751544892787933350e-02,-1.982581466436386108e-01,2.578510716557502747e-02,-4.004358872771263123e-02,-7.222040742635726929e-02,9.625478647649288177e-03,1.511155515909194946e-01,9.893590584397315979e-03,2.034363150596618652e-02,-1.713875494897365570e-02,-1.519168019294738770e-01,-1.498119384050369263e-01,-4.978623613715171814e-02,-4.222546890377998352e-02,7.134354859590530396e-02,-7.085522636771202087e-03,4.459233954548835754e-03,-1.301134079694747925e-01,4.125420749187469482e-02,1.565909087657928467e-01,-5.974849313497543335e-02,6.265801936388015747e-02,9.403610974550247192e-02,4.403740540146827698e-02,9.357192320749163628e-04,7.007221132516860962e-02,6.969662010669708252e-02,1.558517478406429291e-02,1.872306317090988159e-02,-3.484616428613662720e-02,1.307838014326989651e-03,-4.830243438482284546e-02,-1.293698847293853760e-01,-1.596828550100326538e-01,3.698673844337463379e-02,1.525373011827468872e-01,3.441112861037254333e-02,5.893472209572792053e-02,1.190448366105556488e-02,-5.282659549266099930e-03,4.059528931975364685e-02,8.520841598510742188e-03,9.151086956262588501e-02,1.049088165163993835e-01,-1.702857613563537598e-01,3.074901178479194641e-02,4.186176508665084839e-02,1.260954979807138443e-02,2.590795792639255524e-02,-2.726299501955509186e-02,-2.065034024417400360e-02,-4.704207554459571838e-02,7.125958800315856934e-02,-3.114635646343231201e-01,6.403592973947525024e-02,-9.808029979467391968e-02,-4.543404281139373779e-02,-4.192404076457023621e-02,9.366583824157714844e-02,6.907313317060470581e-02,6.900130957365036011e-02,7.579417526721954346e-02,1.316964719444513321e-02,-1.450185924768447876e-01,4.770452529191970825e-02,-3.101784735918045044e-02,1.115977987647056580e-01,1.371895223855972290e-01,5.576511844992637634e-02,-2.580475434660911560e-02,2.277934364974498749e-02,-5.362428352236747742e-02,-1.555834244936704636e-02,5.200117826461791992e-02,3.746150294318795204e-03,5.495345219969749451e-02,-1.446952819824218750e-01,8.180857636034488678e-03,-1.296408772468566895e-01,7.200052589178085327e-02,1.321920379996299744e-02,9.900649078190326691e-03,3.750897198915481567e-02,1.101247966289520264e-01,5.668368563055992126e-02,-7.890488021075725555e-03,1.807388477027416229e-02,2.008775994181632996e-02,3.137561306357383728e-02,-1.162532623857259750e-02,8.105475455522537231e-02,1.904159784317016602e-03,-9.146971628069877625e-03,1.324351429939270020e-01,-4.187469929456710815e-02,-4.404281452298164368e-02,-2.665577270090579987e-02,1.703148186206817627e-01,-2.059340290725231171e-02,1.912030391395092010e-02,1.093405932188034058e-01,-5.026036500930786133e-02,1.053512245416641235e-01,-1.495572775602340698e-01,-5.095626041293144226e-02,-2.706153690814971924e-02,-7.362195756286382675e-03,4.735109582543373108e-02,9.381007403135299683e-02,-1.343055814504623413e-01,1.350651681423187256e-01,-8.696146309375762939e-02,1.042989268898963928e-02,4.931567236781120300e-02,-4.518172889947891235e-02,6.572672724723815918e-02,-1.909224432893097401e-03,6.527001038193702698e-03,-4.756106808781623840e-02,6.038990337401628494e-03,-1.020987634547054768e-03,-2.458717301487922668e-02,-1.802615970373153687e-01,-4.011568147689104080e-03,-4.360031336545944214e-02,-5.394581705331802368e-02,8.554449677467346191e-02,-1.017047651112079620e-02,3.500203788280487061e-02,-2.352470532059669495e-03,5.405069142580032349e-02,9.385710954666137695e-02,-4.344074800610542297e-02,5.213565379381179810e-02,-1.658954471349716187e-02,-3.754258900880813599e-02,8.668101578950881958e-02,4.922189936041831970e-02,9.155023843050003052e-02,-5.559182912111282349e-02,-2.272051759064197540e-03,2.598310634493827820e-02,1.717951744794845581e-01,-4.017583094537258148e-03,-3.080232813954353333e-02,-8.999787271022796631e-02,3.529694676399230957e-02,3.514318168163299561e-02,-5.934190377593040466e-02,1.946919783949851990e-02,1.387116312980651855e-02,2.941064164042472839e-02,3.361918777227401733e-02,1.121499389410018921e-01
5.839099362492561340e-02,8.831803500652313232e-02,-4.582913219928741455e-02,-1.481481641530990601e-01,-2.016361802816390991e-02,9.148038178682327271e-02,9.148838371038436890e-02,-1.070221960544586182e-01,2.477708458900451660e-01,1.659046858549118042e-01,-2.148924209177494049e-02,1.872125081717967987e-02,-7.065737247467041016e-02,2.079942822456359863e-02,2.375990152359008789e-02,-1.273010075092315674e-01,-3.293607756495475769e-02,5.162620916962623596e-02,1.254415512084960938e-01,-1.486221514642238617e-02,-6.539118941873311996e-03,-2.061672508716583252e-02,-3.989409282803535461e-02,1.146816536784172058e-01,1.737157814204692841e-02,1.442452371120452881e-01,-2.063460946083068848e-01,-5.536810308694839478e-02,-1.455831900238990784e-02,-1.353350281715393066e-01,3.667720407247543335e-02,-5.543024837970733643e-02,2.451707143336534500e-03,-1.147797890007495880e-02,9.476301074028015137e-02,-8.672377467155456543e-02,4.593425989151000977e-02,4.557432606816291809e-02,-2.881244570016860962e-02,-6.611204147338867188e-02,-3.125017508864402771e-02,-3.050194680690765381e-02,-2.906622551381587982e-02,-1.213128026574850082e-02,-2.169254049658775330e-02,7.117099314928054810e-02,-2.205007150769233704e-02,-2.356786653399467468e-02,1.825946718454360962e-01,1.502161100506782532e-02,1.169490534812211990e-02,-4.088252782821655273e-03,2.712738141417503357e-02,5.593407154083251953e-02,-8.491546846926212311e-03,-5.166076496243476868e-02,6.052210181951522827e-02,2.232997119426727295e-02,-4.156580939888954163e-02,-5.609513819217681885e-02,-5.399263650178909302e-02,4.299666732549667358e-02,-1.302278507500886917e-02,-2.440893789753317833e-03,-3.207668662071228027e-02,6.299102306365966797e-02,-9.420635551214218140e-02,1.864802464842796326e-02,-3.024716861546039581e-02,-1.597387343645095825e-02,-8.063366636633872986e-03,-1.666847430169582367e-02,5.736651644110679626e-02,-9.786551445722579956e-02,1.614500023424625397e-02,9.242056310176849365e-02,1.238592565059661865e-01,-2.694987133145332336e-02,7.301665842533111572e-02,-9.149704419542104006e-05,-1.737961173057556152e-02,-5.345948040485382080e-02,-2.138643153011798859e-02,3.345923870801925659e-02,4.494228214025497437e-02,6.801071763038635254e-02,8.445055782794952393e-02,-2.277727983891963959e-02,5.484169349074363708e-02,8.894983679056167603e-02,5.229843407869338989e-02,-1.208196207880973816e-01,4.584742709994316101e-02,5.052737891674041748e-02,2.210027165710926056e-02,2.458660863339900970e-02,4.368919134140014648e-02,-3.543877974152565002e-02,1.514051854610443115e-01,-9.610085189342498779e-02,-4.549669567495584488e-03,-5.044012144207954407e-02,7.287360727787017822e-02,6.071619316935539246e-02,1.424356549978256226e-02,8.564953692257404327e-03,-1.441846936941146851e-01,1.324009597301483154e-01,5.175928771495819092e-02,1.061637327075004578e-01,2.506424672901630402e-02,-4.591006040573120117e-02,-1.975214928388595581e-01,-1.935567334294319153e-02,-1.025760695338249207e-01,6.277747452259063721e-02,8.424455672502517700e-02,1.415635645389556885e-01,2.754937671124935150e-02,-1.805423013865947723e-02,1.905672485008835793e-03,-6.388949602842330933e-02,-1.439100950956344604e-01,-7.894599810242652893e-03,4.267880320549011230e-02,3.451001271605491638e-02,9.452621452510356903e-03,1.227724105119705200e-01,2.926795929670333862e-02,1.840913295745849609e-02,4.612704366445541382e-02,-4.808598756790161133e-02,1.078378334641456604e-01,5.287101026624441147e-03,8.939888328313827515e-02,-7.097644358873367310e-02,4.192045703530311584e-02,-2.018197029829025269e-01,3.924406319856643677e-02,-1.882755011320114136e-02,4.811695218086242676e-02,4.782786965370178223e-02,-8.338544517755508423e-03,2.956440439447760582e-03,-6.824532896280288696e-02,-3.705545365810394287e-01,-1.994434930384159088e-02,4.514880478382110596e-02,8.236688561737537384e-03,-6.986899673938751221e-02,4.449197649955749512e-02,-1.387354172766208649e-02,4.101461544632911682e-02,-1.349864061921834946e-02,8.126855641603469849e-02,1.948459632694721222e-02,8.991819620132446289e-02,-5.326786264777183533e-02,7.501181215047836304e-02,2.149166772142052650e-03,1.449802368879318237e-01,1.197295542806386948e-02,-1.487324237823486328e-01,1.223755031824111938e-01,2.754944562911987305e-02,-3.619759529829025269e-02,1.274898350238800049e-01,7.045203447341918945e-02,-4.894867166876792908e-02,9.485065937042236328e-02,-9.942832589149475098e-02,-2.344747260212898254e-02,-6.721605360507965088e-02,-5.702429264783859253e-02,2.201554737985134125e-02,3.194513544440269470e-02,-1.128023788332939148e-01,-2.749662660062313080e-02,3.466799855232238770e-02,3.785947337746620178e-02,-1.641763839870691299e-03,-4.928519949316978455e-03,1.744931787252426147e-01,2.817290276288986206e-02,1.716130226850509644e-02,-4.494397714734077454e-02,8.481765538454055786e-02,6.115322932600975037e-02,-8.343950659036636353e-02,-7.581685483455657959e-02,-3.137304261326789856e-02,-2.672348730266094208e-02,-7.328147999942302704e-03,2.732649631798267365e-02,-3.769781207665801048e-03,-7.238841056823730469e-02,1.590993069112300873e-02,7.588704582303762436e-03,1.275789439678192139e-01,-9.037752635776996613e-03,5.611117929220199585e-02,2.047863416373729706e-02,6.827563047409057617e-02,-3.424191474914550781e-02,1.341751664876937866e-01,-4.420159757137298584e-02,-8.313881605863571167e-02,-1.422261819243431091e-02,4.506338015198707581e-02,5.037242174148559570e-02,1.000413373112678528e-01,7.349042594432830811e-02,-1.302094757556915283e-01,-2.211333950981497765e-03,9.591192007064819336e-02,-2.848537266254425049e-02,6.613954901695251465e-03,-3.163948655128479004e-02,-3.640824556350708008e-02,-8.487331122159957886e-02,4.947026818990707397e-02,1.917470246553421021e-01,5.824054777622222900e-02,2.048489078879356384e-02,2.583235204219818115e-01,6.837555021047592163e-02,-1.390402088873088360e-03,2.791975438594818115e-02,7.601308077573776245e-02,-3.654104843735694885e-02,5.611797794699668884e-02,1.787595637142658234e-02,-3.671491891145706177e-02,-2.483626753091812134e-01,6.597834825515747070e-02,3.352351114153862000e-02,-3.379200771450996399e-02,-1.243465244770050049e-01,-8.647561073303222656e-02,-2.400002330541610718e-01,-3.377508372068405151e-02,-4.646817594766616821e-02,3.505372628569602966e-02,-4.427776113152503967e-02,-5.447888374328613281e-02,3.604018315672874451e-02,1.529616583138704300e-02,-1.068049222230911255e-01,-4.844933003187179565e-02,3.220960497856140137e-02,-7.491825520992279053e-02,3.568233177065849304e-02,-3.453444689512252808e-02,-1.916101127862930298e-01,4.346859827637672424e-02,4.192385450005531311e-02
-1.825399845838546753e-01,2.407875359058380127e-01,-1.119693219661712646e-01,8.938157558441162109e-02,-2.310531586408615112e-02,-5.600749701261520386e-02,-2.594386041164398193e-02,1.212437003850936890e-01,2.417736127972602844e-02,-9.186976402997970581e-02,-6.225777789950370789e-02,2.932617440819740295e-03,4.170441254973411560e-02,-3.855390101671218872e-02,-6.066338717937469482e-02,-3.955213818699121475e-03,-2.342259883880615234e-02,8.002767711877822876e-02,-2.693285793066024780e-02,5.562840402126312256e-02,7.276534289121627808e-02,4.283987358212471008e-02,-2.793844416737556458e-02,3.730240464210510254e-02,3.464551642537117004e-02,-5.658269673585891724e-02,9.336800873279571533e-02,8.992636948823928833e-02,-5.960666388273239136e-02,-1.360163558274507523e-02,-3.657015413045883179e-02,3.488039225339889526e-02,2.678060233592987061e-01,-1.965290606021881104e-01,-1.317916363477706909e-01,1.672946475446224213e-02,-1.311728060245513916e-01,4.312133789062500000e-02,-5.785000044852495193e-03,7.805129885673522949e-02,2.029579319059848785e-02,-1.520710811018943787e-02,-4.814689978957176208e-02,3.512999042868614197e-02,2.084980905055999756e-01,-6.930536776781082153e-02,-4.609096795320510864e-02,-3.470906754955649376e-03,1.774854212999343872e-01,-4.273682832717895508e-03,5.378516018390655518e-02,1.488860249519348145e-01,-2.701502293348312378e-02,4.639029130339622498e-02,9.459114074707031250e-02,-3.813279047608375549e-02,-5.262924358248710632e-03,7.628902792930603027e-02,-9.400343149900436401e-02,-1.781423389911651611e-01,5.934506654739379883e-02,9.074456989765167236e-03,9.076178073883056641e-03,-2.440471202135086060e-02,4.014163860119879246e-04,3.304526954889297485e-02,-4.870794713497161865e-02,5.324455350637435913e-02,-6.607264280319213867e-02,-2.735630422830581665e-02,-3.440460190176963806e-02,-3.441767394542694092e-02,-4.011078178882598877e-02,5.826491117477416992e-02,4.234509915113449097e-02,-2.548760175704956055e-01,-8.719392865896224976e-02,4.034578427672386169e-02,-1.961915791034698486e-01,-5.052921548485755920e-02,-3.985201567411422729e-02,-3.020735085010528564e-02,-5.329915508627891541e-02,1.066268980503082275e-02,-2.049210295081138611e-02,2.743364498019218445e-02,-9.397656656801700592e-03,-1.361482404172420502e-02,-2.506569325923919678e-01,-1.545485854148864746e-01,3.245290741324424744e-02,1.351978182792663574e-01,3.998224064707756042e-02,2.074705064296722412e-02,-4.429884720593690872e-03,1.894514448940753937e-02,6.481888145208358765e-02,-5.835558474063873291e-02,1.698950678110122681e-02,-5.415155738592147827e-02,-8.275771141052246094e-02,1.329806109424680471e-04,-4.912894964218139648e-02,7.528399676084518433e-02,3.800787404179573059e-02,-2.613939286675304174e-04,5.234301090240478516e-02,-5.173800140619277954e-02,3.668768703937530518e-02,-2.055156379938125610e-01,8.112323284149169922e-02,1.976768486201763153e-02,1.956930756568908691e-01,9.094693511724472046e-02,-5.962784960865974426e-02,2.613894641399383545e-02,-9.270052611827850342e-02,3.160270303487777710e-02,1.644304543733596802e-01,-6.433830410242080688e-02,4.709687456488609314e-02,5.164573714137077332e-02,4.977231379598379135e-03,4.774570465087890625e-02,5.636201426386833191e-02,-2.287843264639377594e-02,2.883958257734775543e-02,1.122357249259948730e-01,-1.605515033006668091e-01,-2.425862709060311317e-03,-5.172025412321090698e-02,3.270471468567848206e-02,1.501797288656234741e-01,-4.937151074409484863e-02,7.552986592054367065e-02,-2.625480666756629944e-02,-1.530173420906066895e-02,2.000212520360946655e-01,2.371397102251648903e-03,-1.093971207737922668e-01,2.971875108778476715e-02,-1.139129847288131714e-01,1.427402533590793610e-02,4.451124370098114014e-02,-3.184308856725692749e-02,-8.077435195446014404e-02,6.930921226739883423e-02,1.072082668542861938e-02,-2.543934807181358337e-02,-4.865422844886779785e-02,-5.543741211295127869e-02,6.167991831898689270e-02,-3.328354284167289734e-02,4.677043855190277100e-02,6.243244931101799011e-02,-5.131226181983947754e-01,2.698613330721855164e-02,5.056089535355567932e-02,-1.042797463014721870e-03,-5.050277709960937500e-02,1.220226436853408813e-01,-8.978218585252761841e-02,8.060868084430694580e-02,1.416081562638282776e-02,-1.680895127356052399e-02,1.349440366029739380e-01,-1.791421771049499512e-01,1.393699944019317627e-01,-7.472688704729080200e-02,-7.291401922702789307e-02,1.032527461647987366e-01,3.724360838532447815e-02,3.562405705451965332e-03,3.965155780315399170e-02,2.393776550889015198e-02,-7.688320707529783249e-03,-2.873004786670207977e-02,-5.243360996246337891e-02,-1.006953716278076172e-01,-2.072083391249179840e-02,5.410782247781753540e-02,9.162546694278717041e-02,3.969149291515350342e-02,-3.213366866111755371e-02,1.777373999357223511e-02,1.651737242937088013e-01,-4.220405220985412598e-02,-6.163953989744186401e-02,4.982009157538414001e-02,4.739874228835105896e-02,6.613212078809738159e-02,1.536513585597276688e-02,-9.002605453133583069e-03,-3.709903359413146973e-02,-1.231292709708213806e-01,-1.645506918430328369e-01,-1.957198977470397949e-02,6.318171042948961258e-03,6.738283485174179077e-02,5.129973962903022766e-02,5.143886059522628784e-02,-2.747594751417636871e-02,2.434566244482994080e-02,5.801335349678993225e-02,6.088472902774810791e-02,-4.358989745378494263e-02,-1.718418323434889317e-03,-3.660695999860763550e-02,2.030147984623908997e-02,1.255983114242553711e-02,4.425585642457008362e-02,5.255747213959693909e-02,9.991054981946945190e-02,1.686351560056209564e-02,-1.893681101500988007e-02,3.277147933840751648e-02,-2.432561852037906647e-02,-3.729695454239845276e-02,-3.714174032211303711e-03,-7.536032050848007202e-02,-1.674488186836242676e-03,1.560714095830917358e-02,-1.224914416670799255e-01,3.041116148233413696e-02,-1.969004124402999878e-01,1.004988327622413635e-01,-2.675778791308403015e-02,-1.401983797550201416e-01,-2.608940899372100830e-01,-4.803691804409027100e-02,5.983088165521621704e-02,1.587013155221939087e-02,4.482818394899368286e-02,1.143464259803295135e-02,2.885259315371513367e-02,-7.780826836824417114e-02,-3.498307242989540100e-02,-9.928983449935913086e-02,-4.462684318423271179e-02,1.138323992490768433e-01,1.807580888271331787e-02,-1.564490050077438354e-02,-1.387912780046463013e-01,1.573974080383777618e-02,1.093442589044570923e-01,-1.325393915176391602e-01,3.024542890489101410e-02,7.660257816314697266e-02,-1.037843525409698486e-03,-4.544317722320556641e-02,3.797920362558215857e-04,-4.279947374016046524e-03,1.816313248127698898e-03,2.659173868596553802e-02,7.910104840993881226e-02,-6.236343458294868469e-02
8.597081899642944336e-02,-3.871171921491622925e-02,2.371858246624469757e-02,1.650757789611816406e-01,-1.661987602710723877e-02,-1.525004580616950989e-02,6.013746187090873718e-02,-2.143828719854354858e-01,-7.853157818317413330e-02,1.448872387409210205e-01,4.159807693213224411e-03,-5.649001896381378174e-02,-1.078069675713777542e-02,-3.384749591350555420e-02,1.831659674644470215e-02,-2.550802566111087799e-02,7.063596509397029877e-03,8.433271199464797974e-03,6.880192458629608154e-02,-2.132825553417205811e-02,1.129625886678695679e-01,-2.831608057022094727e-02,-3.490043431520462036e-02,1.076897233724594116e-02,6.886097788810729980e-02,-2.151950448751449585e-01,8.471281081438064575e-02,-1.460657268762588501e-02,-2.430004812777042389e-02,3.475162386894226074e-02,6.021849438548088074e-02,-3.486901114229112864e-04,7.096331682987511158e-04,8.675421029329299927e-02,-1.074136421084403992e-01,1.422979980707168579e-01,1.166054382920265198e-01,-6.056090444326400757e-02,9.233065694570541382e-02,5.228956416249275208e-02,9.568965435028076172e-02,-2.965537458658218384e-02,-1.050548851490020752e-01,-1.706651449203491211e-01,1.718287728726863861e-02,7.458795607089996338e-02,-6.959512829780578613e-03,5.174221843481063843e-02,-2.005269229412078857e-01,-3.690122067928314209e-02,4.816535115242004395e-02,1.221267953515052795e-01,6.465313583612442017e-02,5.712593346834182739e-02,-1.859826594591140747e-01,4.550131037831306458e-02,-6.291282176971435547e-02,-1.160636916756629944e-01,4.868998378515243530e-02,1.074171215295791626e-01,-2.145081758499145508e-02,-2.705897390842437744e-02,2.808824926614761353e-02,-1.431206334382295609e-02,-4.387069493532180786e-02,2.833677269518375397e-02,-2.303529158234596252e-02,1.649203337728977203e-02,3.701316937804222107e-02,-2.703948318958282471e-02,-7.746654748916625977e-02,-5.791962146759033203e-02,1.778957061469554901e-02,7.500282675027847290e-02,2.199963899329304695e-03,-1.024558246135711670e-01,1.772692948579788208e-01,-9.539131075143814087e-02,6.954541057348251343e-02,3.890911489725112915e-02,1.531727320980280638e-04,-3.903560712933540344e-02,-2.908671647310256958e-02,1.890128105878829956e-02,-1.196046918630599976e-02,5.293479934334754944e-02,-7.194925844669342041e-02,6.231552921235561371e-03,2.234178334474563599e-01,-1.253806650638580322e-01,-1.893018931150436401e-02,-6.978907436132431030e-02,-1.089701950550079346e-01,4.133806377649307251e-02,-4.285554587841033936e-02,-3.392792865633964539e-02,4.886920005083084106e-02,5.070476233959197998e-02,-1.285418272018432617e-01,-1.099785193800926208e-01,3.986252844333648682e-02,9.592922404408454895e-03,-5.726717039942741394e-02,9.639046154916286469e-03,-1.497693359851837158e-03,-4.481799528002738953e-02,-5.682334303855895996e-02,2.074799835681915283e-01,-2.448002845048904419e-01,1.145522445440292358e-01,4.880535416305065155e-03,-5.198540538549423218e-02,-6.550206989049911499e-02,1.485761161893606186e-02,5.853923410177230835e-02,1.054365560412406921e-01,-6.746253371238708496e-02,1.187566816806793213e-01,-1.916179805994033813e-01,-4.107553511857986450e-02,-5.829383805394172668e-02,-1.581035181879997253e-02,-2.751203067600727081e-02,-4.381813108921051025e-03,-2.717478014528751373e-02,-4.833060875535011292e-02,-2.577345632016658783e-02,-4.531191885471343994e-01,-7.078293710947036743e-02,-3.803854063153266907e-02,1.328981667757034302e-02,-4.961847886443138123e-02,-1.347768753767013550e-01,-2.745275199413299561e-02,-6.558156758546829224e-02,8.218617737293243408e-02,-4.296319186687469482e-02,1.247273236513137817e-01,-5.544821172952651978e-02,1.375584602355957031e-01,7.306746672838926315e-03,6.832198053598403931e-02,-2.362076938152313232e-02,9.767867624759674072e-03,7.513360679149627686e-02,2.374134585261344910e-02,1.782227307558059692e-01,-1.569490879774093628e-02,-4.551355540752410889e-02,-8.419405668973922729e-02,-5.303092300891876221e-02,4.208797961473464966e-02,-4.350540041923522949e-02,-6.178729701787233353e-03,-2.655722200870513916e-01,4.537359997630119324e-02,1.638147085905075073e-01,1.049998849630355835e-01,9.442744404077529907e-02,1.020071655511856079e-02,-1.981602311134338379e-01,-4.714350774884223938e-02,5.731463432312011719e-02,-1.866960972547531128e-01,-7.117830216884613037e-03,1.491779834032058716e-01,5.949063599109649658e-02,-1.591503471136093140e-01,-1.112030148506164551e-01,9.591139853000640869e-02,-7.609849423170089722e-02,2.780455909669399261e-02,3.509337082505226135e-02,-4.718263447284698486e-02,1.182774454355239868e-02,5.929511412978172302e-02,-2.959214150905609131e-01,-2.823388576507568359e-02,5.043730512261390686e-02,-2.090016752481460571e-02,1.000708937644958496e-01,-5.561289191246032715e-02,-2.067786902189254761e-01,-3.536285459995269775e-02,2.804557234048843384e-02,1.509262621402740479e-01,-5.820571910589933395e-03,-8.789626881480216980e-03,1.234875340014696121e-02,2.098153345286846161e-02,6.030355580151081085e-03,-5.368422344326972961e-02,-1.599855422973632812e-01,-2.972869947552680969e-02,2.044418081641197205e-02,-2.075527096167206764e-03,3.293964266777038574e-02,-3.386365622282028198e-02,-1.659630425274372101e-02,9.425076842308044434e-02,-3.480850905179977417e-02,-7.781130075454711914e-02,-5.323997884988784790e-02,2.703949250280857086e-02,-1.758999973535537720e-01,4.715972021222114563e-02,-2.825413830578327179e-02,5.507060885429382324e-02,-1.009207293391227722e-01,5.613831803202629089e-02,-3.112143278121948242e-01,-8.693712949752807617e-02,4.165752232074737549e-02,8.083452284336090088e-02,3.449473530054092407e-02,-2.823798358440399170e-02,-5.530003458261489868e-02,-1.525961309671401978e-01,-5.250832438468933105e-02,1.015003472566604614e-01,3.161855041980743408e-02,-2.426550090312957764e-01,3.750163130462169647e-03,-2.507808804512023926e-02,-8.705561980605125427e-03,1.532760169357061386e-02,3.051917254924774170e-02,3.849924728274345398e-02,-1.532464772462844849e-01,-3.159808367490768433e-02,-1.713301055133342743e-02,-5.791391432285308838e-02,4.537594318389892578e-02,-7.147148251533508301e-02,-3.845390677452087402e-02,7.600151747465133667e-02,7.072426378726959229e-03,-2.681643515825271606e-02,1.025270149111747742e-01,7.085809856653213501e-02,-7.532656192779541016e-02,-3.976017981767654419e-02,8.606911450624465942e-02,2.113880030810832977e-02,-1.603444367647171021e-01,1.544189602136611938e-01,-3.574801236391067505e-02,-7.430247962474822998e-02,4.286011308431625366e-02,-1.723095774650573730e-02,4.799685627222061157e-02,6.804510951042175293e-03,4.200402647256851196e-02,-2.319191023707389832e-02,5.351864546537399292e-02,1.185679137706756592e-01
-4.693608731031417847e-02,8.351365476846694946e-02,1.699892878532409668e-01,-2.178272791206836700e-02,-5.459108203649520874e-02,4.586001113057136536e-02,7.625550776720046997e-02,-6.201766803860664368e-02,5.928380996920168400e-04,-2.918081879615783691e-01,-5.530574172735214233e-02,-3.434218466281890869e-02,1.981919109821319580e-01,-2.547647431492805481e-02,2.475516684353351593e-02,3.486896678805351257e-02,3.146471828222274780e-02,2.425553277134895325e-02,3.811635822057723999e-02,-4.091753624379634857e-03,7.652695477008819580e-02,-3.206885606050491333e-02,-1.421265583485364914e-02,8.864489942789077759e-02,-2.209305390715599060e-02,-1.704802364110946655e-01,7.651670277118682861e-02,7.279200106859207153e-02,2.851316332817077637e-02,9.026538580656051636e-02,-2.284123562276363373e-02,1.269498616456985474e-01,-1.213460788130760193e-01,-3.556176722049713135e-01,1.144610568881034851e-01,1.372395735234022141e-02,4.711523652076721191e-02,6.320124119520187378e-02,1.030151620507240295e-01,1.103112474083900452e-03,5.686546489596366882e-02,-8.831738494336605072e-03,1.299171522259712219e-02,8.872272074222564697e-02,8.751695603132247925e-02,8.613997697830200195e-02,-1.508098747581243515e-02,-3.618085756897926331e-02,2.420591413974761963e-01,4.572467133402824402e-02,-4.156601428985595703e-02,1.226735953241586685e-02,8.354139328002929688e-02,-2.564400248229503632e-02,-4.114038869738578796e-02,-3.963709995150566101e-02,1.032578274607658386e-01,4.077319055795669556e-03,6.477843225002288818e-02,8.958996273577213287e-03,5.097865313291549683e-02,-1.271408889442682266e-02,-2.571403607726097107e-02,7.421439513564109802e-03,-1.017741020768880844e-02,-5.085440725088119507e-02,-1.200998872518539429e-01,7.935920357704162598e-02,4.218819364905357361e-02,4.542564228177070618e-02,2.479461953043937683e-02,4.119621962308883667e-02,-4.773953557014465332e-02,1.512934565544128418e-01,-1.638937741518020630e-02,4.783480614423751831e-02,-9.951937943696975708e-02,4.026336967945098877e-02,1.260660141706466675e-01,2.996064908802509308e-02,4.330570623278617859e-02,1.186667941510677338e-02,-1.056512165814638138e-02,-2.142889983952045441e-02,1.251333579421043396e-02,-3.047732822597026825e-02,2.430466748774051666e-02,3.629556158557534218e-03,-3.556113243103027344e-01,-6.713533401489257812e-02,-1.463959664106369019e-01,-2.243117429316043854e-02,-1.114998757839202881e-01,4.648490250110626221e-02,2.422960847616195679e-02,-5.306944623589515686e-02,-2.047218568623065948e-02,4.093570262193679810e-02,-1.519071776419878006e-02,-1.944229565560817719e-02,3.861034289002418518e-02,3.711095079779624939e-02,-9.997016750276088715e-03,-1.644031330943107605e-02,4.476992040872573853e-02,5.109054967761039734e-02,-5.060785263776779175e-02,1.617726534605026245e-01,1.216289121657609940e-02,3.134480863809585571e-02,-1.044671535491943359e-01,7.121047470718622208e-03,1.309490948915481567e-01,1.295581758022308350e-01,8.483049459755420685e-03,-6.150226294994354248e-02,-1.293398905545473099e-02,1.138781756162643433e-02,6.633594166487455368e-03,3.998202458024024963e-02,7.836416363716125488e-03,-4.679439589381217957e-02,-1.116737872362136841e-01,3.356702625751495361e-02,-1.117361932992935181e-01,-2.322007156908512115e-02,-3.160762600600719452e-03,1.150472387671470642e-01,2.261236496269702911e-02,2.337828837335109711e-02,-5.740163475275039673e-02,-1.392075978219509125e-02,6.140093784779310226e-03,1.044673845171928406e-01,-5.085600167512893677e-02,1.020557433366775513e-01,4.316404461860656738e-02,-5.125467106699943542e-02,-6.118835881352424622e-02,2.452183701097965240e-02,7.206983119249343872e-02,3.526249155402183533e-02,4.036815091967582703e-02,4.639397561550140381e-02,-3.320865705609321594e-02,2.953108400106430054e-02,1.204383671283721924e-01,2.909602411091327667e-02,3.277239203453063965e-02,-4.506073601078242064e-04,-2.242645621299743652e-02,-1.202333625406026840e-02,-3.201166167855262756e-02,-6.570599228143692017e-02,3.550799190998077393e-02,1.131600216031074524e-01,9.609653614461421967e-03,3.996001183986663818e-02,-1.062613427639007568e-01,1.760632358491420746e-02,5.750690773129463196e-02,9.347287565469741821e-02,5.195043236017227173e-02,-5.813003703951835632e-02,-6.700386852025985718e-02,1.586494967341423035e-02,-9.139065630733966827e-03,9.316162019968032837e-02,-5.764668434858322144e-02,-1.986213624477386475e-01,3.433359041810035706e-02,1.185341551899909973e-02,4.446355625987052917e-02,4.505547136068344116e-02,-3.990599885582923889e-02,-8.739531040191650391e-02,-5.339090153574943542e-02,-4.512275755405426025e-02,4.341777041554450989e-02,1.620856113731861115e-02,6.287061423063278198e-02,-6.718149036169052124e-02,-9.215285629034042358e-02,-2.496962063014507294e-02,-3.424534946680068970e-02,-2.167531400918960571e-01,-5.772178620100021362e-02,-4.653894528746604919e-02,-3.811793774366378784e-02,2.161333151161670685e-02,1.981086283922195435e-02,-7.269548624753952026e-02,1.100322604179382324e-01,-2.992863394320011139e-02,2.103431709110736847e-02,-7.663390785455703735e-02,1.713335886597633362e-02,-5.736086517572402954e-02,-1.063532307744026184e-01,-1.518280059099197388e-01,-7.643155287951231003e-03,-8.709016442298889160e-02,2.009486779570579529e-02,1.166591979563236237e-02,-6.206936761736869812e-02,2.773020789027214050e-02,-1.640687286853790283e-01,-2.183781005442142487e-02,-7.195427268743515015e-02,-4.628099501132965088e-02,-8.186865597963333130e-02,8.803827315568923950e-02,-5.595799535512924194e-02,1.021259874105453491e-01,-4.098941385746002197e-02,4.477569460868835449e-02,-4.614733532071113586e-02,-1.358534488826990128e-02,-9.127228404395282269e-04,-5.631050094962120056e-02,-2.048504352569580078e-02,2.743224054574966431e-02,-2.471096068620681763e-02,-2.168400585651397705e-02,-6.853862851858139038e-02,-9.103589504957199097e-02,5.539727862924337387e-03,1.866867952048778534e-02,3.628550842404365540e-02,-3.303623199462890625e-02,-1.805913634598255157e-02,-2.287632972002029419e-02,-2.658315315784420818e-05,2.138322889804840088e-01,6.718929111957550049e-02,-1.022502109408378601e-01,-3.486970090307295322e-04,-5.642898753285408020e-02,3.110909834504127502e-02,-1.801569759845733643e-01,5.509742721915245056e-02,3.208648040890693665e-02,-6.717997789382934570e-02,6.527090817689895630e-02,-4.975977167487144470e-02,-5.324879661202430725e-02,-5.319523438811302185e-02,4.872764274477958679e-02,3.699921444058418274e-02,-5.948125198483467102e-02,9.899140149354934692e-02,2.519374480471014977e-03,-3.815409913659095764e-02,-8.927520364522933960e-02,4.594506695866584778e-02,1.123240590095520020e-02
-4.444953799247741699e-02,-5.449673905968666077e-02,8.217785507440567017e-02,-1.302242577075958252e-01,-4.223491251468658447e-02,-7.205162942409515381e-02,-1.100115403532981873e-01,1.420128345489501953e-01,3.888766095042228699e-02,1.060639768838882446e-01,-2.229693979024887085e-01,1.990283280611038208e-02,-2.179689556360244751e-01,-4.340239614248275757e-02,6.056377291679382324e-02,-2.909392677247524261e-02,1.008558645844459534e-01,4.552583768963813782e-02,-1.474765092134475708e-01,7.774055004119873047e-03,6.130659580230712891e-02,-2.563084661960601807e-02,-3.567580878734588623e-02,1.253183186054229736e-01,3.256163746118545532e-02,6.889744102954864502e-02,9.135162085294723511e-02,1.143730506300926208e-01,-5.757001787424087524e-02,5.886793881654739380e-02,3.962268680334091187e-02,7.413685321807861328e-02,2.750013172626495361e-01,-3.531203269958496094e-01,7.666368037462234497e-02,1.487169135361909866e-02,-9.810612350702285767e-02,-1.189313083887100220e-02,-2.356418408453464508e-02,-4.370179027318954468e-02,-2.001091837882995605e-01,3.116064518690109253e-02,1.731981174089014530e-03,6.205532699823379517e-02,-1.299545019865036011e-01,1.478010565042495728e-01,-1.929964870214462280e-02,-2.437374740839004517e-02,2.035831473767757416e-02,-2.858540415763854980e-02,4.150459915399551392e-02,-4.602338746190071106e-02,-1.679067313671112061e-01,6.028281897306442261e-02,3.383791074156761169e-02,4.464419931173324585e-02,-1.740560829639434814e-01,-1.708636526018381119e-03,5.099416896700859070e-02,3.343471512198448181e-02,4.627943038940429688e-03,1.633582264184951782e-02,4.152826219797134399e-02,5.564260482788085938e-02,5.350864678621292114e-02,3.667622804641723633e-03,1.956893056631088257e-01,-4.984900355339050293e-02,-2.450766414403915405e-02,4.632544517517089844e-02,7.063216064125299454e-03,6.164122372865676880e-02,-4.243364632129669189e-01,-3.796537173911929131e-03,-5.710379034280776978e-02,-2.629245631396770477e-02,-1.381039470434188843e-01,-7.535851001739501953e-02,-2.244090586900711060e-01,7.217377424240112305e-03,-7.941477000713348389e-03,-3.304239362478256226e-02,5.501251667737960815e-02,5.087581276893615723e-02,-5.661601573228836060e-02,-5.997092276811599731e-02,-2.998574376106262207e-01,-1.263842284679412842e-01,-2.116110324859619141e-01,-5.942362546920776367e-02,-1.761751323938369751e-01,5.494187399744987488e-02,-7.037779781967401505e-03,8.524663746356964111e-03,-1.676715910434722900e-02,5.749853700399398804e-02,1.131529361009597778e-02,3.833390772342681885e-02,1.348683685064315796e-01,-1.599497199058532715e-01,-2.794701233506202698e-02,-4.878267645835876465e-02,3.050949051976203918e-02,-2.621891200542449951e-01,3.090772032737731934e-02,-4.782766103744506836e-03,1.657045036554336548e-01,4.011469334363937378e-02,2.236268818378448486e-01,-1.362884640693664551e-01,9.778718650341033936e-02,5.161783844232559204e-02,-1.543378829956054688e-01,2.883576415479183197e-02,1.341992150992155075e-02,-1.722508482635021210e-02,-1.143947094678878784e-01,-6.300765275955200195e-02,1.112399995326995850e-01,-8.817953988909721375e-03,2.219571918249130249e-02,7.896044291555881500e-03,-5.571071058511734009e-02,2.470222860574722290e-02,1.855762153863906860e-01,2.767093479633331299e-03,-5.766122043132781982e-02,9.735540300607681274e-02,5.647724494338035583e-02,5.107425898313522339e-02,-4.130509495735168457e-02,-1.277761161327362061e-02,-3.792094066739082336e-02,-1.780363768339157104e-01,-5.476752668619155884e-02,1.721690297126770020e-01,5.336034297943115234e-02,5.913210287690162659e-02,-3.275988996028900146e-02,3.775112703442573547e-02,4.272891581058502197e-02,-2.123490422964096069e-01,-1.624615490436553955e-02,2.452604472637176514e-02,1.183024793863296509e-01,4.590888973325490952e-03,7.330849766731262207e-02,3.420920670032501221e-02,2.634024620056152344e-02,1.078044846653938293e-01,5.305938422679901123e-03,1.979166269302368164e-02,2.956415712833404541e-02,-9.497757256031036377e-02,-7.148846983909606934e-02,-4.744169488549232483e-02,-9.073896706104278564e-02,-2.449115552008152008e-02,-7.218796014785766602e-02,-1.143178343772888184e-02,1.496428847312927246e-01,9.518078714609146118e-02,1.235163304954767227e-02,1.679628714919090271e-02,5.414973199367523193e-02,-2.622478306293487549e-01,-2.638040781021118164e-01,-6.602995842695236206e-02,-2.912799362093210220e-03,7.878441363573074341e-02,-1.063686460256576538e-01,-2.805143594741821289e-05,4.346407949924468994e-03,-4.033666104078292847e-02,1.874613761901855469e-02,-1.192601621150970459e-01,6.699549406766891479e-02,1.550352573394775391e-02,-1.032389774918556213e-01,1.437116414308547974e-02,-2.453586459159851074e-01,1.891795098781585693e-01,-2.401093691587448120e-01,5.682361125946044922e-02,-5.936781316995620728e-02,7.641474902629852295e-02,-3.456586226820945740e-02,-1.348284333944320679e-01,-7.902070879936218262e-02,1.130359843373298645e-01,-6.305197626352310181e-02,-4.812399670481681824e-02,-7.527166604995727539e-02,3.830977529287338257e-02,-7.082312554121017456e-02,-1.405360549688339233e-01,2.949560433626174927e-02,4.308007657527923584e-02,-2.113977372646331787e-01,-6.798864901065826416e-02,4.916175454854965210e-02,4.659052193164825439e-02,1.177386343479156494e-01,-4.896561801433563232e-02,8.531460911035537720e-02,-3.687096834182739258e-01,-1.183442920446395874e-01,4.082788527011871338e-02,-2.599547803401947021e-01,-2.101556956768035889e-02,-6.229697167873382568e-02,-7.971423864364624023e-02,9.171523153781890869e-02,-2.098178714513778687e-01,-1.222319826483726501e-01,2.575032413005828857e-02,4.555904120206832886e-02,1.639629155397415161e-02,4.350288212299346924e-02,-1.652374565601348877e-01,-5.571019649505615234e-02,8.134943246841430664e-02,-1.355433017015457153e-01,1.987441629171371460e-02,-2.099142968654632568e-01,-1.793946884572505951e-02,-6.921023130416870117e-03,-1.171106696128845215e-01,4.200207442045211792e-02,-4.642963409423828125e-02,3.344050049781799316e-02,2.633825689554214478e-02,4.172825813293457031e-02,-5.746452510356903076e-02,-1.028843000531196594e-01,-2.024307698011398315e-01,-3.372225165367126465e-02,-1.149068921804428101e-01,1.858319193124771118e-01,-9.671176224946975708e-02,6.075092405080795288e-02,4.132173210382461548e-02,-2.665664851665496826e-01,2.259656786918640137e-03,7.452701032161712646e-02,-3.542029066011309624e-03,-1.250999420881271362e-02,-1.835322976112365723e-01,-9.832948446273803711e-03,2.035648375749588013e-02,1.193918362259864807e-01,1.936827600002288818e-02,4.895302653312683105e-02,-1.076596826314926147e-01,-3.046289682388305664e-01,-1.876145303249359131e-01
-2.259747125208377838e-03,8.349668234586715698e-02,1.047325432300567627e-01,6.764931231737136841e-02,4.526950418949127197e-03,1.509383171796798706e-01,1.105871126055717468e-01,1.122972890734672546e-01,4.071592912077903748e-02,-2.890160381793975830e-01,-4.153266549110412598e-02,-8.725138381123542786e-03,4.863281548023223877e-02,-5.206199735403060913e-02,3.714217618107795715e-02,-8.649171888828277588e-02,1.294864621013402939e-02,1.446382142603397369e-02,-8.046369254589080811e-02,1.707590557634830475e-02,3.942558541893959045e-02,3.779151290655136108e-02,-9.541615843772888184e-03,1.527849882841110229e-01,-5.858545377850532532e-02,1.351065654307603836e-02,-2.791241183876991272e-02,1.456024348735809326e-01,5.215610563755035400e-02,-9.399670362472534180e-02,-4.137379303574562073e-02,3.213354572653770447e-02,-5.975044146180152893e-02,-3.240154981613159180e-01,9.579936414957046509e-02,5.375716835260391235e-02,-4.824304208159446716e-02,-6.338530778884887695e-02,3.041434660553932190e-02,-1.097590103745460510e-01,3.170638112351298332e-03,4.442407563328742981e-02,9.086671285331249237e-03,8.768627047538757324e-02,5.372410267591476440e-02,-4.067403450608253479e-02,6.486163288354873657e-02,-3.395541757345199585e-02,3.585877716541290283e-01,-4.623543098568916321e-02,-5.893405526876449585e-02,-7.982143014669418335e-02,1.556857675313949585e-01,-2.481617219746112823e-02,5.299289524555206299e-02,6.202274933457374573e-02,7.619494199752807617e-02,-1.014390308409929276e-02,-1.764936000108718872e-02,-3.534002974629402161e-02,6.146036833524703979e-02,-2.888756431639194489e-02,-4.217075183987617493e-02,2.411410771310329437e-02,-4.095757752656936646e-02,-2.904968522489070892e-02,-1.681485958397388458e-02,1.895870268344879150e-01,-3.623243421316146851e-02,-2.807428501546382904e-02,-7.413004059344530106e-03,-1.386730838567018509e-02,5.763769149780273438e-02,4.773700237274169922e-02,4.207867756485939026e-02,1.005809754133224487e-01,9.349107742309570312e-02,1.471033599227666855e-02,1.213495358824729919e-01,9.196500293910503387e-03,2.636572346091270447e-02,4.489250108599662781e-02,3.469748049974441528e-02,3.911377117037773132e-02,5.724512506276369095e-03,-5.329957697540521622e-03,-1.407596375793218613e-02,-5.684866756200790405e-02,-3.048302233219146729e-01,-5.024413019418716431e-02,-1.266832929104566574e-02,1.282413005828857422e-01,-1.686478704214096069e-01,6.756205111742019653e-04,-2.636062540113925934e-02,6.029246374964714050e-03,1.845150254666805267e-02,-7.705091498792171478e-03,1.010573804378509521e-01,-3.798422962427139282e-02,1.065249592065811157e-01,5.709323287010192871e-02,-2.615982294082641602e-02,4.303430020809173584e-02,2.745123580098152161e-02,-3.233875706791877747e-02,-5.247641354799270630e-02,8.579140156507492065e-02,1.910236291587352753e-02,-1.242100447416305542e-01,1.223768070340156555e-01,-2.601358480751514435e-02,2.187083363533020020e-01,-1.057927235960960388e-01,3.071429673582315445e-03,3.971892222762107849e-02,2.815663116052746773e-03,-7.096835225820541382e-02,1.544496566057205200e-01,1.335183382034301758e-01,-3.095998428761959076e-02,2.618757449090480804e-02,6.678757816553115845e-02,-2.161826193332672119e-02,-2.079457044601440430e-01,6.151698902249336243e-02,8.240113384090363979e-04,1.217772215604782104e-01,-9.025289118289947510e-02,-5.269166454672813416e-02,5.157290771603584290e-02,-9.956635534763336182e-03,5.087504163384437561e-02,2.605193108320236206e-02,7.924675196409225464e-02,1.328005939722061157e-01,4.468039795756340027e-02,-2.752051316201686859e-02,-9.561661630868911743e-03,5.575757939368486404e-03,6.065227836370468140e-02,1.159342564642429352e-02,6.632247567176818848e-02,1.745026558637619019e-02,-1.772681437432765961e-02,-1.844619214534759521e-02,-5.886690691113471985e-02,1.525227911770343781e-03,2.718226239085197449e-02,3.652600571513175964e-02,5.109729617834091187e-02,-2.204315178096294403e-02,-1.993003301322460175e-02,-1.418148428201675415e-01,3.937640786170959473e-02,7.226888090372085571e-02,-7.627030462026596069e-02,1.655923947691917419e-02,-3.441546857357025146e-02,2.805936336517333984e-02,-1.286337971687316895e-01,-6.469921022653579712e-02,4.003113508224487305e-02,-1.887800544500350952e-02,4.837295785546302795e-02,6.527177989482879639e-02,-5.813822522759437561e-02,2.073087096214294434e-01,-2.407287992537021637e-02,-8.406540751457214355e-02,2.340356409549713135e-01,1.930310949683189392e-02,1.893528271466493607e-03,4.963674768805503845e-02,-7.721424102783203125e-03,-9.618936479091644287e-02,3.987084142863750458e-03,5.119308829307556152e-02,5.503273755311965942e-02,-4.450202919542789459e-03,-1.050081755965948105e-02,-7.050900906324386597e-02,-7.416472584009170532e-02,4.603863228112459183e-03,-3.896824270486831665e-02,-8.597136288881301880e-02,4.551025852560997009e-02,2.785237319767475128e-02,1.515130791813135147e-02,-3.072551917284727097e-03,7.493874430656433105e-02,-1.112654712051153183e-02,7.021971512585878372e-03,1.297944504767656326e-02,5.664494633674621582e-02,-2.729967236518859863e-02,2.536872960627079010e-02,3.661105409264564514e-02,-5.855240672826766968e-02,5.904490873217582703e-02,-8.318837732076644897e-03,4.035421088337898254e-02,-7.161708083003759384e-03,2.284766919910907745e-02,-2.701526693999767303e-02,-3.792596235871315002e-02,3.492626175284385681e-02,4.175588022917509079e-03,2.795371226966381073e-02,1.629768125712871552e-02,-5.651283636689186096e-02,1.175172179937362671e-01,-1.370826270431280136e-02,1.158820759883383289e-05,-1.054038293659687042e-02,-2.972233109176158905e-02,-1.815057359635829926e-02,-5.303167924284934998e-02,2.162116393446922302e-02,1.076021930202841759e-03,1.032065134495496750e-02,1.759502664208412170e-02,-1.453870832920074463e-01,-3.829281404614448547e-02,-2.331866919994354248e-01,-2.058646529912948608e-01,-2.840629220008850098e-02,3.512498363852500916e-02,-2.739813029766082764e-01,-1.494622416794300079e-02,4.264530912041664124e-02,-2.832107990980148315e-02,5.535651370882987976e-02,1.997480839490890503e-01,-2.367856539785861969e-02,-2.779162861406803131e-02,-1.835733652114868164e-02,3.065830655395984650e-02,-9.111011028289794922e-02,-2.919580936431884766e-01,-2.086327411234378815e-03,5.025171488523483276e-02,2.638834156095981598e-02,-4.988052323460578918e-02,5.676302313804626465e-02,1.832511834800243378e-02,-1.244120392948389053e-02,1.218997035175561905e-02,-3.753810375928878784e-02,5.849100276827812195e-02,9.087243676185607910e-02,1.338494382798671722e-02,-4.900528863072395325e-02,3.090156055986881256e-02,2.512599714100360870e-02,1.046987436711788177e-02
8.232518285512924194e-02,-1.869892030954360962e-01,-4.333203658461570740e-03,-1.198804304003715515e-01,-2.236654050648212433e-03,-7.924903929233551025e-02,-1.197069659829139709e-01,-3.860336728394031525e-03,-9.285472333431243896e-02,-6.409385055303573608e-02,6.905927509069442749e-02,-6.150531396269798279e-02,1.422807574272155762e-01,1.811448484659194946e-02,5.126692727208137512e-02,2.518984489142894745e-02,6.243998184800148010e-02,-1.032307296991348267e-01,1.532591879367828369e-01,4.014913737773895264e-02,-1.300286054611206055e-01,-4.129593074321746826e-02,5.956444144248962402e-02,1.992230117321014404e-01,-2.842072024941444397e-02,9.937793016433715820e-02,-1.717568933963775635e-01,-3.400564193725585938e-02,-2.588222036138176918e-03,3.310630843043327332e-02,-2.266774512827396393e-02,-1.659893095493316650e-01,1.956206542672589421e-04,1.592863500118255615e-01,1.587266176939010620e-01,5.046973749995231628e-02,-4.483842477202415466e-02,-4.450720548629760742e-02,-1.980500072240829468e-01,-9.193594008684158325e-02,-7.518068701028823853e-02,-1.863422431051731110e-02,2.030728571116924286e-02,4.489804431796073914e-02,-9.327408671379089355e-02,9.611287387087941170e-04,-1.909970073029398918e-03,-3.812067210674285889e-02,1.333953291177749634e-01,4.323744773864746094e-02,-2.897788956761360168e-02,-7.439430803060531616e-02,-1.057245731353759766e-01,-5.554634705185890198e-02,-7.061157375574111938e-02,4.085580259561538696e-02,-3.055933713912963867e-01,3.799393773078918457e-02,-1.580091267824172974e-01,9.305924177169799805e-02,-2.830733545124530792e-03,-1.583098806440830231e-02,-2.506393007934093475e-03,2.936460077762603760e-03,-1.023530215024948120e-02,8.239259012043476105e-03,-2.053189724683761597e-01,-8.427321165800094604e-02,-5.704802274703979492e-02,-4.089654982089996338e-02,6.820476800203323364e-02,-6.330466270446777344e-02,2.605955600738525391e-01,-5.582500994205474854e-02,-3.438813239336013794e-02,2.057771235704421997e-01,2.799812145531177521e-02,6.149970740079879761e-02,2.296777069568634033e-01,6.941128987818956375e-03,4.720589891076087952e-02,1.769524440169334412e-02,1.519589498639106750e-02,5.493406206369400024e-02,4.269259050488471985e-02,5.087846890091896057e-02,-7.152109872549772263e-03,-2.577034384012222290e-02,-1.461998000741004944e-02,6.697631627321243286e-02,7.512166351079940796e-02,1.735976040363311768e-01,-1.309460252523422241e-01,1.148897968232631683e-02,-5.676093325018882751e-02,2.742080949246883392e-02,2.266750205308198929e-03,-8.043901063501834869e-03,-2.062260955572128296e-01,3.759846091270446777e-03,4.158921912312507629e-02,4.252781718969345093e-02,9.895884990692138672e-02,-7.303318381309509277e-02,-6.685391813516616821e-02,-3.747326135635375977e-02,-1.729390174150466919e-01,-1.627054810523986816e-01,-1.394585147500038147e-02,-3.926226124167442322e-02,1.857134103775024414e-01,-5.962479859590530396e-02,-6.540469476021826267e-04,1.167261158116161823e-03,2.588188461959362030e-02,1.115403696894645691e-02,-2.014322578907012939e-02,7.261718064546585083e-02,-1.732927933335304260e-02,-7.615410536527633667e-02,-4.772968590259552002e-02,6.617589294910430908e-02,1.823632419109344482e-01,-5.037470720708370209e-03,4.719052836298942566e-02,3.023902513086795807e-02,1.870384626090526581e-02,-1.724761538207530975e-02,-2.532866317778825760e-03,-2.863638661801815033e-02,-1.864195428788661957e-02,3.850734233856201172e-02,7.391075044870376587e-02,1.001668348908424377e-01,-5.431455373764038086e-02,-4.773923754692077637e-02,-3.841271623969078064e-03,-8.562978357076644897e-02,2.024658210575580597e-02,8.722516149282455444e-02,2.113221772015094757e-02,8.164860308170318604e-02,-5.645609647035598755e-02,-1.544955652207136154e-02,-1.443166472017765045e-02,-4.246439412236213684e-02,-3.184987306594848633e-01,-1.642804476432502270e-03,5.773010198026895523e-03,-1.909778825938701630e-02,1.895722374320030212e-02,-4.241329804062843323e-02,-3.517141938209533691e-02,-4.704917594790458679e-02,1.185982376337051392e-01,2.172854691743850708e-01,-1.845141947269439697e-01,-2.853077370673418045e-03,1.073983535170555115e-01,-3.599523752927780151e-02,-1.680121570825576782e-02,-9.904414415359497070e-02,-6.892083585262298584e-02,1.936218291521072388e-01,1.452568219974637032e-03,1.358523219823837280e-01,1.515365689992904663e-01,4.083941131830215454e-02,1.059402376413345337e-01,-2.505182921886444092e-01,5.268813297152519226e-02,4.676944389939308167e-02,-4.048514366149902344e-02,1.594663225114345551e-02,-2.595682255923748016e-02,1.037534698843955994e-01,1.775333136320114136e-01,-6.107993796467781067e-02,4.554112255573272705e-02,-6.389119476079940796e-02,-1.673912107944488525e-01,7.052921503782272339e-02,1.146091297268867493e-01,-2.901789359748363495e-02,2.924166806042194366e-02,-1.289372742176055908e-01,5.001763626933097839e-02,6.501500308513641357e-02,7.456785440444946289e-02,-5.620360001921653748e-02,-2.756281010806560516e-02,7.940010726451873779e-02,-8.088215254247188568e-03,-4.817973077297210693e-02,6.885442882776260376e-02,-1.491682529449462891e-01,5.428779870271682739e-02,-4.462530091404914856e-02,-2.214421890676021576e-02,-2.874796092510223389e-01,3.555987030267715454e-02,6.147788465023040771e-02,2.206763438880443573e-02,6.994263082742691040e-02,8.231672644615173340e-02,5.924322083592414856e-02,-7.426023483276367188e-02,3.980820532888174057e-03,7.223653048276901245e-02,-3.584281727671623230e-02,1.251375675201416016e-01,-2.863528206944465637e-02,5.555676762014627457e-03,-4.423529654741287231e-02,5.642292089760303497e-03,-2.752738818526268005e-02,-6.058519706130027771e-02,9.093150496482849121e-02,2.150374092161655426e-02,2.320395782589912415e-02,5.340947210788726807e-02,9.904055297374725342e-02,-2.556012570858001709e-01,-4.455695301294326782e-02,1.204188689589500427e-01,6.254438310861587524e-02,-3.073012083768844604e-02,1.077664792537689209e-01,-3.412538021802902222e-02,2.799518592655658722e-02,-6.205246597528457642e-02,-2.888252213597297668e-02,-1.382313761860132217e-02,-2.238797694444656372e-01,7.461332529783248901e-02,-8.334295451641082764e-02,-6.713188439607620239e-02,1.684383600950241089e-01,-1.356669962406158447e-01,5.265892297029495239e-02,-1.510112285614013672e-01,-5.974356085062026978e-02,-4.984368756413459778e-02,5.205932259559631348e-02,7.161700725555419922e-02,-1.436111889779567719e-02,-3.382705152034759521e-02,4.055004939436912537e-02,-5.262090265750885010e-02,5.090033262968063354e-02,5.112785147503018379e-04,4.812826402485370636e-03,-3.122044168412685394e-02,-3.623333573341369629e-02,-2.125480324029922485e-01,1.500079315155744553e-02
1.219584140926599503e-02,7.551600225269794464e-03,3.240110119804739952e-03,-5.657932534813880920e-02,2.070713415741920471e-02,1.279120985418558121e-02,-7.636225968599319458e-02,-1.633763872087001801e-02,-1.280013471841812134e-02,3.656484931707382202e-02,9.055372327566146851e-03,-1.786579191684722900e-02,2.146974438801407814e-03,4.848553985357284546e-02,8.276273496448993683e-03,4.254257306456565857e-03,-5.882615596055984497e-02,-2.743918076157569885e-02,2.304463833570480347e-02,5.863317055627703667e-04,-3.804067149758338928e-02,-5.089341476559638977e-02,-1.626588590443134308e-02,-3.727958351373672485e-02,-2.755321096628904343e-03,-4.634516313672065735e-02,-6.559281051158905029e-02,-1.900730305351316929e-03,-1.868104748427867889e-02,-4.847511276602745056e-02,-1.454398408532142639e-02,-2.879545837640762329e-02,1.044611446559429169e-02,1.203073002398014069e-02,-4.998557269573211670e-02,2.043782919645309448e-02,-4.339522495865821838e-02,3.677774220705032349e-02,-4.068277031183242798e-02,-2.954123541712760925e-02,-3.099310770630836487e-02,-4.833490401506423950e-02,-2.611288800835609436e-02,-1.147030945867300034e-02,-4.622444882988929749e-02,-7.701130956411361694e-02,5.439256876707077026e-02,5.318543687462806702e-02,-3.578076884150505066e-02,2.397065749391913414e-03,-5.490310490131378174e-02,-4.157846048474311829e-02,-3.036754764616489410e-02,-2.436917088925838470e-02,-2.716651558876037598e-02,5.755813419818878174e-02,-4.042421467602252960e-03,-8.063863962888717651e-02,-1.295525347813963890e-03,2.374689653515815735e-02,1.372261997312307358e-02,3.932064399123191833e-02,2.677203342318534851e-02,-6.165805831551551819e-02,6.128421053290367126e-02,1.669533737003803253e-02,5.837056785821914673e-03,-2.577186096459627151e-03,-5.778112635016441345e-02,-3.665861114859580994e-02,-1.093487907201051712e-02,-5.391608178615570068e-02,-5.233193282037973404e-03,4.291971400380134583e-02,3.482242673635482788e-02,3.699517250061035156e-02,-1.068359836935997009e-01,8.379886858165264130e-03,2.019425854086875916e-02,-4.987635836005210876e-02,-7.234429474920034409e-03,5.926907528191804886e-03,2.501586638391017914e-02,6.403396278619766235e-02,5.384859815239906311e-02,4.722996428608894348e-02,-3.183654043823480606e-03,-2.100017666816711426e-02,4.154516011476516724e-02,2.058015204966068268e-02,3.169302642345428467e-02,5.137107335031032562e-03,-5.914413928985595703e-02,2.823231182992458344e-02,4.440664872527122498e-02,1.476741768419742584e-02,-4.994375258684158325e-02,-6.656657904386520386e-02,-3.614744171500205994e-02,-1.684843748807907104e-02,-2.192321978509426117e-02,4.532649740576744080e-02,-5.632207915186882019e-02,4.660708829760551453e-03,6.414240598678588867e-02,4.261711984872817993e-02,-2.633277140557765961e-02,-6.558763980865478516e-02,-8.399641513824462891e-02,-1.264992821961641312e-02,8.184052072465419769e-03,-4.873711615800857544e-02,-4.526681080460548401e-02,-1.075058728456497192e-01,3.094536717981100082e-03,-3.024819120764732361e-02,-7.415176182985305786e-02,-1.664491556584835052e-02,-6.313271075487136841e-02,4.065215960144996643e-02,-2.780761569738388062e-02,4.503677785396575928e-02,-2.841916121542453766e-02,-6.068108230829238892e-02,-9.206371009349822998e-02,-1.278778538107872009e-02,-6.031563133001327515e-02,1.588511839509010315e-02,-3.649531304836273193e-02,2.358966693282127380e-02,-1.235192827880382538e-02,-2.386088948696851730e-03,-1.863587275147438049e-02,-1.872043311595916748e-02,-5.336895212531089783e-02,2.248420380055904388e-02,4.404794797301292419e-02,-1.990291848778724670e-02,3.030088171362876892e-02,2.228641137480735779e-02,-7.047301530838012695e-02,-3.236971423029899597e-02,4.101019725203514099e-02,-5.979686975479125977e-03,-2.357992576435208321e-03,1.574082113802433014e-02,-2.611038042232394218e-03,4.612613096833229065e-02,-3.897335380315780640e-02,6.114592310041189194e-03,3.263362869620323181e-02,-5.622109025716781616e-02,-6.605009734630584717e-02,-8.104442059993743896e-02,-6.379231810569763184e-02,-6.896148622035980225e-02,-6.034580990672111511e-02,-1.812085509300231934e-02,2.698851563036441803e-02,5.696090403944253922e-03,1.005169097334146500e-02,-2.666271850466728210e-02,-3.276384249329566956e-02,-3.076942637562751770e-02,1.687436923384666443e-02,-3.330896422266960144e-02,-6.598481535911560059e-02,-4.746914654970169067e-02,-5.085743591189384460e-02,-4.193331114947795868e-03,-2.562461048364639282e-02,3.425084799528121948e-02,4.949517175555229187e-02,4.410447925329208374e-02,-2.194253727793693542e-02,1.406072871759533882e-03,-6.007334589958190918e-02,-5.075014382600784302e-02,6.392939481884241104e-03,8.915238082408905029e-03,-1.113942824304103851e-02,-1.685345917940139771e-02,-8.901367336511611938e-02,4.706738889217376709e-02,-8.831177838146686554e-03,-2.264255657792091370e-02,-3.177731484174728394e-02,8.936382830142974854e-03,2.649952657520771027e-02,1.287539768964052200e-02,-4.101501405239105225e-02,3.792133927345275879e-02,-3.094292990863323212e-02,3.496272116899490356e-02,6.843262352049350739e-03,-3.446254134178161621e-02,1.636542566120624542e-02,5.299208685755729675e-02,-5.693675205111503601e-02,-6.931785494089126587e-02,-5.170775577425956726e-02,6.858838722109794617e-03,4.034652933478355408e-02,2.825404517352581024e-02,-3.552599996328353882e-02,-7.488156855106353760e-02,-2.563195303082466125e-02,1.576815545558929443e-02,-3.252245858311653137e-02,-8.961673011071980000e-04,-8.163546212017536163e-03,1.654267427511513233e-03,-3.011807240545749664e-02,-3.874129056930541992e-02,-1.135531999170780182e-02,2.454892266541719437e-03,-1.372802816331386566e-02,-5.595274642109870911e-02,-3.022491931915283203e-02,-2.318657934665679932e-02,3.110556304454803467e-02,-5.735191702842712402e-02,-5.758162215352058411e-02,1.410296652466058731e-02,-2.976255305111408234e-02,-6.253342330455780029e-02,-3.509385511279106140e-02,-1.622509770095348358e-02,3.694892674684524536e-02,4.864701628684997559e-02,5.753166973590850830e-02,2.528681419789791107e-02,-3.633548691868782043e-02,-4.146602377295494080e-02,-3.753330186009407043e-02,-3.854858875274658203e-02,-6.116159632802009583e-02,-3.783756867051124573e-02,-9.141584485769271851e-02,9.820776060223579407e-03,-3.188898786902427673e-02,5.112843960523605347e-02,-1.015472924336791039e-03,2.080572955310344696e-02,-5.081766098737716675e-02,-3.675132524222135544e-03,-7.914890535175800323e-03,-4.031113907694816589e-02,-3.938731178641319275e-02,-5.926528573036193848e-02,-5.559296905994415283e-02,4.646479710936546326e-02,2.010714262723922729e-02,2.968082390725612640e-02,-3.579537570476531982e-02,-4.227033630013465881e-02
-4.006595164537429810e-02,-7.057599723339080811e-02,7.001359947025775909e-03,-2.683477662503719330e-02,3.424104303121566772e-02,-2.586152032017707825e-02,-5.129637196660041809e-03,-3.945248201489448547e-02,1.561429910361766815e-02,-5.565652623772621155e-02,3.492360562086105347e-02,5.386538431048393250e-02,-4.200468584895133972e-02,5.341738089919090271e-02,-5.926397442817687988e-02,-2.856492996215820312e-02,-3.709782660007476807e-02,1.167073473334312439e-02,-2.402050606906414032e-02,4.025363922119140625e-02,-8.567104116082191467e-03,-3.087298013269901276e-03,4.595941305160522461e-02,-8.294516243040561676e-03,6.167924404144287109e-02,-6.817988306283950806e-02,3.133769705891609192e-02,-8.507299423217773438e-02,-3.923982847481966019e-03,-5.570333451032638550e-02,-4.847757145762443542e-02,-3.326493501663208008e-02,-1.505736168473958969e-02,3.024794533848762512e-02,5.436990410089492798e-03,-1.638783887028694153e-02,-6.878939270973205566e-02,1.461931038647890091e-02,7.690820493735373020e-04,3.202704340219497681e-02,-6.944693624973297119e-02,4.357253760099411011e-02,-2.462628856301307678e-02,-3.832180052995681763e-02,1.089773327112197876e-02,-6.606490910053253174e-02,1.674434519372880459e-03,4.682013392448425293e-02,3.174075484275817871e-02,3.888337314128875732e-02,2.187273465096950531e-02,-6.927261501550674438e-02,2.808944508433341980e-02,-5.137350037693977356e-02,-4.656231403350830078e-02,4.195357859134674072e-02,2.850000746548175812e-02,-3.255363181233406067e-02,-6.704311072826385498e-02,-9.954147040843963623e-03,-2.541782520711421967e-02,2.453491836786270142e-02,3.618877381086349487e-02,5.180124193429946899e-02,-2.990989573299884796e-02,2.895634248852729797e-02,-2.689339034259319305e-02,-2.035062946379184723e-02,4.724728688597679138e-02,4.490617290139198303e-02,-3.364168480038642883e-02,-5.717419087886810303e-02,-4.054418206214904785e-02,4.510082677006721497e-02,-1.237983722239732742e-02,3.379173111170530319e-03,-2.109026536345481873e-03,-2.447006292641162872e-02,-7.051288336515426636e-02,-3.394429758191108704e-02,4.027653858065605164e-02,4.694327712059020996e-02,-5.468028038740158081e-02,5.114424601197242737e-02,-4.077466577291488647e-02,3.182477783411741257e-03,-5.715591832995414734e-02,-4.148903861641883850e-02,-5.037019960582256317e-03,2.820207737386226654e-02,-5.321345850825309753e-02,4.420340433716773987e-02,-2.469653077423572540e-02,-4.307916387915611267e-02,-1.714864000678062439e-02,4.220194742083549500e-02,-2.864252775907516479e-02,5.254154279828071594e-02,-1.885395613498985767e-03,-6.830769777297973633e-02,-2.930751070380210876e-02,-5.659938976168632507e-02,6.196476751938462257e-04,-5.654005706310272217e-02,4.140758141875267029e-02,-1.708317548036575317e-02,-1.706264726817607880e-02,-1.820679567754268646e-02,2.202716656029224396e-02,-5.332903191447257996e-02,-7.511235773563385010e-02,2.246814221143722534e-02,-1.677047647535800934e-02,-4.095609486103057861e-02,-8.278702385723590851e-03,1.036238204687833786e-02,4.377953242510557175e-03,3.867523744702339172e-02,-7.541084289550781250e-02,2.942145243287086487e-02,8.455991744995117188e-03,-1.814763806760311127e-02,-6.630943715572357178e-02,-6.783174723386764526e-02,3.383134026080369949e-03,2.789501100778579712e-02,4.923790693283081055e-02,-1.338514499366283417e-02,-5.446879658848047256e-03,-2.686647512018680573e-02,4.030033200979232788e-02,-1.329795457422733307e-02,3.849526122212409973e-02,-3.079180233180522919e-02,2.465872559696435928e-03,3.141086176037788391e-02,-3.758215159177780151e-02,4.707323014736175537e-02,4.691761359572410583e-02,-7.459837198257446289e-02,2.421309240162372589e-02,-6.227661296725273132e-02,2.684515342116355896e-02,2.168676070868968964e-02,-3.672252967953681946e-02,-3.536507859826087952e-02,-5.894595384597778320e-02,-3.577318787574768066e-02,6.184811890125274658e-02,1.311636902391910553e-02,-5.581635609269142151e-02,-4.640320315957069397e-03,-4.268459044396877289e-03,5.131579190492630005e-02,-2.303367000422440469e-05,-4.574504867196083069e-02,-4.540800303220748901e-02,-3.254100307822227478e-02,-2.586246095597743988e-02,7.263742387294769287e-03,-3.967231139540672302e-02,-4.121407121419906616e-02,4.355899617075920105e-02,-2.008395642042160034e-02,-3.198260441422462463e-02,-5.097326263785362244e-02,-3.767653182148933411e-02,-4.529871046543121338e-02,-4.269153252243995667e-02,2.880753949284553528e-03,1.533482875674962997e-02,3.407731279730796814e-02,7.384633645415306091e-03,-6.034940108656883240e-02,5.716701596975326538e-02,2.158477157354354858e-02,-5.521576479077339172e-02,-2.590425871312618256e-02,-5.501104146242141724e-02,-1.178729813545942307e-02,-7.340001314878463745e-02,-2.282012067735195160e-02,2.589336410164833069e-02,-5.201219767332077026e-02,3.058889706153422594e-04,1.716133765876293182e-02,2.179079875349998474e-02,1.450826646760106087e-03,-6.908333301544189453e-02,3.280301019549369812e-02,1.592072658240795135e-02,-5.012739449739456177e-02,1.163633260875940323e-02,-1.565666496753692627e-02,2.046799845993518829e-02,-1.328962855041027069e-02,-2.372976392507553101e-02,3.282453864812850952e-02,-9.739657863974571228e-03,-2.203815383836627007e-03,-3.053967468440532684e-02,-1.427992619574069977e-02,2.355958521366119385e-02,3.868118301033973694e-02,-7.383869588375091553e-02,-4.580825939774513245e-02,5.000865459442138672e-02,-3.287117183208465576e-02,2.308507822453975677e-02,-3.654383495450019836e-02,1.433718577027320862e-02,-7.080215960741043091e-02,-6.593681871891021729e-02,4.811399849131703377e-04,-6.488084048032760620e-02,-4.039162024855613708e-02,-4.464366286993026733e-02,1.671975478529930115e-02,1.027386542409658432e-02,-2.093299292027950287e-02,-1.648846082389354706e-02,-1.763928867876529694e-02,-3.947660792618989944e-03,-4.429725185036659241e-02,-6.685352325439453125e-02,-3.370705246925354004e-02,-2.065349742770195007e-02,-3.381700068712234497e-02,4.180145636200904846e-02,-4.983304068446159363e-02,2.211534045636653900e-02,-5.501378327608108521e-02,6.172267720103263855e-02,-4.302318766713142395e-02,-5.694158747792243958e-02,1.152560394257307053e-02,4.701012745499610901e-02,-4.062942788004875183e-02,-6.992299854755401611e-02,-5.088341981172561646e-02,-8.488250896334648132e-03,2.540881000459194183e-02,-4.582712426781654358e-02,4.377898946404457092e-02,2.649597823619842529e-02,-6.257984042167663574e-02,3.399039804935455322e-02,-4.725668951869010925e-02,-2.461974322795867920e-02,-3.990235552191734314e-02,-1.743560098111629486e-02,4.197727888822555542e-02,-1.789659261703491211e-02,-8.357310295104980469e-02,1.159816049039363861e-02,-3.352977335453033447e-03
-1.706696860492229462e-02,1.017224043607711792e-01,1.408981531858444214e-01,-5.256342515349388123e-02,4.139991104602813721e-02,5.119210854172706604e-02,-2.143618464469909668e-01,-2.147758007049560547e-01,9.891972690820693970e-02,-1.656499691307544708e-02,-4.841368645429611206e-02,2.013373933732509613e-02,-1.574128493666648865e-02,1.021809689700603485e-02,-4.554017260670661926e-02,2.635631561279296875e-01,-2.847660183906555176e-01,-4.644300416111946106e-02,7.951860129833221436e-02,4.328745976090431213e-02,-7.215011864900588989e-02,8.881094865500926971e-03,-8.443237282335758209e-03,-2.515025623142719269e-02,-8.951510302722454071e-03,-2.383024990558624268e-01,1.264558583498001099e-01,1.592378914356231689e-01,3.195958584547042847e-02,1.875481903553009033e-01,3.059413656592369080e-02,-1.346293389797210693e-01,7.327584922313690186e-02,-2.120597101747989655e-02,-5.412826314568519592e-02,-7.470157742500305176e-02,2.219448797404766083e-02,-2.764872647821903229e-02,-7.188151776790618896e-02,-3.350009396672248840e-02,-6.040302291512489319e-02,-1.071421336382627487e-02,1.211291700601577759e-01,1.457657814025878906e-01,-2.392666041851043701e-02,-1.295520663261413574e-01,-1.379288733005523682e-02,-4.269542545080184937e-02,-1.417850982397794724e-02,2.658061869442462921e-02,-1.337385457009077072e-02,-6.474868953227996826e-02,5.397402867674827576e-02,-1.008876226842403412e-02,-1.445824503898620605e-01,-2.976878732442855835e-02,1.454146057367324829e-01,-9.079660475254058838e-02,-8.474459499120712280e-02,1.016687154769897461e-01,-1.893267408013343811e-02,1.558825187385082245e-02,4.710615426301956177e-02,3.424637019634246826e-02,-3.649608045816421509e-02,5.269380286335945129e-02,1.270325928926467896e-01,7.783959060907363892e-02,-2.053035888820886612e-03,-8.384658023715019226e-03,-9.707342833280563354e-02,2.587246941402554512e-03,-3.230243548750877380e-02,-1.421949416399002075e-01,-5.232558399438858032e-02,1.578991068527102470e-03,4.136274382472038269e-02,-2.078736275434494019e-01,4.921319335699081421e-02,-8.462453261017799377e-03,-6.210346147418022156e-02,3.689663484692573547e-02,-1.630598865449428558e-02,-4.578883945941925049e-02,-1.057695038616657257e-02,3.462955122813582420e-03,-1.535226684063673019e-02,-2.294970303773880005e-01,-2.458764165639877319e-01,3.479554317891597748e-03,-1.221019327640533447e-01,1.112595573067665100e-02,-1.265641152858734131e-01,2.397499419748783112e-02,-4.467851296067237854e-02,2.031731605529785156e-02,-6.743890792131423950e-02,2.920708619058132172e-02,-1.435067504644393921e-01,-1.358336806297302246e-01,-4.238921776413917542e-02,-2.907389402389526367e-02,6.605661660432815552e-02,-6.591787189245223999e-02,-2.150056883692741394e-02,3.378461673855781555e-02,6.880456954240798950e-02,-2.120935171842575073e-02,-6.526504456996917725e-02,-1.235456913709640503e-01,-3.094961345195770264e-01,-2.809316664934158325e-02,1.871732622385025024e-02,-5.334609746932983398e-02,1.099750623106956482e-01,-1.213879138231277466e-01,1.401546597480773926e-02,1.915792189538478851e-02,8.797685801982879639e-02,3.744405880570411682e-02,-5.042517185211181641e-02,1.916599087417125702e-02,-1.540736407041549683e-01,-4.812327772378921509e-02,-8.755891025066375732e-02,3.742881864309310913e-02,1.312676817178726196e-02,7.587876915931701660e-02,-4.775977507233619690e-02,2.794125303626060486e-02,-3.368281177245080471e-04,-4.022566974163055420e-02,-3.926435112953186035e-02,-2.756741642951965332e-02,-1.161216199398040771e-01,-2.415339462459087372e-02,-3.302901983261108398e-02,1.354176402091979980e-01,-6.700702011585235596e-02,-1.880371123552322388e-01,-2.310527861118316650e-02,-1.049404740333557129e-01,-3.468761965632438660e-02,5.932295322418212891e-02,7.977794110774993896e-02,4.232370853424072266e-02,1.641414687037467957e-02,-4.004585370421409607e-02,4.696667939424514771e-02,2.162490226328372955e-02,4.158770665526390076e-02,4.096257314085960388e-02,4.374970495700836182e-02,-8.205880224704742432e-02,-1.244660988450050354e-01,-4.645103588700294495e-02,-1.512929797172546387e-01,-1.021976992487907410e-01,5.018276628106832504e-03,3.670106828212738037e-02,5.580657348036766052e-02,2.616451494395732880e-02,1.563959009945392609e-02,-1.750726550817489624e-01,-3.223923221230506897e-02,-5.325510352849960327e-02,5.448435246944427490e-02,3.878283500671386719e-02,1.174634099006652832e-01,-7.608707249164581299e-02,-2.958668582141399384e-02,-6.341741234064102173e-02,3.107484430074691772e-02,-1.692230254411697388e-02,2.467644959688186646e-02,-3.039615042507648468e-02,4.332597926259040833e-02,-5.183251947164535522e-02,-1.106914654374122620e-01,-6.753481924533843994e-02,-1.541056018322706223e-02,1.184632629156112671e-01,-2.763300538063049316e-01,4.944662004709243774e-02,5.326222628355026245e-02,6.160574033856391907e-02,2.271000109612941742e-02,1.046270318329334259e-02,-1.002189069986343384e-01,5.429754406213760376e-02,3.958020359277725220e-02,-1.259028911590576172e-02,-5.190429463982582092e-02,-3.658317029476165771e-02,4.122692719101905823e-02,3.283691406250000000e-02,1.923657022416591644e-02,-1.866430602967739105e-02,-2.185939997434616089e-01,-7.191247493028640747e-02,-2.535892277956008911e-02,-1.446385234594345093e-01,8.538127690553665161e-02,-1.990571618080139160e-03,-1.345025468617677689e-02,-7.810546457767486572e-02,-6.415661424398422241e-03,5.177667364478111267e-02,-1.904850602149963379e-01,1.046904176473617554e-02,-2.014732919633388519e-02,-1.221962124109268188e-01,3.734236955642700195e-02,-1.277358084917068481e-01,-6.365054845809936523e-02,2.138079516589641571e-02,-5.208658985793590546e-04,3.324800357222557068e-02,-6.590929627418518066e-02,2.104007871821522713e-03,7.931678555905818939e-04,-1.343510597944259644e-01,-4.937923327088356018e-02,-7.310867775231599808e-03,-2.368837967514991760e-02,-6.956395506858825684e-02,2.467725425958633423e-02,-1.041761264204978943e-01,-1.394662708044052124e-01,-1.941701979376375675e-03,-2.037754654884338379e-02,6.070082262158393860e-02,-3.632583469152450562e-02,1.853552311658859253e-01,4.918283224105834961e-02,-7.834666967391967773e-02,3.627813607454299927e-02,-1.075627282261848450e-01,1.882553696632385254e-01,-4.769882187247276306e-02,-1.348006427288055420e-01,2.400269731879234314e-02,-1.487233191728591919e-01,3.981900867074728012e-03,1.544841527938842773e-01,1.414562948048114777e-02,3.604529425501823425e-02,-5.342742800712585449e-02,-2.173067769035696983e-03,1.123797986656427383e-02,2.372290752828121185e-02,3.412279486656188965e-02,4.406188428401947021e-02,-4.155271500349044800e-02,-1.168805658817291260e-01,-6.168289855122566223e-02
6.055901572108268738e-02,1.076429858803749084e-01,-1.758202463388442993e-01,-6.287511438131332397e-02,4.729539901018142700e-02,1.863888092339038849e-02,-1.422166526317596436e-01,-2.108563855290412903e-02,2.267307974398136139e-02,-3.492602845653891563e-03,-1.034251879900693893e-02,2.546025067567825317e-02,1.183824390172958374e-01,-4.282242059707641602e-02,-3.265111893415451050e-02,-5.363853648304939270e-02,-3.224624395370483398e-01,-9.838364273309707642e-02,1.154384240508079529e-01,-3.326515108346939087e-02,-5.067276954650878906e-02,-5.292614176869392395e-02,-3.486660122871398926e-02,-1.345922946929931641e-01,2.733595669269561768e-02,6.672003865242004395e-02,-3.580690547823905945e-02,-2.696917951107025146e-02,-2.635348588228225708e-02,-1.512515693902969360e-01,-2.881020680069923401e-02,-7.685904949903488159e-02,-6.865223497152328491e-02,2.567959204316139221e-02,1.192768570035696030e-02,-3.784368047490715981e-03,-1.630058139562606812e-02,5.432233214378356934e-02,4.566815868020057678e-02,1.243784837424755096e-02,8.841273188591003418e-02,4.679165408015251160e-02,-4.057792946696281433e-02,-4.482658952474594116e-02,1.075220294296741486e-02,3.836856782436370850e-02,-4.094299301505088806e-02,5.269451066851615906e-02,7.691300660371780396e-02,-5.878265574574470520e-02,-6.200502067804336548e-02,-1.538599189370870590e-02,1.468823105096817017e-02,-3.905787691473960876e-02,1.473244130611419678e-01,-6.150103360414505005e-02,-4.312745295464992523e-03,5.726222693920135498e-02,-2.132771536707878113e-02,-1.077962387353181839e-02,-6.640632450580596924e-02,4.048049077391624451e-02,1.423283107578754425e-02,-1.314243581146001816e-02,-5.583993345499038696e-02,-6.740736216306686401e-02,3.970393538475036621e-02,9.045794606208801270e-03,-9.817683137953281403e-03,5.548371002078056335e-02,-2.744677709415555000e-03,6.001085974276065826e-03,-1.940753683447837830e-02,3.335633128881454468e-02,-5.083993077278137207e-03,-6.275424361228942871e-02,2.160858362913131714e-01,2.578410692512989044e-02,1.295953094959259033e-01,5.286850780248641968e-02,-1.159340329468250275e-02,-4.472768306732177734e-02,-1.637344248592853546e-02,-2.387563884258270264e-02,2.907865867018699646e-02,4.785956442356109619e-02,-9.207257628440856934e-02,2.624901011586189270e-02,-3.029425069689750671e-02,-8.998864144086837769e-02,1.251057088375091553e-01,-3.389349207282066345e-02,3.047381527721881866e-02,1.788622932508587837e-03,-3.312409669160842896e-02,2.068430744111537933e-02,-1.510371081531047821e-02,-5.675503611564636230e-02,-3.415294736623764038e-02,-8.660238236188888550e-02,-1.735663414001464844e-01,1.964167132973670959e-02,-8.138796314597129822e-03,5.944968760013580322e-02,5.007634311914443970e-02,-4.222446680068969727e-02,-1.229997947812080383e-01,-1.425551623106002808e-01,-2.049401588737964630e-02,-1.356853693723678589e-01,1.250221282243728638e-01,3.410736843943595886e-02,-2.140340507030487061e-01,1.239972934126853943e-02,-2.131578177213668823e-01,1.211792603135108948e-02,-5.482948198914527893e-02,-3.980090096592903137e-02,-3.886403888463973999e-02,-2.050768882036209106e-01,-9.338058531284332275e-03,-5.698110535740852356e-02,-1.145105883479118347e-01,7.826970540918409824e-04,1.230782046914100647e-01,4.524618387222290039e-02,-5.878121405839920044e-02,-3.017899580299854279e-02,7.592878490686416626e-02,-6.832987070083618164e-02,1.095541473478078842e-02,-1.480782497674226761e-02,3.860036656260490417e-02,3.105609863996505737e-02,-8.485463261604309082e-02,1.024244874715805054e-01,6.149875000119209290e-02,-1.950587630271911621e-01,5.146678909659385681e-02,2.073967456817626953e-02,-5.133059620857238770e-02,-1.320478320121765137e-01,-3.293478116393089294e-02,3.808557614684104919e-02,7.658214122056961060e-02,-1.579616069793701172e-01,-8.258063346147537231e-02,-4.556319490075111389e-02,3.973720595240592957e-02,9.897386282682418823e-02,3.495186939835548401e-02,-1.632048003375530243e-02,3.745036199688911438e-02,-3.380522876977920532e-02,1.566879898309707642e-01,5.409960076212882996e-02,3.180743008852005005e-02,-2.123007178306579590e-02,9.844878315925598145e-02,2.690143696963787079e-02,-8.000975847244262695e-02,-1.956916600465774536e-01,-8.455103635787963867e-02,-1.738298386335372925e-01,-2.120341360569000244e-02,-6.165010854601860046e-02,2.551562152802944183e-02,6.864310801029205322e-02,-6.833739578723907471e-02,-5.124525725841522217e-02,-1.460047662258148193e-01,2.113996306434273720e-03,1.064157579094171524e-02,-7.621251046657562256e-03,2.652247808873653412e-02,-7.995261996984481812e-02,-6.526637077331542969e-02,3.861226886510848999e-02,1.153888702392578125e-01,9.946237318217754364e-03,6.261986680328845978e-03,-5.823753029108047485e-02,-2.118155732750892639e-02,3.383744508028030396e-02,-7.139177992939949036e-03,1.857738196849822998e-01,7.857623696327209473e-02,1.665925532579421997e-01,2.334547042846679688e-02,8.605879545211791992e-02,1.963034868240356445e-01,2.941746264696121216e-02,-4.943197220563888550e-02,4.606939107179641724e-02,-2.116128988564014435e-02,-7.277696579694747925e-02,-3.620564192533493042e-02,3.661174327135086060e-02,4.434839263558387756e-02,-4.166582226753234863e-02,-7.858260534703731537e-03,-9.870424866676330566e-02,3.600748255848884583e-02,1.362163573503494263e-02,6.430866662412881851e-03,8.977200090885162354e-02,-1.372210979461669922e-01,1.294080819934606552e-02,5.534205585718154907e-03,-3.306708857417106628e-02,2.375140972435474396e-02,-1.754060983657836914e-01,2.612524665892124176e-02,-8.833640813827514648e-02,2.583163976669311523e-02,-3.812405094504356384e-02,-4.595217853784561157e-02,-7.781249284744262695e-02,-3.682683221995830536e-03,-1.986160278320312500e-01,-3.960127010941505432e-02,-3.505454063415527344e-01,-1.702431142330169678e-01,6.534804124385118484e-03,3.338689357042312622e-02,9.485138952732086182e-02,1.427900232374668121e-02,2.913048490881919861e-02,-1.872294396162033081e-02,-4.360853508114814758e-02,2.581685595214366913e-02,3.385004820302128792e-03,-4.981077089905738831e-02,-1.066247597336769104e-01,-6.518755853176116943e-02,-3.060918450355529785e-01,2.295112051069736481e-02,-5.035839509218931198e-03,-1.045442223548889160e-01,-3.646447509527206421e-02,-2.445313930511474609e-01,-4.449958354234695435e-02,-1.616577655076980591e-01,3.076123073697090149e-02,-1.125992760062217712e-01,1.185243427753448486e-01,-6.584061682224273682e-02,7.001126557588577271e-02,-4.957384243607521057e-02,7.409775629639625549e-03,-3.353896364569664001e-02,-2.533363364636898041e-02,-5.222082883119583130e-02,-1.539426157251000404e-03,7.550150901079177856e-02,-3.662613034248352051e-02
-5.906060338020324707e-02,3.259566798806190491e-02,-1.280880440026521683e-02,5.268712528049945831e-03,2.565059252083301544e-02,-3.393201902508735657e-02,-5.404395610094070435e-02,-6.738002598285675049e-02,-3.267438337206840515e-02,5.335637833923101425e-03,3.991839289665222168e-02,-2.962924540042877197e-02,-3.509038314223289490e-02,-3.108899481594562531e-02,5.204762145876884460e-02,-9.441781789064407349e-02,-5.228817835450172424e-02,-8.075428009033203125e-02,-2.144555002450942993e-02,6.678813369944691658e-04,-4.418937861919403076e-02,4.971618577837944031e-02,3.447074070572853088e-02,3.838096931576728821e-02,4.496539384126663208e-02,2.235643379390239716e-02,-7.032923400402069092e-02,-1.036680638790130615e-01,4.454576969146728516e-02,6.066448986530303955e-02,3.397834300994873047e-02,-8.010011911392211914e-02,-2.204122208058834076e-02,-1.524800807237625122e-01,1.046218127012252808e-01,9.614516980946063995e-03,1.975546590983867645e-02,1.052798889577388763e-02,-3.223306313157081604e-02,-7.446126639842987061e-02,-4.865726456046104431e-02,2.252509444952011108e-02,4.024308174848556519e-03,-1.206331700086593628e-01,-1.106588467955589294e-01,-1.128279864788055420e-01,1.860046759247779846e-02,-2.070391923189163208e-02,-2.933146245777606964e-02,2.470070309937000275e-02,4.345507547259330750e-02,-3.495123237371444702e-02,-2.640552818775177002e-02,3.124374710023403168e-02,-1.057735309004783630e-01,4.756826907396316528e-02,-1.581405475735664368e-02,4.895767569541931152e-02,1.224142964929342270e-02,-5.932770669460296631e-02,1.732798293232917786e-02,-4.125148057937622070e-02,2.753154933452606201e-02,5.078813433647155762e-02,-1.602991297841072083e-02,-2.864250540733337402e-02,-2.740713395178318024e-02,-4.125675186514854431e-02,6.777166575193405151e-02,-7.840573089197278023e-04,1.658122986555099487e-02,4.459918662905693054e-02,-6.378433853387832642e-02,-4.118252545595169067e-02,-2.502118796110153198e-02,-3.679705783724784851e-02,6.761761009693145752e-02,-2.072461135685443878e-02,-4.597266390919685364e-02,-1.188413053750991821e-02,2.772029675543308258e-02,3.935524821281433105e-02,-6.688673049211502075e-02,-3.145557129755616188e-03,3.765318542718887329e-02,4.799640923738479614e-02,-5.332214012742042542e-02,-2.406209148466587067e-02,-8.857985585927963257e-02,-2.892317995429039001e-02,-6.706197559833526611e-02,-1.003511473536491394e-01,-1.514159422367811203e-02,5.854266136884689331e-02,-2.126795239746570587e-02,4.622592590749263763e-03,1.081573683768510818e-02,-3.340423479676246643e-02,-2.170584723353385925e-02,9.079365991055965424e-03,-1.844404079020023346e-02,4.866672307252883911e-02,-2.531640790402889252e-02,4.012926016002893448e-03,4.803108423948287964e-02,-4.568006377667188644e-03,-6.109808385372161865e-02,9.851382113993167877e-03,-6.507538724690675735e-03,-8.321283757686614990e-02,2.207770757377147675e-02,6.530459970235824585e-03,1.607390306890010834e-02,3.126780316233634949e-02,-4.664112627506256104e-02,-7.247581332921981812e-02,-1.242028176784515381e-01,-3.943021222949028015e-02,-1.474376395344734192e-02,9.644934535026550293e-02,-5.581815540790557861e-02,-1.091834995895624161e-02,-5.854338034987449646e-02,4.999427124857902527e-02,-1.635319204069674015e-03,4.116723313927650452e-02,3.735721856355667114e-02,4.528760444372892380e-03,1.975930109620094299e-02,2.190632000565528870e-02,1.119288522750139236e-02,5.424126237630844116e-02,-2.959507517516613007e-02,-4.599319398403167725e-02,-9.682691842317581177e-02,-1.308673173189163208e-01,1.156796980649232864e-02,-4.479841515421867371e-02,-3.790472075343132019e-02,-4.009139165282249451e-02,-8.208689838647842407e-02,-9.498172998428344727e-02,-3.705323114991188049e-02,-5.868458654731512070e-03,-8.216699957847595215e-02,6.350833456963300705e-03,-9.249811619520187378e-02,4.791881889104843140e-02,-6.210489571094512939e-02,-7.724749296903610229e-02,-2.020742557942867279e-02,-6.749936938285827637e-02,7.993063889443874359e-03,-2.947474084794521332e-02,-9.416343271732330322e-02,-1.872654631733894348e-02,-2.465873025357723236e-02,-3.410727158188819885e-02,-1.954859495162963867e-02,4.599031433463096619e-02,6.159794516861438751e-03,1.329264370724558830e-03,-6.178489327430725098e-02,-2.790513820946216583e-02,-4.683800414204597473e-02,-9.218946099281311035e-02,4.202385619282722473e-02,5.105617269873619080e-02,-1.908870786428451538e-02,-4.616499692201614380e-02,-4.632250592112541199e-02,-3.804101422429084778e-02,2.489095088094472885e-03,5.144070461392402649e-02,-4.043985158205032349e-02,-1.408592239022254944e-02,-2.863109111785888672e-02,-1.209860760718584061e-02,-9.927066415548324585e-02,3.481010347604751587e-02,4.008100554347038269e-02,-2.107533067464828491e-02,-1.038142889738082886e-01,3.106912225484848022e-02,-5.307973176240921021e-02,-2.785692736506462097e-02,-5.088179185986518860e-02,-4.343963414430618286e-02,-5.117796733975410461e-02,1.926947385072708130e-02,-1.034643650054931641e-01,2.442928403615951538e-02,-4.447861015796661377e-02,-7.972948253154754639e-03,3.209037706255912781e-02,-6.993757188320159912e-02,-4.521315172314643860e-02,-3.671872243285179138e-02,-4.323305562138557434e-02,1.411535684019327164e-02,1.706954091787338257e-03,-3.544088825583457947e-02,-6.859312206506729126e-02,-1.163141336292028427e-02,-4.755932465195655823e-02,-4.538578167557716370e-02,-1.031984314322471619e-01,-1.272185984998941422e-02,-1.129943206906318665e-01,2.747479639947414398e-02,3.526009153574705124e-03,-5.865454208105802536e-03,-4.172723740339279175e-02,1.374937035143375397e-02,-4.805857315659523010e-02,3.046342544257640839e-02,1.973809674382209778e-02,-7.301743025891482830e-04,5.299676209688186646e-02,-3.135906904935836792e-02,-2.672421745955944061e-02,-9.104441851377487183e-02,-2.722997404634952545e-02,-3.477163985371589661e-02,-3.759394865483045578e-03,-2.613999508321285248e-02,7.216618396341800690e-03,-4.683519364334642887e-04,-1.146714016795158386e-02,-1.623782888054847717e-02,3.266803175210952759e-02,-2.973687369376420975e-03,3.864450380206108093e-02,2.815622836351394653e-02,1.164291054010391235e-02,-4.249474033713340759e-02,-5.721422657370567322e-02,-5.067809671163558960e-02,-1.178518161177635193e-01,-2.688247710466384888e-02,-7.002441585063934326e-02,-1.373907923698425293e-02,-4.708804935216903687e-02,-1.450362615287303925e-02,-1.748282834887504578e-02,2.146503189578652382e-03,-4.011394456028938293e-02,-9.179290384054183960e-02,-1.058998145163059235e-02,-6.017581559717655182e-03,-7.199981808662414551e-02,-3.123781457543373108e-02,3.670778870582580566e-02,-6.862918287515640259e-02,-1.095673143863677979e-01,-1.811333745718002319e-02
1.905051618814468384e-02,1.820581406354904175e-02,-6.323208659887313843e-02,2.639100514352321625e-02,5.041716247797012329e-02,4.271254315972328186e-02,-1.395204942673444748e-02,-1.450497470796108246e-02,-1.856451295316219330e-02,5.987575743347406387e-03,-3.388268500566482544e-02,2.656093426048755646e-02,2.346121333539485931e-02,-3.408506885170936584e-02,4.551004245877265930e-02,2.909605205059051514e-02,-2.114288881421089172e-02,-3.235156089067459106e-02,4.640997387468814850e-03,-5.695156008005142212e-02,2.714349143207073212e-02,5.201539024710655212e-03,7.052646018564701080e-03,9.306923486292362213e-03,-5.604659393429756165e-02,-4.881243035197257996e-02,-8.338908106088638306e-02,8.075744844973087311e-03,5.550538003444671631e-02,4.106154665350914001e-02,4.542988538742065430e-02,-1.383977849036455154e-02,-3.799768909811973572e-02,-6.340185552835464478e-02,-7.781539857387542725e-02,-3.138121590018272400e-02,-5.870449170470237732e-02,-4.031455516815185547e-02,1.150213647633790970e-02,-4.629138112068176270e-02,-6.600548326969146729e-02,-5.701261013746261597e-02,7.025738712400197983e-03,-5.745645985007286072e-02,4.615447670221328735e-02,-6.382282823324203491e-02,-6.582359224557876587e-02,-5.152053665369749069e-03,-6.018280237913131714e-02,4.066750034689903259e-02,-5.342148244380950928e-02,1.142498105764389038e-02,-1.114441454410552979e-02,-5.876601673662662506e-03,-6.786962598562240601e-02,1.611214131116867065e-02,-2.273806743323802948e-02,-4.466246068477630615e-02,-6.581284850835800171e-02,-3.906565159559249878e-02,-3.046455420553684235e-02,1.218042708933353424e-02,-5.301574245095252991e-03,4.942340403795242310e-02,-1.915320754051208496e-02,1.549342833459377289e-02,-6.084086373448371887e-02,2.697481960058212280e-02,3.301170468330383301e-02,1.657232828438282013e-02,-2.468100935220718384e-02,9.620730997994542122e-04,-5.527961999177932739e-02,-5.079417675733566284e-02,5.711014568805694580e-02,-3.627651184797286987e-02,-8.050535619258880615e-02,2.596872486174106598e-02,-4.119637981057167053e-02,1.248019281774759293e-02,4.639004543423652649e-02,-6.541915982961654663e-02,-4.771437123417854309e-02,2.911320142447948456e-02,-2.101793698966503143e-02,-3.112704679369926453e-02,-6.021168455481529236e-02,2.968933805823326111e-02,4.545569792389869690e-02,3.116958960890769958e-02,-5.145727097988128662e-02,-4.706989973783493042e-02,-8.226965367794036865e-02,8.661691099405288696e-03,2.883321046829223633e-02,3.687445074319839478e-02,5.637659877538681030e-02,-1.085985265672206879e-02,-7.279399037361145020e-02,3.160483762621879578e-02,-6.248618662357330322e-02,1.755886944010853767e-03,-4.328942671418190002e-02,3.958316892385482788e-02,-1.747245155274868011e-02,5.534203350543975830e-02,-7.843564450740814209e-02,1.726287417113780975e-02,-2.985484339296817780e-02,-3.822582215070724487e-02,-1.166630815714597702e-02,-5.041545256972312927e-02,-4.897934570908546448e-02,3.730009496212005615e-02,-1.066428236663341522e-02,-6.809069961309432983e-02,-4.897490609437227249e-03,-2.557219937443733215e-02,-6.649079918861389160e-02,-1.740521937608718872e-02,4.697272181510925293e-02,-2.148131839931011200e-02,-3.575843200087547302e-02,-4.966707155108451843e-02,2.833996340632438660e-02,-5.409982800483703613e-02,5.148464441299438477e-02,-1.208652835339307785e-02,-3.284721076488494873e-02,3.875615447759628296e-02,-5.748920887708663940e-02,3.158102044835686684e-03,-3.638064488768577576e-02,-5.426822230219841003e-03,-1.827162690460681915e-02,-4.427134618163108826e-02,-2.515480853617191315e-02,-4.990646615624427795e-02,1.748880743980407715e-02,1.606185548007488251e-02,2.975605987012386322e-02,-7.576636970043182373e-02,-4.830443486571311951e-02,-5.155893042683601379e-02,-4.193665087223052979e-02,2.493766322731971741e-02,-5.059812963008880615e-02,4.705528169870376587e-02,3.104205243289470673e-02,3.934393823146820068e-02,9.291592054069042206e-03,-3.835777053609490395e-03,-4.878225550055503845e-02,1.029509585350751877e-02,-1.831589639186859131e-02,2.377824671566486359e-02,6.121140439063310623e-03,-3.594671189785003662e-02,-4.297081008553504944e-02,8.560495189158245921e-05,-6.078360974788665771e-02,-4.077522456645965576e-02,-2.957502566277980804e-02,-6.604448705911636353e-02,-3.255426138639450073e-02,-5.426030233502388000e-02,-5.890582129359245300e-02,4.674584791064262390e-02,2.292835339903831482e-02,-8.708469569683074951e-02,1.392025873064994812e-02,-1.446888223290443420e-02,3.987478464841842651e-02,-1.396672520786523819e-02,-6.803188472986221313e-02,5.324167199432849884e-03,-2.931420132517814636e-02,-6.724058091640472412e-02,6.382652092725038528e-03,1.850993558764457703e-02,1.220558118075132370e-02,-7.796747982501983643e-02,7.445175200700759888e-03,5.300067365169525146e-03,1.386039145290851593e-02,1.792517490684986115e-02,5.692076403647661209e-03,-3.838182613253593445e-02,-4.522609338164329529e-02,-6.481451541185379028e-02,-4.301688075065612793e-02,2.753163129091262817e-02,-1.113516464829444885e-02,-5.995045602321624756e-02,-6.245960667729377747e-02,1.349943783134222031e-02,-4.758037254214286804e-02,-4.855450242757797241e-02,2.162336930632591248e-02,-3.201323561370372772e-03,-3.047159500420093536e-02,3.107466362416744232e-02,-1.332199946045875549e-02,-5.537931621074676514e-02,-1.445788610726594925e-02,-3.697400167584419250e-02,-7.855446636676788330e-02,-4.859104007482528687e-02,-8.403249084949493408e-03,-3.037490509450435638e-02,-2.420336194336414337e-02,-2.654471620917320251e-02,-4.020921885967254639e-03,-2.526796795427799225e-02,-2.054933644831180573e-02,-4.136197641491889954e-02,-2.912671118974685669e-02,-7.186502963304519653e-02,-1.554546412080526352e-02,-1.033644541166722775e-03,-3.723218291997909546e-02,-1.656210795044898987e-02,-7.832612842321395874e-03,3.020970150828361511e-02,6.567769218236207962e-03,-1.897763460874557495e-02,4.055821150541305542e-02,-1.877698465250432491e-03,-2.758176252245903015e-02,1.756905112415552139e-03,-4.580332338809967041e-02,4.431296139955520630e-02,-6.764472275972366333e-02,-2.598977833986282349e-02,-3.407362475991249084e-02,-5.002940818667411804e-02,3.119289875030517578e-02,-5.825481563806533813e-02,-1.604893803596496582e-02,-4.970268160104751587e-02,-7.453449815511703491e-02,4.765315353870391846e-02,-7.482606917619705200e-02,-4.196307854726910591e-04,-2.963463775813579559e-02,1.617041788995265961e-02,4.458819329738616943e-02,1.150298118591308594e-02,4.805147647857666016e-02,-1.878283172845840454e-02,-1.015527639538049698e-02,2.518238686025142670e-02,-5.571629106998443604e-02,-3.768265247344970703e-02,4.111085087060928345e-02,-3.228769823908805847e-02
-3.255234658718109131e-02,-6.291292607784271240e-02,-3.788617998361587524e-02,-8.552029728889465332e-02,3.745467960834503174e-02,-4.310217499732971191e-02,-1.285448111593723297e-02,-4.233464598655700684e-02,-3.827295824885368347e-02,-3.741529583930969238e-02,-1.020295470952987671e-01,-5.018538236618041992e-02,-8.883186429738998413e-02,-6.465481966733932495e-02,5.752532184123992920e-02,2.287782356142997742e-02,4.186099395155906677e-02,-8.903209865093231201e-02,3.773770481348037720e-02,-4.029801860451698303e-02,-5.944942310452461243e-02,1.929905824363231659e-02,-4.824830964207649231e-02,1.344292890280485153e-02,6.761610507965087891e-03,3.861354663968086243e-02,-6.430535763502120972e-02,-8.026830852031707764e-02,-5.158317089080810547e-02,-2.073656581342220306e-02,-2.035941369831562042e-02,-3.601882606744766235e-02,6.621474400162696838e-03,-3.364158794283866882e-02,5.621660966426134109e-03,-5.346162710338830948e-03,3.711406514048576355e-02,-6.436558067798614502e-02,-3.447721898555755615e-02,-8.382362127304077148e-02,-1.309684962034225464e-01,-2.292537875473499298e-02,-3.131903335452079773e-02,-5.877081770449876785e-03,-9.222337603569030762e-02,-4.079579561948776245e-02,-3.092775307595729828e-02,-3.042298741638660431e-02,5.894280597567558289e-02,4.719339311122894287e-02,-3.120622597634792328e-02,-5.486582219600677490e-02,-4.721162840723991394e-02,-6.049579381942749023e-02,-3.507860377430915833e-02,-1.854054629802703857e-03,-4.951357468962669373e-02,-4.522592946887016296e-02,1.318106148391962051e-02,-7.413796335458755493e-02,1.655125431716442108e-02,-3.733968362212181091e-02,-3.271502628922462463e-02,-1.718283056106884032e-05,-1.573047041893005371e-02,-5.139277502894401550e-02,-1.295361854135990143e-02,-2.130152657628059387e-02,1.804941520094871521e-02,5.205421149730682373e-02,-5.820951890200376511e-03,1.117943320423364639e-02,4.453442990779876709e-03,-1.309562381356954575e-02,-5.779381096363067627e-02,-2.869905531406402588e-02,-8.338874578475952148e-02,-1.734879799187183380e-02,4.432909563183784485e-02,-2.023097872734069824e-02,-3.277720510959625244e-02,4.995746072381734848e-03,4.052217677235603333e-02,-6.661809980869293213e-03,9.502232074737548828e-03,1.864604279398918152e-02,-7.931208610534667969e-02,-7.129646092653274536e-02,-5.779258906841278076e-03,-3.213889151811599731e-02,1.150207780301570892e-02,-8.685128390789031982e-02,-1.102937459945678711e-01,5.959920119494199753e-03,-4.954046383500099182e-02,-3.378808498382568359e-02,2.697816118597984314e-02,-2.345874533057212830e-02,-6.463846657425165176e-03,-3.320024162530899048e-02,2.706233970820903778e-02,-4.336895421147346497e-02,-2.075673826038837433e-02,-6.243224442005157471e-02,1.085705310106277466e-02,-5.899243801832199097e-02,-6.028945744037628174e-02,-2.274446748197078705e-02,2.079273574054241180e-02,-6.189928390085697174e-04,1.307695824652910233e-02,1.811734028160572052e-02,6.942147761583328247e-02,-1.969278790056705475e-02,-3.304474800825119019e-02,2.270743949338793755e-03,2.974332601297646761e-04,-5.706353485584259033e-02,-4.290358349680900574e-02,-5.183211341500282288e-02,-5.882784724235534668e-03,-8.679170161485671997e-02,-8.166359737515449524e-03,-4.963910672813653946e-03,2.565967105329036713e-02,-6.590422242879867554e-02,-2.073940634727478027e-02,-7.059030234813690186e-02,-3.919559717178344727e-02,-1.678942143917083740e-02,-6.912453100085258484e-04,-3.778256243094801903e-03,-8.157722651958465576e-02,2.146741189062595367e-02,-4.887296259403228760e-02,-5.743119120597839355e-02,2.696610428392887115e-02,2.808986790478229523e-02,9.101415984332561493e-03,-4.624000564217567444e-02,-8.387012034654617310e-02,-8.271741867065429688e-02,-4.053414985537528992e-02,3.123047202825546265e-02,-2.320730313658714294e-02,-6.940279155969619751e-02,-3.618716821074485779e-02,3.452258417382836342e-03,1.112928893417119980e-02,-4.921760037541389465e-02,2.501723542809486389e-02,6.075104326009750366e-02,-3.851348906755447388e-02,3.692561993375420570e-03,-8.864223212003707886e-02,-8.134701289236545563e-03,-1.233589649200439453e-01,-3.854203969240188599e-02,2.758260443806648254e-02,-7.544158957898616791e-03,3.969735279679298401e-02,4.749437421560287476e-02,-8.939103037118911743e-02,-4.709174111485481262e-02,-4.530017450451850891e-02,-7.371704280376434326e-02,-2.590245753526687622e-02,3.057089820504188538e-02,-4.369237273931503296e-02,-4.652046039700508118e-02,1.920077763497829437e-02,4.995784163475036621e-02,3.612988814711570740e-02,-2.383698709309101105e-03,-6.824006326496601105e-03,4.283173009753227234e-02,-3.362578153610229492e-02,-2.097026258707046509e-02,-3.416312858462333679e-02,2.793481014668941498e-02,-6.331890076398849487e-02,4.141902178525924683e-02,-1.098545920103788376e-02,2.888933569192886353e-02,4.561123624444007874e-02,-5.339040979743003845e-02,2.249477989971637726e-02,-9.833570569753646851e-02,-3.956148400902748108e-02,2.201694250106811523e-02,6.774808280169963837e-03,3.062246739864349365e-02,-3.485766798257827759e-02,3.220165520906448364e-02,-2.978430315852165222e-02,-3.191339969635009766e-02,-2.252026088535785675e-02,4.308629035949707031e-02,-2.228249097242951393e-03,-3.912495076656341553e-02,4.696689173579216003e-02,-7.349814288318157196e-03,-3.052138490602374077e-03,2.654920518398284912e-02,3.343851491808891296e-02,-8.751707524061203003e-02,-4.440439864993095398e-03,1.352747343480587006e-02,-9.292406588792800903e-02,4.027349501848220825e-02,-3.422987833619117737e-02,-3.158506378531455994e-02,-3.226879984140396118e-02,-6.000559031963348389e-02,2.344902791082859039e-02,2.702973410487174988e-02,-3.664867579936981201e-02,-2.570456266403198242e-02,1.717410422861576080e-02,-9.037676453590393066e-02,4.182144999504089355e-02,1.876255962997674942e-03,-1.119338124990463257e-01,-1.781991496682167053e-02,4.167855903506278992e-02,-4.256950691342353821e-02,4.339963197708129883e-02,-1.119713298976421356e-02,-1.866450905799865723e-02,2.716202661395072937e-02,-5.536636337637901306e-02,-7.431203965097665787e-03,1.948907040059566498e-02,-5.654669925570487976e-02,-3.836385905742645264e-02,-9.663006663322448730e-02,3.188019990921020508e-02,-1.264606416225433350e-02,2.070953696966171265e-02,-1.517242938280105591e-02,2.001245878636837006e-02,-2.321717888116836548e-02,-6.158877909183502197e-02,5.049822852015495300e-02,3.177598863840103149e-02,-6.415039300918579102e-02,2.557464689016342163e-02,1.327409758232533932e-03,-2.114198170602321625e-03,4.970002546906471252e-02,-7.179231196641921997e-02,-2.878917753696441650e-02,-4.025741666555404663e-02,7.367282174527645111e-03,9.905749931931495667e-03,-9.287833422422409058e-02
