-1.714348234236240387e-02,7.612237334251403809e-02,-1.545286327600479126e-01,-1.761139482259750366e-01,6.184810027480125427e-02,-2.764857709407806396e-01,7.847687602043151855e-02,7.537472248077392578e-02,-2.700577490031719208e-02,4.584522172808647156e-02,-4.191091284155845642e-02,4.166026040911674500e-02,-2.747651189565658569e-03,1.629671454429626465e-02,4.024859145283699036e-02,1.121753975749015808e-01,-1.729340553283691406e-01,5.036494508385658264e-02,7.168260216712951660e-02,-5.866323038935661316e-02,-3.783110156655311584e-02,-2.197094634175300598e-02,-2.183654531836509705e-02,-1.836265027523040771e-01,7.173918653279542923e-03,6.146237999200820923e-02,-8.119395934045314789e-03,1.719414629042148590e-02,-7.706376165151596069e-02,1.785679608583450317e-01,3.075381554663181305e-02,3.113637864589691162e-02,-1.536792982369661331e-02,-4.906550422310829163e-02,2.358585596084594727e-02,1.409953385591506958e-01,-1.235002279281616211e-02,-1.468164473772048950e-01,3.751915693283081055e-02,-2.211619317531585693e-01,1.467231810092926025e-01,-1.936592012643814087e-01,-5.362164229154586792e-02,-2.235964834690093994e-01,-7.774569094181060791e-02,1.732868142426013947e-02,-2.354428544640541077e-02,-2.309817671775817871e-01,-1.160051673650741577e-02,8.742939680814743042e-03,-8.888357132673263550e-02,-5.575638730078935623e-03,1.073685213923454285e-01,-1.227904763072729111e-02,6.277827918529510498e-02,-1.188382878899574280e-01,-1.462224125862121582e-01,-6.443494930863380432e-03,3.313894942402839661e-02,6.318406015634536743e-02,6.563096307218074799e-03,8.494931459426879883e-02,-9.376258403062820435e-02,1.421281993389129639e-01,4.830524697899818420e-02,1.483694557100534439e-02,4.899580031633377075e-02,2.491651475429534912e-02,1.503568738698959351e-01,5.408617109060287476e-02,1.960917711257934570e-01,-7.279366999864578247e-02,-5.870620906352996826e-02,-7.204691320657730103e-02,-1.331968158483505249e-01,3.254527971148490906e-02,-1.282134503126144409e-01,1.329327225685119629e-01,-3.963469993323087692e-03,-1.686070859432220459e-01,-4.008927568793296814e-02,-2.382582724094390869e-01,-1.964707970619201660e-01,1.763326972723007202e-01,6.279977411031723022e-02,-9.987583011388778687e-02,-5.165681242942810059e-02,1.398757994174957275e-01,-8.571555465459823608e-02,-1.211068630218505859e-01,-7.331660389900207520e-02,2.176772989332675934e-02,3.662016987800598145e-02,-4.140662029385566711e-02,-2.576312795281410217e-02,-2.829589135944843292e-02,9.202099591493606567e-02,1.995977610349655151e-01,1.219650059938430786e-01,9.430667757987976074e-02,2.321178764104843140e-01,2.840716578066349030e-02,-3.901754692196846008e-02,1.179689541459083557e-02,3.399106115102767944e-02,3.508572652935981750e-02,1.883396878838539124e-02,-2.342230975627899170e-01,9.185994416475296021e-02,4.513189941644668579e-02,-9.076722897589206696e-03,9.137160331010818481e-02,1.504891663789749146e-01,1.200867965817451477e-01,5.731965601444244385e-02,-1.714398264884948730e-01,3.509248793125152588e-02,1.705194562673568726e-01,-7.431356701999902725e-03,4.108001012355089188e-03,-2.931424044072628021e-02,5.811832100152969360e-02,-1.048530340194702148e-01,6.272904574871063232e-02,8.115240186452865601e-02,5.898080393671989441e-02,-2.493812469765543938e-03,1.350673031993210316e-03
-1.529782712459564209e-01,-1.346240639686584473e-01,-1.187993958592414856e-01,1.103057339787483215e-01,3.336937353014945984e-02,-7.549767196178436279e-02,-1.103371232748031616e-01,-3.925279527902603149e-02,2.825348265469074249e-02,-4.805117473006248474e-02,-2.428568340837955475e-02,-1.165085285902023315e-01,7.384212315082550049e-02,-3.604677505791187286e-03,4.285604506731033325e-02,8.765374310314655304e-03,7.682143896818161011e-02,3.221957758069038391e-02,-3.782920539379119873e-02,-1.019798442721366882e-01,8.967502415180206299e-02,1.023238375782966614e-01,2.221282012760639191e-02,-1.878621429204940796e-01,-5.095316842198371887e-02,-7.335820049047470093e-02,-4.732977598905563354e-02,-1.101050004363059998e-01,-5.140769481658935547e-02,-1.261391043663024902e-01,1.782303117215633392e-02,-1.562753617763519287e-01,-1.244152337312698364e-01,-7.998312823474407196e-03,1.187408864498138428e-01,-1.070941612124443054e-01,-3.547326847910881042e-02,9.383444488048553467e-02,-2.992360293865203857e-02,-6.881038099527359009e-02,-1.649041026830673218e-01,-3.280913690105080605e-03,-5.515386536717414856e-02,4.389020055532455444e-02,-7.433513551950454712e-02,-6.231738999485969543e-02,-1.415696553885936737e-02,-7.998101413249969482e-02,4.372832551598548889e-02,1.114525739103555679e-02,4.359015077352523804e-02,-8.769381791353225708e-02,-8.311125636100769043e-02,-2.102747261524200439e-01,-6.754972785711288452e-02,1.302647888660430908e-01,2.826514840126037598e-02,-3.563557052984833717e-03,-1.230458728969097137e-02,-1.879756003618240356e-01,-2.590788528323173523e-02,-7.140243053436279297e-02,-1.177432909607887268e-01,5.842608865350484848e-03,1.124425977468490601e-01,-8.838463574647903442e-02,6.737368553876876831e-02,-3.055515326559543610e-02,-8.324453607201576233e-03,-9.172026067972183228e-02,-9.938696026802062988e-02,8.312426507472991943e-02,2.696228213608264923e-02,-1.026561632752418518e-01,6.934692710638046265e-02,4.773713648319244385e-02,-1.815227866172790527e-01,1.108607649803161621e-02,-2.702871151268482208e-02,8.442069590091705322e-02,-7.846337556838989258e-02,7.517457753419876099e-02,-1.020180806517601013e-01,7.990434020757675171e-02,-2.706955932080745697e-02,3.015293972566723824e-03,1.071351766586303711e-02,-9.183679521083831787e-02,-1.332236379384994507e-01,1.702932827174663544e-02,-1.674651205539703369e-01,-6.248415634036064148e-02,-1.704739220440387726e-02,-1.276784837245941162e-01,-3.968226909637451172e-02,6.697528064250946045e-02,-1.544279456138610840e-01,8.107915520668029785e-02,-1.147329527884721756e-02,5.409029871225357056e-02,-1.171043291687965393e-01,-8.565519005060195923e-03,1.074042096734046936e-01,-2.974752895534038544e-02,-2.644258178770542145e-02,-6.120966374874114990e-02,-1.033035144209861755e-01,-1.204056963324546814e-01,7.207070291042327881e-02,-6.031907349824905396e-02,5.787717550992965698e-02,-1.970888823270797729e-01,-1.438230574131011963e-01,1.107076704502105713e-01,-9.465260803699493408e-02,1.148127466440200806e-01,-1.012767665088176727e-02,-2.090636789798736572e-01,1.834724098443984985e-01,-2.562868595123291016e-02,1.482958160340785980e-02,6.823373585939407349e-02,-7.607235759496688843e-02,1.437170207500457764e-01,6.993769854307174683e-02,1.131289526820182800e-01,1.221059262752532959e-01,-1.177343912422657013e-02
7.990634068846702576e-03,-6.496987491846084595e-02,-5.341444164514541626e-02,-7.932058721780776978e-02,-8.424507081508636475e-02,6.359242647886276245e-02,7.171820849180221558e-02,-2.188677527010440826e-02,-3.851670771837234497e-02,1.830766722559928894e-02,-3.964099660515785217e-02,-3.184790164232254028e-02,-1.832378841936588287e-02,-4.719903320074081421e-02,-3.382627293467521667e-02,-2.347020665183663368e-03,-8.084297180175781250e-02,4.100267961621284485e-02,-1.556327193975448608e-02,-1.017565056681632996e-01,-5.937347561120986938e-02,-4.725119564682245255e-03,9.313983842730522156e-03,-1.701844856142997742e-02,6.062186323106288910e-03,5.786284804344177246e-02,-3.486255556344985962e-02,-1.627339236438274384e-02,-1.447152905166149139e-02,-6.314866244792938232e-02,8.512189611792564392e-03,-8.435499668121337891e-02,-1.149541214108467102e-01,-1.098365243524312973e-02,3.034091554582118988e-02,-6.792633235454559326e-02,3.365909308195114136e-02,4.319963604211807251e-02,-8.472805470228195190e-02,-9.671291708946228027e-02,8.416697382926940918e-03,2.695282921195030212e-02,-6.756435334682464600e-02,-1.186852529644966125e-01,-6.443237513303756714e-02,-9.890483319759368896e-02,-4.124093428254127502e-02,2.435332536697387695e-02,-7.747277617454528809e-02,-8.548902720212936401e-02,7.250355184078216553e-02,-1.059074923396110535e-01,-2.726293914020061493e-02,2.423939062282443047e-03,-7.464006543159484863e-02,3.493145853281021118e-02,3.072848357260227203e-02,-1.882712915539741516e-02,-8.614879101514816284e-02,-9.802802652120590210e-02,4.946360737085342407e-02,-6.252195686101913452e-02,-8.072055131196975708e-02,-7.262708246707916260e-02,-6.473815441131591797e-02,9.211814962327480316e-03,6.919264048337936401e-02,-2.213403768837451935e-02,-5.812013894319534302e-02,-6.384002417325973511e-02,2.477835305035114288e-02,-8.684394508600234985e-02,5.131622776389122009e-02,-9.248603135347366333e-02,-2.395727299153804779e-02,-8.198075741529464722e-02,2.596492506563663483e-02,2.950585633516311646e-02,-6.219907104969024658e-02,4.067698866128921509e-02,5.061128363013267517e-02,3.476563841104507446e-02,-9.228484705090522766e-03,-8.162501454353332520e-02,-6.985568907111883163e-04,-6.490594148635864258e-02,1.174064446240663528e-02,6.960963457822799683e-02,-1.252379850484430790e-03,6.057435646653175354e-02,4.370402544736862183e-02,8.318541198968887329e-02,5.654403008520603180e-03,-5.826677381992340088e-02,-4.137342330068349838e-03,7.304753363132476807e-02,-3.215943276882171631e-02,-9.206992387771606445e-02,-4.433286190032958984e-02,4.661809280514717102e-02,2.153718657791614532e-02,-1.199175342917442322e-01,4.500291123986244202e-02,-1.233814097940921783e-02,-4.875133279711008072e-03,7.827854715287685394e-03,-9.101524204015731812e-02,-6.619303673505783081e-02,1.174593460746109486e-03,-9.944757074117660522e-02,1.882382854819297791e-02,8.654157631099224091e-03,4.714875295758247375e-02,-1.044764369726181030e-02,-8.235170692205429077e-02,-1.073664799332618713e-01,-8.569493889808654785e-02,-5.069963261485099792e-02,1.938938163220882416e-02,-6.950802356004714966e-02,-1.185438856482505798e-01,-7.413760572671890259e-02,-7.053171843290328979e-02,-6.677459180355072021e-02,-5.296401306986808777e-02,-5.120831541717052460e-03,7.717894762754440308e-02,1.962884125532582402e-04
-7.209682464599609375e-02,-1.566545963287353516e-01,5.416597053408622742e-02,-1.627949923276901245e-01,-1.154699996113777161e-01,-6.917913258075714111e-02,-5.342078581452369690e-02,-3.192946314811706543e-02,-1.459105592221021652e-02,1.906167715787887573e-02,1.027114018797874451e-01,2.499483674764633179e-01,1.349866986274719238e-01,5.298409610986709595e-02,3.122927993535995483e-02,9.816603362560272217e-02,-4.608326777815818787e-02,-1.969136744737625122e-01,2.616809215396642685e-03,-1.396008953452110291e-02,6.693149334751069546e-04,-2.060007899999618530e-01,-2.386813424527645111e-02,7.233486510813236237e-03,-5.364282801747322083e-02,6.383789330720901489e-02,-9.694273024797439575e-02,3.396169096231460571e-02,-1.970992237329483032e-02,-1.239728182554244995e-01,-5.490396171808242798e-02,-1.481664925813674927e-01,-2.773853242397308350e-01,7.790592312812805176e-02,4.171786829829216003e-02,-1.703291982412338257e-01,-1.030067503452301025e-01,6.630694866180419922e-02,-1.106630731374025345e-02,2.849835157394409180e-02,-1.766044795513153076e-01,-1.943530440330505371e-01,-4.746668413281440735e-02,1.050000712275505066e-01,-1.236839592456817627e-01,-2.022216841578483582e-02,5.045341327786445618e-02,-9.490364789962768555e-02,-4.319888353347778320e-02,5.895911157131195068e-02,6.201908737421035767e-02,2.512517385184764862e-02,-1.006469652056694031e-01,-2.590140402317047119e-01,-1.731937825679779053e-01,-9.656523168087005615e-02,-6.677177548408508301e-02,1.230237036943435669e-01,3.152599558234214783e-02,-6.241030991077423096e-02,2.695759758353233337e-02,-5.253199487924575806e-03,-7.686896622180938721e-02,-1.161854490637779236e-01,2.108953893184661865e-02,7.794666290283203125e-02,5.193313583731651306e-03,7.225697860121726990e-03,1.621203124523162842e-01,1.087611168622970581e-01,-6.598104536533355713e-02,1.304244343191385269e-02,3.264314495027065277e-03,7.281420379877090454e-02,3.367379605770111084e-01,1.010171324014663696e-01,-1.598582230508327484e-02,-2.279893681406974792e-02,-1.475729197263717651e-01,2.030976563692092896e-01,-1.405372172594070435e-01,-3.501857072114944458e-02,1.224299669265747070e-01,5.125385522842407227e-02,-5.057377368211746216e-02,-4.454816132783889771e-02,1.158016026020050049e-01,4.085075110197067261e-02,-1.698577255010604858e-01,7.085844874382019043e-02,-1.438871920108795166e-01,4.022343829274177551e-02,7.924678735435009003e-03,8.881129324436187744e-02,1.656395941972732544e-02,3.657378256320953369e-02,-1.321310400962829590e-01,-6.243019551038742065e-02,-2.166776731610298157e-02,-1.524663269519805908e-01,7.289832830429077148e-02,-1.433863192796707153e-01,-1.197227463126182556e-01,-3.762730211019515991e-02,3.123744949698448181e-02,4.094829037785530090e-02,2.636250481009483337e-02,2.187518626451492310e-01,6.527616176754236221e-03,9.944698214530944824e-02,-6.930182874202728271e-02,-4.790332540869712830e-02,-3.385959193110466003e-02,-5.773641914129257202e-02,-3.977405652403831482e-02,2.554252371191978455e-02,3.828085586428642273e-02,-4.392181336879730225e-02,8.216834813356399536e-02,-2.407612949609756470e-01,-1.763682216405868530e-01,-8.821190893650054932e-02,-7.307306677103042603e-02,5.934445187449455261e-02,-3.600008785724639893e-01,4.678090661764144897e-02,1.131693199276924133e-01,-2.072533965110778809e-02
-4.944318160414695740e-02,-9.302732348442077637e-02,-7.919065654277801514e-02,-4.380523413419723511e-02,-9.500695765018463135e-02,2.236224152147769928e-02,-6.689237058162689209e-02,-2.618427202105522156e-02,3.299700468778610229e-02,-2.320570172742009163e-03,1.275489926338195801e-01,-1.071822494268417358e-01,-8.165249973535537720e-02,2.884752117097377777e-02,2.373687922954559326e-02,8.044439554214477539e-02,-1.295008324086666107e-02,-5.403512716293334961e-02,-2.844803594052791595e-02,-8.196415007114410400e-02,-7.456369698047637939e-02,-8.760461956262588501e-02,4.414914920926094055e-02,-1.410756856203079224e-01,-1.528993844985961914e-01,6.144955754280090332e-02,-2.064202353358268738e-02,-3.216372057795524597e-02,-1.371790170669555664e-01,4.508896917104721069e-02,-5.104220658540725708e-02,-3.739099577069282532e-02,-3.708862140774726868e-02,-8.883654326200485229e-02,9.191518276929855347e-02,-9.075111895799636841e-02,-2.080199122428894043e-02,6.794271618127822876e-02,-9.455829858779907227e-02,-2.345203235745429993e-02,-1.070890873670578003e-01,-7.699459791183471680e-02,-6.828904896974563599e-02,-1.117600426077842712e-01,1.192280948162078857e-01,-1.534795947372913361e-02,-4.221280291676521301e-02,-2.555328011512756348e-01,-5.205038934946060181e-02,1.080995704978704453e-02,-2.208169549703598022e-02,-3.036207752302289009e-03,2.821713313460350037e-02,-2.010750174522399902e-01,4.304565861821174622e-02,-6.067579612135887146e-02,-8.193249255418777466e-02,4.421383515000343323e-02,2.120691686868667603e-01,-9.170463681221008301e-02,5.998245254158973694e-02,2.294651605188846588e-02,-1.018579676747322083e-01,-6.539704650640487671e-02,1.576850861310958862e-01,-5.098287016153335571e-02,1.161238737404346466e-02,4.110411554574966431e-02,-1.065938770771026611e-01,-4.993702471256256104e-02,2.110392041504383087e-02,6.813543848693370819e-03,4.865665733814239502e-02,-2.323687076568603516e-02,-1.591663658618927002e-01,-4.826785624027252197e-02,-2.546372711658477783e-01,-9.617347270250320435e-02,-4.844383522868156433e-02,6.703158468008041382e-02,1.345163881778717041e-01,5.925646796822547913e-02,1.294207423925399780e-01,2.839745767414569855e-02,6.636444479227066040e-02,-4.824116826057434082e-02,6.045577581971883774e-03,-6.492510437965393066e-02,-1.132022589445114136e-01,-4.500407353043556213e-02,6.804157048463821411e-02,3.222196549177169800e-02,1.208416558802127838e-02,-5.983687564730644226e-02,-5.566359311342239380e-02,-5.896820127964019775e-02,-2.296150475740432739e-01,7.019519060850143433e-02,-4.011483117938041687e-02,-3.238602727651596069e-02,-1.159910857677459717e-01,-9.662034362554550171e-02,7.440926879644393921e-02,-4.596810042858123779e-02,1.084438562393188477e-01,-6.740012019872665405e-02,-8.917591720819473267e-02,-1.790100634098052979e-01,4.135109856724739075e-02,-1.243094075471162796e-02,-1.323689222335815430e-01,-4.684396460652351379e-02,4.028153046965599060e-02,1.981735415756702423e-02,-4.882193356752395630e-02,3.029269576072692871e-01,1.261151675134897232e-02,-8.334711939096450806e-02,2.193330675363540649e-01,5.626723170280456543e-02,6.022704765200614929e-02,-1.755993813276290894e-02,-8.661087602376937866e-02,-1.761624775826931000e-02,4.958888515830039978e-02,2.145562171936035156e-01,1.795203797519207001e-02,-7.477310299873352051e-02
2.521427720785140991e-02,1.508352309465408325e-01,2.608635835349559784e-02,-2.596671879291534424e-01,-9.248830378055572510e-02,-1.098526194691658020e-01,-2.718679839745163918e-03,1.722508519887924194e-01,-5.246911570429801941e-02,4.665641859173774719e-02,-1.618745028972625732e-01,-9.595640748739242554e-02,7.308991998434066772e-02,1.119412556290626526e-01,8.111906237900257111e-03,-7.940716296434402466e-02,-2.717882767319679260e-02,-7.449606433510780334e-03,9.766425937414169312e-02,1.203657239675521851e-01,2.387838624417781830e-02,1.064837328158318996e-03,3.487436473369598389e-02,-1.351944506168365479e-01,1.735745519399642944e-01,-4.558677971363067627e-02,1.062054932117462158e-01,1.158721894025802612e-01,3.419619984924793243e-03,2.482027374207973480e-02,8.184637874364852905e-02,7.523955404758453369e-02,9.304370731115341187e-02,6.617220118641853333e-03,-9.940534830093383789e-02,-1.649236539378762245e-03,1.213479936122894287e-01,5.046488344669342041e-02,6.467138975858688354e-02,-8.821053802967071533e-02,-2.166306972503662109e-01,1.018754485994577408e-02,-1.459447443485260010e-01,-5.445627868175506592e-02,-2.171800658106803894e-02,-1.214596070349216461e-02,5.404640361666679382e-02,-1.580862142145633698e-02,5.586091056466102600e-02,9.256634861230850220e-02,-6.266958266496658325e-02,-2.472410202026367188e-01,2.174202911555767059e-02,4.849802330136299133e-02,2.888552658259868622e-02,-1.256888657808303833e-01,-5.759361758828163147e-02,-4.854288697242736816e-02,-4.414915293455123901e-02,1.445873975753784180e-01,6.718206685036420822e-03,1.477710437029600143e-02,-1.409837156534194946e-01,-2.349365968257188797e-03,-1.248791441321372986e-01,-8.673802763223648071e-02,-5.229895934462547302e-02,3.019594401121139526e-02,4.568201303482055664e-02,3.691218793392181396e-01,1.739021986722946167e-01,3.711856901645660400e-02,4.389868304133415222e-02,9.089158847928047180e-03,-1.581713706254959106e-01,2.998024970293045044e-02,-2.274787873029708862e-01,-8.686595596373081207e-03,2.354280836880207062e-02,-1.651866137981414795e-01,-1.138039026409387589e-02,-1.657868176698684692e-01,-9.103827923536300659e-02,8.396659046411514282e-02,-1.121380776166915894e-01,-3.742209449410438538e-02,7.606223225593566895e-02,5.334975570440292358e-02,7.637022435665130615e-02,2.358193881809711456e-02,4.421264398843050003e-03,-2.215936547145247459e-03,-5.949640646576881409e-02,-1.017290502786636353e-01,-1.445291936397552490e-01,1.111918762326240540e-01,1.549588888883590698e-02,1.146430298686027527e-01,1.231105104088783264e-01,1.051464304327964783e-01,2.560461759567260742e-01,8.561757206916809082e-02,-3.206972405314445496e-02,-7.987160235643386841e-03,-1.347387880086898804e-01,3.649405390024185181e-02,-1.053788438439369202e-01,-3.084229230880737305e-01,1.215559467673301697e-01,-1.555756181478500366e-01,-5.438092350959777832e-02,-1.470821499824523926e-01,9.255819767713546753e-02,-2.942817099392414093e-02,1.053532958030700684e-01,-2.457194626331329346e-01,1.332920342683792114e-01,5.588016286492347717e-02,6.055199354887008667e-02,-1.964172581210732460e-03,-1.058092564344406128e-01,8.249855600297451019e-03,-7.428093999624252319e-02,-5.938357859849929810e-02,-1.024384889751672745e-02,8.877645432949066162e-02,-5.774495378136634827e-02,8.772468566894531250e-02
-5.322047695517539978e-02,4.132537171244621277e-02,3.210841119289398193e-02,9.903255850076675415e-02,8.438827842473983765e-02,-2.330343797802925110e-02,1.503753513097763062e-01,5.048065260052680969e-02,-7.151786983013153076e-02,-6.574450433254241943e-02,8.261510729789733887e-02,1.148010343313217163e-01,2.504702657461166382e-03,-8.425633609294891357e-02,3.794942423701286316e-02,-1.478085666894912720e-01,4.350482486188411713e-04,-2.259354665875434875e-02,-1.002893447875976562e-01,-1.657041162252426147e-02,-1.154873073101043701e-01,1.378496289253234863e-01,-1.899440027773380280e-02,2.137068212032318115e-01,-6.538861989974975586e-02,3.389010950922966003e-02,1.577834486961364746e-01,-1.355377584695816040e-01,5.689488723874092102e-02,5.770329385995864868e-02,3.727850317955017090e-02,4.441116750240325928e-02,9.345933794975280762e-02,5.082127451896667480e-02,-1.976627483963966370e-02,-9.003506042063236237e-03,-5.458470433950424194e-02,1.835045590996742249e-02,1.486599352210760117e-02,4.352733492851257324e-02,6.686979532241821289e-02,1.311878859996795654e-01,1.233812719583511353e-01,6.787218153476715088e-02,1.360723674297332764e-01,2.337848246097564697e-01,-1.101280897855758667e-01,1.326138153672218323e-02,7.359860092401504517e-02,9.190723299980163574e-02,7.551964372396469116e-02,-1.950824982486665249e-03,-9.634092450141906738e-02,1.012258455157279968e-01,-1.417529135942459106e-01,-3.561771661043167114e-02,9.940426796674728394e-02,-2.579830586910247803e-02,6.579213589429855347e-02,1.161047294735908508e-01,5.922655016183853149e-02,1.403650045394897461e-01,7.255360484123229980e-02,9.273321181535720825e-02,7.815023884177207947e-03,6.615786254405975342e-02,-1.064650155603885651e-02,-6.725513935089111328e-02,-2.830854617059230804e-02,-6.575133185833692551e-03,-4.270925186574459076e-03,7.322167605161666870e-02,1.581550016999244690e-02,5.688637867569923401e-02,-9.654025733470916748e-02,-1.300471872091293335e-01,5.130382627248764038e-02,1.498907506465911865e-01,1.419777981936931610e-02,1.643060594797134399e-01,3.829145338386297226e-03,-7.853285968303680420e-02,-1.241726726293563843e-01,-2.240066602826118469e-02,4.089689254760742188e-02,9.929501265287399292e-02,-9.952494874596595764e-03,-2.355020195245742798e-01,3.556510061025619507e-02,7.105081528425216675e-02,1.104685664176940918e-01,1.901719532907009125e-02,-4.570675641298294067e-02,3.892193734645843506e-02,-5.040986463427543640e-02,-5.104918032884597778e-02,3.147418051958084106e-02,-1.983045786619186401e-01,-1.120459288358688354e-03,-1.316979974508285522e-01,-3.251579701900482178e-01,-6.376697123050689697e-02,1.037225499749183655e-01,-8.596055209636688232e-03,-1.373026967048645020e-01,3.722627460956573486e-02,8.621029555797576904e-02,1.601874232292175293e-01,-1.359101533889770508e-01,-1.208973675966262817e-01,4.779402539134025574e-02,1.182270646095275879e-01,1.382344681769609451e-02,-7.722324877977371216e-02,-4.147423058748245239e-02,9.421098232269287109e-02,3.136670961976051331e-02,4.822515696287155151e-02,-6.531480234116315842e-03,-2.485923469066619873e-02,1.134076341986656189e-01,-1.298249959945678711e-01,-5.170614272356033325e-02,6.093961000442504883e-02,4.264954477548599243e-02,8.372072130441665649e-03,1.512385252863168716e-02,4.694586992263793945e-02
-1.342144906520843506e-01,-8.966104686260223389e-02,6.492152065038681030e-02,-5.037750676274299622e-02,1.101344823837280273e-01,8.376244455575942993e-02,1.604577898979187012e-01,1.119749099016189575e-01,7.240223884582519531e-02,-4.871690273284912109e-02,7.632576674222946167e-02,-6.854274868965148926e-02,-9.830115735530853271e-02,-8.835429698228836060e-02,1.896870322525501251e-02,1.880493909120559692e-01,2.898533456027507782e-02,1.356403380632400513e-01,-1.180911883711814880e-01,-9.746738523244857788e-02,1.013894602656364441e-01,-5.381585657596588135e-02,-5.539963021874427795e-02,-1.542659699916839600e-01,-6.639860570430755615e-02,3.978627175092697144e-02,1.388165801763534546e-01,-6.452235579490661621e-02,3.271469473838806152e-02,-2.623143419623374939e-02,2.915370091795921326e-02,6.516070663928985596e-02,-1.061513274908065796e-02,-1.401088945567607880e-02,-3.711873292922973633e-02,4.680311772972345352e-03,6.595193594694137573e-02,1.148559227585792542e-01,-2.555438503623008728e-02,1.160717159509658813e-01,9.289112687110900879e-02,-5.624417960643768311e-02,-5.165555048733949661e-03,-2.758121490478515625e-02,1.731049641966819763e-02,-3.588690608739852905e-02,-3.079594373703002930e-01,-9.725706279277801514e-02,-5.926004610955715179e-03,1.665533334016799927e-02,-3.172364458441734314e-02,4.207929223775863647e-02,-1.078597903251647949e-01,5.451693013310432434e-02,-2.648934721946716309e-01,5.272082984447479248e-02,7.467498071491718292e-03,4.563995078206062317e-02,-1.954898424446582794e-02,-2.717230655252933502e-02,-2.237315929960459471e-04,-5.128119140863418579e-02,2.180551178753376007e-02,8.782252669334411621e-02,1.920785754919052124e-02,2.321753837168216705e-02,-7.460436224937438965e-02,7.774052023887634277e-02,-9.485977888107299805e-02,8.368211984634399414e-02,-1.044480875134468079e-01,6.700319051742553711e-02,-1.254106592386960983e-02,1.505631506443023682e-01,-4.604551941156387329e-03,1.439446061849594116e-01,-4.991307109594345093e-02,-4.433397203683853149e-02,1.193963959813117981e-01,2.231760025024414062e-01,7.051613181829452515e-02,1.346793919801712036e-01,2.117408066987991333e-02,6.783320754766464233e-02,9.423165768384933472e-02,6.744688749313354492e-02,-1.790668219327926636e-01,6.488826125860214233e-02,-1.056648939847946167e-01,9.340602159500122070e-02,1.670651882886886597e-01,1.772204041481018066e-01,4.992771521210670471e-02,-6.088201701641082764e-02,6.901308894157409668e-02,2.169965021312236786e-02,2.548631280660629272e-02,9.396671503782272339e-02,1.660967469215393066e-01,4.160000011324882507e-02,-2.214917689561843872e-01,4.020543396472930908e-02,-2.471467554569244385e-01,7.683374732732772827e-02,7.694982923567295074e-03,1.129127219319343567e-01,9.778204560279846191e-02,-4.955643415451049805e-02,9.101888537406921387e-02,1.559814363718032837e-01,-1.222935244441032410e-01,1.471873819828033447e-01,5.241251736879348755e-02,-5.183165520429611206e-02,1.840084232389926910e-02,-8.952292799949645996e-02,4.202883318066596985e-02,4.539454355835914612e-02,-1.128483787178993225e-01,6.006631627678871155e-02,1.022946438752114773e-03,-1.977458782494068146e-02,-8.252589963376522064e-03,-4.399710893630981445e-02,-5.999056249856948853e-02,5.476184934377670288e-02,-8.428312838077545166e-02,9.787311404943466187e-02
6.565203517675399780e-02,1.269726455211639404e-01,-5.313009396195411682e-02,7.821335643529891968e-02,1.254023462533950806e-01,-3.575034067034721375e-02,1.004718616604804993e-01,-1.081267595291137695e-01,4.280373081564903259e-02,6.495173275470733643e-02,-4.583577439188957214e-02,2.038995474576950073e-01,-5.607863422483205795e-03,-2.570373192429542542e-02,-7.407977432012557983e-02,1.836134195327758789e-01,8.539328724145889282e-02,3.676310880109667778e-04,-2.373327314853668213e-01,-2.521286718547344208e-02,-6.016631424427032471e-02,-7.987379282712936401e-02,1.131996735930442810e-01,-4.353890195488929749e-02,-3.430322930216789246e-02,-7.312958128750324249e-03,-8.689429378136992455e-04,-4.613424465060234070e-02,1.500721573829650879e-01,-1.858708262443542480e-01,-3.650793805718421936e-02,-2.365296781063079834e-01,1.137673184275627136e-01,-2.983749285340309143e-02,2.559748105704784393e-02,-1.705827936530113220e-02,-1.752830445766448975e-01,3.034283779561519623e-02,-1.700849235057830811e-01,-1.343690231442451477e-02,6.077183410525321960e-03,-5.763658136129379272e-02,5.309699475765228271e-02,-3.679547458887100220e-02,6.338865309953689575e-02,1.797227114439010620e-01,1.627017408609390259e-01,-7.921988517045974731e-02,-9.592938236892223358e-03,-2.978576421737670898e-01,-2.610707422718405724e-03,1.029376909136772156e-01,-4.157275706529617310e-02,1.345046013593673706e-01,8.156216144561767578e-02,5.323915556073188782e-02,-4.328097403049468994e-02,8.168632164597511292e-03,5.159013904631137848e-03,3.118756040930747986e-02,-1.833955943584442139e-02,3.443424776196479797e-02,9.482525289058685303e-03,-2.947954088449478149e-02,-3.339637815952301025e-02,-2.338541857898235321e-02,-5.057317763566970825e-02,-4.134284798055887222e-03,-1.633786708116531372e-01,-9.232709556818008423e-02,-3.512929752469062805e-02,2.681889943778514862e-02,8.220348507165908813e-03,-1.599297299981117249e-02,-4.830207303166389465e-02,7.431462407112121582e-02,2.132655531167984009e-01,8.367722621187567711e-04,-3.406762331724166870e-02,-7.787333428859710693e-02,-6.975212693214416504e-02,-1.061322763562202454e-01,-2.392451912164688110e-01,1.106014996767044067e-01,8.241882920265197754e-02,4.837104678153991699e-02,1.266170740127563477e-01,9.122303128242492676e-02,8.085943758487701416e-02,4.056695476174354553e-02,8.862446248531341553e-02,-1.315366923809051514e-01,-9.894298017024993896e-02,1.404430530965328217e-02,-2.643751353025436401e-02,7.961464673280715942e-02,-4.726276546716690063e-02,1.756925694644451141e-02,-9.683845937252044678e-02,-5.161311477422714233e-02,3.342188894748687744e-02,6.197886914014816284e-02,1.102305278182029724e-01,6.600512564182281494e-02,2.600594609975814819e-02,2.816738188266754150e-02,2.332415580749511719e-01,8.507978171110153198e-02,-1.044965684413909912e-01,7.333624362945556641e-02,-4.520592093467712402e-02,2.144209444522857666e-01,4.117915034294128418e-02,-1.007920280098915100e-01,-9.774824231863021851e-02,3.744071815162897110e-03,5.148395523428916931e-02,7.165588438510894775e-02,-1.174379289150238037e-01,-1.407648064196109772e-02,1.013414934277534485e-01,-2.197163701057434082e-01,-1.661006808280944824e-01,5.101099610328674316e-02,1.712240874767303467e-01,2.932905452325940132e-03,-7.389229536056518555e-02,6.825758516788482666e-02
-1.176917925477027893e-01,-3.250201046466827393e-02,-3.030470944941043854e-02,1.117164120078086853e-01,6.997855007648468018e-02,-2.063781321048736572e-01,5.344615876674652100e-02,3.056087344884872437e-02,-1.383691653609275818e-02,6.249983236193656921e-02,-1.973761767148971558e-01,1.582430116832256317e-02,1.163311377167701721e-01,-4.671744536608457565e-04,-7.300118356943130493e-02,-5.751301720738410950e-02,-4.871018230915069580e-02,2.961070835590362549e-02,8.151161670684814453e-02,1.798966899514198303e-02,-3.410203615203499794e-03,3.427938744425773621e-02,7.109695672988891602e-02,1.021345406770706177e-01,1.231387108564376831e-01,5.771641060709953308e-02,-7.600130140781402588e-02,4.139936715364456177e-02,-5.173695087432861328e-02,-3.021860308945178986e-02,1.113220602273941040e-01,3.591552749276161194e-02,7.519955188035964966e-02,4.095126315951347351e-02,1.184523850679397583e-01,1.453112214803695679e-01,1.822687312960624695e-02,8.597241342067718506e-02,3.252008929848670959e-02,-1.287645399570465088e-01,5.419040471315383911e-02,7.083310931921005249e-02,-5.570897832512855530e-02,3.787985444068908691e-02,-8.627669513225555420e-02,-7.725536078214645386e-02,5.906108766794204712e-02,2.754960767924785614e-02,-1.604611054062843323e-02,-1.081167310476303101e-01,-3.831405425444245338e-03,-1.249134913086891174e-02,4.313950240612030029e-02,-1.258971542119979858e-01,1.236644685268402100e-01,1.315826624631881714e-01,8.147763460874557495e-02,-9.127416461706161499e-02,1.932694949209690094e-02,1.244291290640830994e-01,1.374180763959884644e-01,-5.606379732489585876e-02,-9.140626341104507446e-02,1.102916970849037170e-01,2.314304858446121216e-01,-2.728012204170227051e-02,-6.371308863162994385e-02,9.125815331935882568e-02,1.322999596595764160e-02,-3.680716082453727722e-02,7.602031528949737549e-02,-6.187583506107330322e-02,-7.903826981782913208e-02,-1.135317087173461914e-01,2.038969695568084717e-01,-3.504902869462966919e-02,5.297710373997688293e-02,-7.125937938690185547e-02,-5.262003093957901001e-02,-7.751157879829406738e-02,3.200833499431610107e-02,-7.632959634065628052e-02,-1.148544400930404663e-01,-6.011477857828140259e-02,-1.454523205757141113e-01,1.154166064225137234e-03,1.508628726005554199e-01,-2.301329746842384338e-02,1.202458590269088745e-01,6.573422253131866455e-02,-8.271053433418273926e-03,-1.545664761215448380e-02,2.633134461939334869e-02,-9.401797503232955933e-02,2.479001879692077637e-02,-1.954733766615390778e-02,4.163493588566780090e-02,-4.634113237261772156e-02,3.366456553339958191e-02,2.771131135523319244e-02,2.476856857538223267e-01,1.050911471247673035e-01,2.576066553592681885e-01,1.352438703179359436e-02,-1.254748404026031494e-01,5.723860859870910645e-02,-9.632469154894351959e-03,-5.614807829260826111e-02,7.334726303815841675e-02,-4.212767630815505981e-02,-5.651060491800308228e-02,-4.607998952269554138e-02,1.116448417305946350e-01,3.158329799771308899e-02,6.700481474399566650e-02,-2.242516577243804932e-01,1.025183349847793579e-01,4.728886857628822327e-02,-1.113577000796794891e-02,7.801732420921325684e-02,-1.291162818670272827e-01,-3.617970645427703857e-02,1.328028738498687744e-01,8.162392675876617432e-02,-3.050331398844718933e-02,7.103045471012592316e-03,5.626148357987403870e-02,5.678658559918403625e-02
7.426556199789047241e-02,-1.881257295608520508e-01,-9.107334166765213013e-02,-4.801973327994346619e-02,7.140549272298812866e-02,2.645743191242218018e-01,-2.805434539914131165e-02,-7.217554748058319092e-02,5.090782791376113892e-02,-6.626762449741363525e-02,5.865248665213584900e-02,-5.826018378138542175e-02,1.237481366842985153e-02,-1.042652353644371033e-01,-6.587614119052886963e-02,-1.741042286157608032e-01,1.947403252124786377e-01,1.871020346879959106e-02,1.873884797096252441e-01,1.637820154428482056e-01,9.060882031917572021e-02,1.017205417156219482e-01,-1.728700399398803711e-01,1.403924077749252319e-01,1.171766743063926697e-01,3.998711705207824707e-02,2.487032115459442139e-02,9.953467547893524170e-02,-3.790866583585739136e-02,1.809741556644439697e-01,-1.978841572999954224e-01,7.691340893507003784e-02,6.721152365207672119e-02,1.555157266557216644e-02,-6.541384011507034302e-02,-1.182436360977590084e-03,-4.673640057444572449e-02,-1.063924059271812439e-01,8.622673898935317993e-02,-7.742193341255187988e-02,1.934360116720199585e-01,-7.172361761331558228e-02,-1.827618926763534546e-01,-2.467684447765350342e-01,3.291799873113632202e-02,-4.672156646847724915e-02,-1.604497618973255157e-02,2.757149562239646912e-02,-2.063400670886039734e-02,4.910324513912200928e-02,-3.670097142457962036e-02,-6.545800715684890747e-02,-1.055396627634763718e-02,4.820964112877845764e-02,-5.168756842613220215e-02,7.799229025840759277e-02,1.067066192626953125e-01,-1.584716327488422394e-02,8.339782804250717163e-02,1.152242422103881836e-01,5.245306994765996933e-03,7.554464042186737061e-02,-7.405048608779907227e-02,-1.218445450067520142e-01,9.364099055528640747e-02,-6.234247982501983643e-02,-4.913732782006263733e-02,6.290855258703231812e-02,-9.828869998455047607e-02,-1.985360234975814819e-01,-2.181241661310195923e-01,7.211054861545562744e-02,-1.038658618927001953e-01,-1.696142926812171936e-02,-1.702777296304702759e-01,-2.292549014091491699e-01,-1.575125008821487427e-01,8.681023865938186646e-02,-7.959126681089401245e-02,-1.545182913541793823e-01,3.295594081282615662e-02,3.327184915542602539e-02,-6.646958738565444946e-02,-6.582783162593841553e-02,-4.554963111877441406e-02,1.078286096453666687e-01,3.754027560353279114e-02,-2.732477784156799316e-01,-1.273265331983566284e-01,6.979500502347946167e-02,-1.806062310934066772e-01,-1.522525250911712646e-01,2.365652471780776978e-02,-6.101914495229721069e-02,6.368265300989151001e-02,-3.032184578478336334e-02,4.129220545291900635e-02,-3.284614160656929016e-02,-6.421662122011184692e-02,-3.975942730903625488e-02,8.183015137910842896e-02,-1.841064840555191040e-01,-1.490547209978103638e-01,-6.024929881095886230e-02,-1.836379468441009521e-01,1.900360733270645142e-02,-2.052438855171203613e-01,-1.119365841150283813e-01,-4.207595065236091614e-02,4.380694776773452759e-02,3.734621778130531311e-02,-7.556134462356567383e-02,-1.776802837848663330e-01,1.158951967954635620e-01,-5.813078954815864563e-02,2.083085849881172180e-02,-7.957283407449722290e-02,5.520557239651679993e-02,4.145840927958488464e-02,1.453838795423507690e-01,-2.256844937801361084e-02,3.582299873232841492e-02,1.842759363353252411e-02,1.809800043702125549e-02,-1.459256410598754883e-01,-3.705139830708503723e-02,-1.241657231003046036e-02,4.010193049907684326e-03
7.566516101360321045e-02,-4.539007693529129028e-02,1.006476953625679016e-01,1.553096026182174683e-01,5.716891214251518250e-02,2.162326276302337646e-01,5.440678074955940247e-02,1.847400888800621033e-02,-2.132013998925685883e-02,8.096577227115631104e-02,2.651920355856418610e-02,-2.569769695401191711e-02,-5.750541388988494873e-02,-7.518179714679718018e-02,8.561625331640243530e-02,-2.429177612066268921e-01,5.947903171181678772e-02,-8.560499548912048340e-02,-1.709758937358856201e-01,-4.700992628931999207e-02,-3.183093667030334473e-02,5.135938152670860291e-02,-2.076408863067626953e-01,9.001266211271286011e-02,-1.632740721106529236e-02,-9.129422903060913086e-02,1.805501729249954224e-01,9.796591475605964661e-03,1.632092148065567017e-01,8.930250257253646851e-02,8.109401911497116089e-02,1.157624423503875732e-01,5.501617491245269775e-02,-7.894553989171981812e-02,1.443816255778074265e-02,-4.544654488563537598e-02,-8.912789821624755859e-02,-1.700084209442138672e-01,1.390253305435180664e-01,1.656286269426345825e-01,-3.757834061980247498e-02,4.194800555706024170e-02,4.397293925285339355e-02,-3.349131718277931213e-02,-8.201273530721664429e-02,3.665651753544807434e-02,-6.974068284034729004e-02,3.377325087785720825e-02,7.676780223846435547e-02,4.309597983956336975e-02,1.290097180753946304e-02,1.024271622300148010e-01,-3.406158089637756348e-01,6.745399534702301025e-02,-9.816715866327285767e-02,-1.464635133743286133e-01,1.180510297417640686e-01,7.254199683666229248e-02,8.182177320122718811e-03,-2.072039432823657990e-02,7.022012770175933838e-02,5.760052427649497986e-02,1.797115653753280640e-01,2.917731180787086487e-02,1.143044680356979370e-01,-7.004614174365997314e-02,-7.696810364723205566e-02,-1.478993520140647888e-02,-2.898920699954032898e-02,1.156032644212245941e-02,9.539370425045490265e-03,3.060267539694905281e-03,1.229531131684780121e-02,3.967717289924621582e-02,-3.859686851501464844e-01,-2.681343257427215576e-01,3.298772964626550674e-03,-1.472880840301513672e-01,-4.861521348357200623e-02,1.731990277767181396e-01,-1.204829514026641846e-01,-7.589273154735565186e-02,1.353106796741485596e-01,-9.762673079967498779e-02,6.640763580799102783e-02,-4.488318786025047302e-02,-3.280832618474960327e-02,6.856457144021987915e-02,5.467145889997482300e-02,-5.661869421601295471e-02,-4.729548469185829163e-03,7.827307097613811493e-03,5.370470881462097168e-02,3.915364295244216919e-02,9.352739900350570679e-02,-1.734780520200729370e-02,4.563245922327041626e-02,-1.509336829185485840e-01,1.005912274122238159e-01,-5.885541439056396484e-02,-4.062505066394805908e-01,-4.962384700775146484e-02,-1.322287172079086304e-01,-4.044463858008384705e-03,-7.493647933006286621e-02,-1.011808365583419800e-01,-1.363952159881591797e-01,-9.251481294631958008e-02,-1.449191421270370483e-01,-1.086711511015892029e-01,-2.158799767494201660e-02,-8.620464056730270386e-02,-1.369565278291702271e-01,4.596960544586181641e-02,4.073325544595718384e-02,-1.135444790124893188e-01,-4.448912665247917175e-02,-3.437757864594459534e-02,-7.810213416814804077e-02,-1.310207396745681763e-01,-8.944827318191528320e-02,1.763368397951126099e-01,-1.038990095257759094e-01,8.771470747888088226e-03,-5.996996164321899414e-02,8.058233186602592468e-03,-2.710594423115253448e-02,-6.086583063006401062e-02
-2.022110223770141602e-01,7.082311809062957764e-02,1.102161705493927002e-01,-5.365550145506858826e-02,7.110417634248733521e-02,1.050941571593284607e-01,5.580857768654823303e-02,9.881651401519775391e-02,-3.473166748881340027e-02,-7.937015593051910400e-02,6.171170622110366821e-02,1.218773871660232544e-01,4.024774953722953796e-02,-5.229368060827255249e-02,6.768226623535156250e-02,-1.920527070760726929e-01,3.968236222863197327e-02,2.067478001117706299e-01,-2.003291696310043335e-01,-2.171406522393226624e-02,-8.169401437044143677e-02,7.465024292469024658e-02,7.942409068346023560e-02,1.071786358952522278e-01,5.784224718809127808e-03,7.659451663494110107e-02,-4.188594967126846313e-02,-1.768604665994644165e-02,7.063196599483489990e-02,-7.397939264774322510e-02,-2.837764099240303040e-02,1.458732336759567261e-01,1.306671202182769775e-01,3.859723359346389771e-02,1.082503870129585266e-01,-6.022786349058151245e-02,-1.272529363632202148e-01,9.897207468748092651e-02,5.734291672706604004e-02,4.398696869611740112e-02,1.654323190450668335e-01,9.900116175413131714e-02,1.194403599947690964e-02,1.156880706548690796e-01,3.424662724137306213e-02,-9.030459332279860973e-04,-5.072453245520591736e-02,1.515742391347885132e-02,8.914569765329360962e-02,-7.735288701951503754e-03,9.081078320741653442e-02,1.870541460812091827e-02,2.693544700741767883e-02,1.014427617192268372e-01,-1.161500215530395508e-01,9.644141048192977905e-02,-1.380296330899000168e-02,-1.487384885549545288e-01,5.250255018472671509e-02,-8.313164860010147095e-02,-4.271594807505607605e-02,-1.215455005876719952e-03,1.322564482688903809e-01,-5.783389136195182800e-02,1.960370987653732300e-01,5.327711999416351318e-02,1.939238421618938446e-02,-1.028324197977781296e-02,4.809343069791793823e-02,7.891508936882019043e-02,2.919876277446746826e-01,2.484667114913463593e-02,4.009868949651718140e-02,2.908170223236083984e-02,-4.467298742383718491e-03,-1.513536572456359863e-01,2.124012112617492676e-01,-5.031602829694747925e-02,9.616246074438095093e-02,1.918106228113174438e-01,-1.260222517885267735e-03,-2.771362895146012306e-03,-9.712129831314086914e-02,4.972068592905998230e-02,-8.080559968948364258e-02,-7.181315869092941284e-02,1.409205347299575806e-01,-2.150488495826721191e-01,-1.034897565841674805e-02,2.013122290372848511e-02,1.597637534141540527e-01,-1.327342242002487183e-01,-1.351365000009536743e-01,2.348935976624488831e-02,-2.104588784277439117e-02,1.562485843896865845e-02,1.440938860177993774e-01,-7.210872322320938110e-02,1.108083315193653107e-02,-1.039392314851284027e-02,-3.813282027840614319e-02,2.537753991782665253e-02,-9.678269922733306885e-02,3.497455641627311707e-02,5.808266345411539078e-03,6.159838289022445679e-02,-1.494322419166564941e-01,1.786512881517410278e-01,-1.516810506582260132e-01,-2.091885805130004883e-01,1.586449891328811646e-01,1.136916205286979675e-01,2.711046673357486725e-02,-1.857236921787261963e-01,-2.424622885882854462e-02,8.401171118021011353e-02,7.946930080652236938e-02,9.377253800630569458e-02,3.673203522339463234e-03,-1.070097014307975769e-01,-4.076042678207159042e-03,-9.761755168437957764e-02,-1.258767396211624146e-01,-2.665929682552814484e-02,1.390530169010162354e-01,4.303541779518127441e-02,-2.001673355698585510e-02,-7.052225619554519653e-02
-2.634813450276851654e-02,-1.162346266210079193e-02,-4.901723191142082214e-02,3.569918917492032051e-03,-9.445890039205551147e-02,5.083213374018669128e-02,-8.965828269720077515e-02,-3.537563979625701904e-02,3.252789378166198730e-02,3.562326310202479362e-03,-6.021592020988464355e-02,-1.797294802963733673e-02,-3.403427451848983765e-02,7.272952049970626831e-02,-7.685775309801101685e-02,8.999627828598022461e-02,7.374290376901626587e-02,6.504462659358978271e-02,-5.623753368854522705e-02,7.276371866464614868e-02,-3.193835914134979248e-02,-1.060868650674819946e-01,-1.298125088214874268e-01,-1.183284223079681396e-01,8.119561523199081421e-02,-8.990768343210220337e-02,1.401499509811401367e-01,-5.670059472322463989e-02,9.651377052068710327e-02,1.046448424458503723e-01,7.360223680734634399e-02,1.304822564125061035e-01,1.517405062913894653e-01,7.277150452136993408e-02,-1.071353405714035034e-01,-3.004520386457443237e-02,-6.191763281822204590e-02,3.788799047470092773e-02,4.468549787998199463e-02,-1.700434386730194092e-01,1.283304393291473389e-01,6.154271215200424194e-02,-1.789112687110900879e-01,-1.353271305561065674e-01,-1.339667886495590210e-01,-8.328422904014587402e-03,-2.184275835752487183e-01,-2.443181276321411133e-01,4.052827879786491394e-02,4.831571877002716064e-02,-2.976058982312679291e-02,-9.565152227878570557e-02,-1.261007320135831833e-02,7.254178822040557861e-02,-1.851642131805419922e-01,2.166396938264369965e-02,-3.428882360458374023e-02,4.455434530973434448e-02,-4.795124009251594543e-02,-8.681874722242355347e-02,9.670957922935485840e-03,-1.729984283447265625e-01,1.227714717388153076e-01,7.303906232118606567e-02,1.288004498928785324e-02,6.121468171477317810e-02,-7.639081776142120361e-02,7.124862819910049438e-02,-3.731359541416168213e-02,1.409133523702621460e-01,-2.764393985271453857e-01,7.307697832584381104e-02,1.043340638279914856e-01,4.237512499094009399e-02,-1.773265898227691650e-01,2.395481243729591370e-02,-1.079402267932891846e-01,-2.189845405519008636e-02,-4.438594623934477568e-04,1.306868791580200195e-01,-4.063079133629798889e-02,1.613071933388710022e-02,6.269332021474838257e-02,9.701338410377502441e-02,-2.887544594705104828e-02,-9.152358397841453552e-03,8.189694583415985107e-02,9.244810044765472412e-02,-1.246025711297988892e-01,-6.324462126940488815e-03,-1.171295298263430595e-03,-6.573810242116451263e-04,6.093801558017730713e-02,1.953677460551261902e-02,-3.271859511733055115e-02,1.744190789759159088e-02,1.323713362216949463e-01,8.281222730875015259e-02,4.820697009563446045e-02,-2.978560701012611389e-02,-1.291773170232772827e-01,6.628385186195373535e-02,-2.441958189010620117e-01,2.140686288475990295e-02,-7.147569209337234497e-02,1.161511912941932678e-01,7.137405220419168472e-03,1.403603237122297287e-02,-5.988636612892150879e-02,-8.030158467590808868e-03,-9.944291412830352783e-02,-2.153660356998443604e-02,-6.717366725206375122e-02,1.549746521050110459e-04,3.554193675518035889e-02,-1.097117215394973755e-01,-8.208986371755599976e-02,2.416317164897918701e-02,8.113692700862884521e-02,-1.301733553409576416e-01,-7.658558338880538940e-02,9.949246048927307129e-02,-1.244635358452796936e-01,-1.423409767448902130e-02,-2.867098897695541382e-02,4.723963886499404907e-02,-7.515218108892440796e-02,3.589688986539840698e-02
1.336577534675598145e-01,1.038861051201820374e-01,2.968890592455863953e-02,-2.020765990018844604e-01,3.635569661855697632e-02,1.696818917989730835e-01,7.624543271958827972e-03,-1.840295046567916870e-01,6.389487534761428833e-03,-5.864242464303970337e-02,9.887149930000305176e-02,5.195691483095288277e-04,6.883002351969480515e-03,5.737163126468658447e-02,-5.126443225890398026e-03,1.696203202009201050e-01,2.054112590849399567e-02,2.290960215032100677e-02,1.107701584696769714e-01,9.154129773378372192e-02,-4.785354062914848328e-02,-9.154915809631347656e-02,-2.075370252132415771e-01,-1.745103150606155396e-01,-3.043399564921855927e-02,2.514226362109184265e-02,5.394596233963966370e-02,6.011353339999914169e-03,8.673948794603347778e-02,4.860286787152290344e-02,1.167289763689041138e-01,1.970743685960769653e-01,5.620252341032028198e-02,-1.632482744753360748e-02,-1.185962930321693420e-01,-5.200480669736862183e-02,-2.807048894464969635e-02,-2.435021661221981049e-02,3.356499969959259033e-02,3.526662290096282959e-02,-1.346075683832168579e-01,7.452877704054117203e-03,-1.371683627367019653e-01,-1.675580739974975586e-01,6.415797770023345947e-02,7.256940752267837524e-02,-2.320983330719172955e-04,-6.264566630125045776e-02,2.862129127606749535e-03,1.702764481306076050e-01,-8.195576374419033527e-04,6.646417081356048584e-02,-5.921654403209686279e-02,6.934688240289688110e-02,-5.138186365365982056e-02,-1.370600312948226929e-01,-1.116763204336166382e-01,1.336238235235214233e-01,1.793619431555271149e-02,-9.005386382341384888e-02,6.388252973556518555e-02,-2.918445505201816559e-02,8.689334988594055176e-02,-7.018557935953140259e-02,-2.188266217708587646e-01,6.112186610698699951e-02,4.262130334973335266e-02,2.645825594663619995e-02,8.022796362638473511e-02,6.983606517314910889e-02,-4.432986304163932800e-02,3.454773500561714172e-02,3.293262422084808350e-02,1.349793523550033569e-01,3.545217961072921753e-02,-5.137882009148597717e-02,-1.676032543182373047e-01,5.160605907440185547e-02,-6.301666051149368286e-02,1.354869338683784008e-03,2.849003858864307404e-02,1.041208580136299133e-01,1.480296254158020020e-01,3.344519808888435364e-02,1.387050747871398926e-01,-5.753250420093536377e-02,6.248704716563224792e-02,1.634040623903274536e-01,-1.050923764705657959e-01,6.675717420876026154e-03,-1.054469272494316101e-01,1.165995001792907715e-01,1.877235919237136841e-01,1.313437223434448242e-01,4.396229237318038940e-02,1.836905255913734436e-02,-7.194416970014572144e-02,2.157862931489944458e-01,9.997267276048660278e-02,9.356299787759780884e-02,1.333095133304595947e-02,-8.634541183710098267e-03,-2.548150122165679932e-01,7.581688463687896729e-02,7.314705103635787964e-02,5.699219182133674622e-02,-4.800312966108322144e-02,-5.338007584214210510e-02,1.266117691993713379e-01,1.712278276681900024e-01,3.630137816071510315e-02,-1.869928538799285889e-01,7.607679069042205811e-02,4.599178209900856018e-02,6.268122792243957520e-02,-8.087690919637680054e-02,-7.300390861928462982e-03,1.521722823381423950e-01,-3.166177123785018921e-02,-1.743612438440322876e-01,-4.684695508331060410e-03,1.244130581617355347e-01,-1.141239106655120850e-01,-4.905465990304946899e-02,-6.927065551280975342e-02,-1.299468278884887695e-01,2.635654248297214508e-02,1.549640728626400232e-04
6.027007102966308594e-02,3.527202457189559937e-02,1.442129611968994141e-01,-2.753439545631408691e-01,9.850316494703292847e-02,2.119221985340118408e-01,8.734435588121414185e-02,-2.986522018909454346e-01,-3.733479231595993042e-02,2.858975203707814217e-03,1.151982694864273071e-01,-7.768092676997184753e-03,-1.104145720601081848e-01,6.022227182984352112e-02,-1.168824639171361923e-02,-1.842393772676587105e-03,1.256693452596664429e-01,-3.071632981300354004e-01,-3.164489986374974251e-03,-6.288696080446243286e-02,3.216230543330311775e-03,-1.858953237533569336e-01,-2.232733368873596191e-01,-2.178227715194225311e-02,7.847099006175994873e-02,4.312232136726379395e-02,3.720851615071296692e-02,6.038781628012657166e-02,-3.757528588175773621e-02,4.698987305164337158e-02,-7.665030658245086670e-02,-8.174400776624679565e-02,-1.615230739116668701e-01,7.264608889818191528e-02,-6.844907253980636597e-02,-2.744784578680992126e-02,7.624081522226333618e-02,4.847125336527824402e-02,8.490349352359771729e-02,1.047693639993667603e-01,-1.927199065685272217e-01,8.042833954095840454e-02,-3.303395211696624756e-02,-8.197203278541564941e-02,-3.804404288530349731e-02,9.286223910748958588e-03,-1.799995154142379761e-01,-2.852375246584415436e-02,3.274480253458023071e-02,1.487740427255630493e-01,3.101375326514244080e-02,3.011585175991058350e-01,-1.905727684497833252e-01,1.831462606787681580e-02,1.171034723520278931e-01,7.135489583015441895e-02,-2.984417416155338287e-02,5.168073996901512146e-02,2.485282532870769501e-02,-4.412985220551490784e-02,-4.403559863567352295e-02,5.604720488190650940e-02,8.560921251773834229e-02,-1.931953281164169312e-01,-7.380905747413635254e-02,-6.031810119748115540e-02,-2.977934665977954865e-02,-8.203954994678497314e-02,-1.246413365006446838e-01,-1.490800678730010986e-01,-3.437870144844055176e-01,-2.804328501224517822e-02,5.034083873033523560e-02,1.163458526134490967e-01,-1.816161349415779114e-02,2.511275000870227814e-02,-1.398468464612960815e-01,-6.173753738403320312e-02,1.169037353247404099e-02,-3.909934684634208679e-02,1.980833150446414948e-02,3.358449786901473999e-02,1.470510214567184448e-01,-1.949504762887954712e-01,1.031419783830642700e-01,-3.974413964897394180e-03,-1.590025573968887329e-01,5.733300372958183289e-02,-1.148345246911048889e-01,5.815087258815765381e-02,2.290717326104640961e-03,-2.625020593404769897e-02,1.593735665082931519e-01,1.576156020164489746e-01,1.345404535531997681e-01,1.070246770977973938e-01,-4.032272100448608398e-02,-1.606491804122924805e-01,5.323762446641921997e-02,-3.681678324937820435e-02,-6.579159200191497803e-02,-2.171560823917388916e-01,-7.481882721185684204e-02,7.472598925232887268e-03,1.319526880979537964e-01,-1.553615778684616089e-01,-2.361151948571205139e-02,2.193784117698669434e-01,-5.526779592037200928e-02,1.770490705966949463e-01,-8.218813687562942505e-02,4.151012375950813293e-02,-1.337249428033828735e-01,7.094353437423706055e-02,-4.593674838542938232e-02,3.109705261886119843e-02,5.709363147616386414e-03,-2.236674912273883820e-02,9.438067674636840820e-02,2.157513946294784546e-01,-2.109971269965171814e-02,-1.671165786683559418e-02,9.993574768304824829e-02,2.855079062283039093e-02,-1.731002181768417358e-01,5.968407914042472839e-02,-1.013794820755720139e-02,-8.756007254123687744e-02
7.146468013525009155e-02,6.880592554807662964e-02,-2.124708518385887146e-02,2.318654023110866547e-02,-1.155555024743080139e-01,-1.290804985910654068e-02,-7.521375268697738647e-02,-5.991082638502120972e-02,2.474389411509037018e-02,3.445040062069892883e-02,1.626802235841751099e-02,2.212565839290618896e-01,2.337451837956905365e-02,2.279590815305709839e-02,3.569325432181358337e-02,3.961183130741119385e-02,8.622560650110244751e-02,6.607569009065628052e-02,7.870170474052429199e-02,9.673958271741867065e-02,3.090821579098701477e-02,-1.438643783330917358e-01,7.351443171501159668e-02,8.257213234901428223e-02,-1.570921838283538818e-01,1.542314048856496811e-02,-1.255954988300800323e-02,1.693695932626724243e-01,-7.969011552631855011e-03,5.331338942050933838e-02,1.495928224176168442e-02,-1.034412533044815063e-01,2.367952652275562286e-02,3.665024042129516602e-02,-6.396415084600448608e-02,-5.779969319701194763e-02,-9.888575226068496704e-02,-5.155381560325622559e-02,-3.898868709802627563e-02,2.883261144161224365e-01,-1.770796626806259155e-01,-1.149284765124320984e-01,1.065509766340255737e-01,2.000125311315059662e-02,8.999168872833251953e-02,4.857630655169487000e-02,3.782477288041263819e-04,1.849930733442306519e-01,2.058139629662036896e-02,5.981437861919403076e-02,-2.109137922525405884e-02,7.745827082544565201e-03,9.776896983385086060e-02,9.860760532319545746e-03,8.700484037399291992e-02,-1.004041433334350586e-01,-1.104818060994148254e-01,8.623817004263401031e-03,7.263047248125076294e-02,1.019608452916145325e-01,1.610279828310012817e-02,-4.404048249125480652e-02,4.947928339242935181e-02,-2.222547531127929688e-01,-1.181032806634902954e-01,5.895523354411125183e-02,6.795191764831542969e-02,-5.397010967135429382e-02,7.677115499973297119e-02,-9.093772619962692261e-02,2.257695943117141724e-01,-4.301957786083221436e-02,6.285705417394638062e-02,-9.827480651438236237e-03,1.305365264415740967e-01,-6.615195423364639282e-02,3.162762895226478577e-02,8.564428240060806274e-02,2.009881846606731415e-02,-1.146512329578399658e-01,-1.055156067013740540e-01,-1.101320534944534302e-01,1.049781516194343567e-01,-5.864522978663444519e-02,8.049307763576507568e-02,-5.654333904385566711e-02,1.268305033445358276e-01,-4.388229548931121826e-02,1.182004958391189575e-01,1.614425331354141235e-02,2.172187669202685356e-03,-8.387031406164169312e-02,-1.633135825395584106e-01,-2.665885351598262787e-02,1.037107259035110474e-01,8.475142717361450195e-02,-1.376715302467346191e-01,-1.475967168807983398e-01,-5.750857293605804443e-02,1.504442840814590454e-01,-1.665460318326950073e-01,-1.383823007345199585e-01,-4.448288306593894958e-02,4.379252716898918152e-02,7.041785120964050293e-02,-8.596961945295333862e-02,6.493042688816785812e-03,9.052336961030960083e-02,-6.526901572942733765e-02,-1.504659056663513184e-01,-8.180079050362110138e-03,-1.242521479725837708e-01,-3.269962221384048462e-02,3.648960590362548828e-02,4.557190835475921631e-02,1.391039788722991943e-01,8.456662297248840332e-03,-1.820973493158817291e-02,8.584064245223999023e-02,-3.884986042976379395e-02,1.458299160003662109e-01,-8.860020339488983154e-02,-4.931349679827690125e-02,-3.720479458570480347e-02,-1.113427579402923584e-01,2.058817632496356964e-02,9.469473361968994141e-02,-3.966632112860679626e-02
-4.219058156013488770e-02,-4.452040046453475952e-02,9.557530283927917480e-03,-2.114044688642024994e-02,-7.907225936651229858e-02,-3.752767806872725487e-04,-1.272645294666290283e-01,-5.046990141272544861e-02,-6.452067196369171143e-02,-6.894251797348260880e-03,4.474669322371482849e-02,-4.010432958602905273e-02,-1.054598856717348099e-02,-1.983412541449069977e-02,-1.094589009881019592e-02,-3.131321817636489868e-02,3.555718809366226196e-02,-1.809558272361755371e-02,-1.017684936523437500e-01,1.418146863579750061e-02,-3.787036612629890442e-02,2.185939997434616089e-02,-8.477488905191421509e-02,-8.069438487291336060e-02,-1.112134233117103577e-01,6.758064776659011841e-02,-1.342409849166870117e-01,-4.091699048876762390e-02,5.923200398683547974e-02,-1.047475337982177734e-01,-1.558224018663167953e-02,-8.399790525436401367e-02,2.222759649157524109e-02,-4.865630716085433960e-02,-3.950795903801918030e-02,-2.096568793058395386e-02,2.640594914555549622e-02,-4.420818015933036804e-02,6.901161279529333115e-03,-7.259179651737213135e-02,-2.223814278841018677e-02,5.733132734894752502e-02,-2.765790931880474091e-02,-5.540870502591133118e-02,4.967232421040534973e-02,-1.198313012719154358e-01,1.680796779692173004e-02,-8.457634598016738892e-02,-8.044910430908203125e-02,-9.162769466638565063e-02,4.652161523699760437e-02,-5.841642245650291443e-02,-4.293741658329963684e-02,-8.340833336114883423e-02,-3.245266154408454895e-02,-1.477587269619107246e-03,8.815508335828781128e-02,3.941931296139955521e-03,-2.468235325068235397e-03,3.837001323699951172e-02,-6.142926588654518127e-02,-9.555263817310333252e-02,-4.834742099046707153e-02,-9.282383322715759277e-02,5.283330380916595459e-02,4.514343664050102234e-02,-6.225405633449554443e-02,-3.826541826128959656e-02,-3.406175971031188965e-02,4.326954018324613571e-03,6.555303931236267090e-02,4.162735491991043091e-02,4.069587588310241699e-02,1.857502758502960205e-02,-5.846092104911804199e-02,-2.217809110879898071e-02,-1.048879623413085938e-01,-8.453228324651718140e-02,-8.584757149219512939e-02,3.496693074703216553e-02,-4.916664585471153259e-02,-6.293199956417083740e-02,-5.022045597434043884e-02,5.791968852281570435e-02,-1.247585043311119080e-01,-4.761027172207832336e-02,2.110641449689865112e-02,-9.992970526218414307e-02,5.631709098815917969e-02,-4.531430825591087341e-02,5.782340094447135925e-02,-5.851852148771286011e-02,1.941937487572431564e-03,3.746210783720016479e-02,-6.284333020448684692e-02,-1.392584573477506638e-02,-7.220369577407836914e-02,-3.169308975338935852e-02,-1.906356588006019592e-02,-1.140650175511837006e-02,5.827764421701431274e-02,-4.604116827249526978e-02,4.130054265260696411e-02,7.229116745293140411e-03,-2.400280535221099854e-02,1.634548231959342957e-02,-5.093247070908546448e-02,6.782342493534088135e-02,-1.544676814228296280e-02,-3.978631645441055298e-02,-1.380214281380176544e-02,1.888466626405715942e-02,-9.537496417760848999e-02,-4.781371972057968378e-04,-1.836003921926021576e-02,-6.175355985760688782e-03,2.822468057274818420e-02,-3.511000052094459534e-02,6.761942058801651001e-02,-3.911475464701652527e-02,-8.497005701065063477e-02,-1.084264442324638367e-01,-2.881369739770889282e-02,6.562892347574234009e-03,3.891634568572044373e-02,-3.786030225455760956e-03,6.673475727438926697e-04,-7.634048163890838623e-02
7.040033489465713501e-02,-5.866262689232826233e-02,1.492793560028076172e-01,-5.869003012776374817e-02,5.642662197351455688e-02,-2.132734656333923340e-01,7.520406693220138550e-02,1.557599306106567383e-01,3.440967947244644165e-02,-5.583066120743751526e-02,5.376400798559188843e-02,1.100145205855369568e-01,-3.495014086365699768e-02,-5.474858731031417847e-02,-5.484696477651596069e-02,3.335740184411406517e-03,-5.141671374440193176e-02,2.598161250352859497e-02,1.762265712022781372e-01,1.110919639468193054e-01,-3.295221552252769470e-02,8.489987254142761230e-02,1.397698372602462769e-02,2.391289733350276947e-02,8.095453679561614990e-02,2.454678900539875031e-02,2.084328383207321167e-01,-2.913518436253070831e-02,-6.546463072299957275e-02,1.378881484270095825e-01,-2.837995998561382294e-02,6.997738778591156006e-02,1.133051794022321701e-02,-2.152128145098686218e-02,-1.255630105733871460e-01,6.066878885030746460e-02,1.657556556165218353e-02,-7.743881642818450928e-02,7.495113462209701538e-02,6.758162379264831543e-02,-2.271109074354171753e-01,2.463921457529067993e-01,7.683884352445602417e-02,8.419723063707351685e-02,3.928811475634574890e-02,-8.318590931594371796e-03,-6.456720829010009766e-02,1.638105958700180054e-01,-3.874686360359191895e-02,1.111462563276290894e-01,-4.775306582450866699e-02,-2.275963723659515381e-01,3.644220530986785889e-02,5.354561284184455872e-02,7.921530306339263916e-02,8.425393700599670410e-02,2.621798217296600342e-02,-7.034289836883544922e-02,1.027537435293197632e-01,1.120445039123296738e-02,-2.335414662957191467e-02,1.178797101601958275e-03,-8.717393130064010620e-02,1.370141059160232544e-01,-4.769555106759071350e-02,7.433970458805561066e-03,1.457439456135034561e-02,-3.709290176630020142e-02,1.592898368835449219e-01,1.693358868360519409e-01,3.891597315669059753e-02,7.320930063724517822e-02,-9.569118916988372803e-02,3.248648717999458313e-02,6.756295915693044662e-04,4.713372513651847839e-02,-2.481244355440139771e-01,7.716869562864303589e-02,7.763773947954177856e-02,-4.945451393723487854e-02,1.608104445040225983e-02,-8.164739608764648438e-02,5.786394327878952026e-02,-4.917800799012184143e-02,-5.275157094001770020e-02,-9.180755168199539185e-02,1.708848327398300171e-01,-1.117387413978576660e-02,2.280456386506557465e-02,2.202976495027542114e-02,-2.122949808835983276e-02,2.534211277961730957e-01,-1.736617386341094971e-01,-5.009082704782485962e-02,-2.576150000095367432e-01,6.236399989575147629e-03,2.008944936096668243e-02,-2.176602929830551147e-02,-4.664338007569313049e-02,7.105574011802673340e-02,5.293553322553634644e-02,-2.094237878918647766e-02,7.686549425125122070e-02,-6.161211431026458740e-02,-2.539195120334625244e-01,4.622341133654117584e-03,-8.515070378780364990e-02,-8.638143539428710938e-02,9.146289527416229248e-02,1.678469590842723846e-02,-1.692651771008968353e-02,-6.069930642843246460e-02,-4.044181108474731445e-02,1.385273188352584839e-01,5.441253259778022766e-02,-3.011227250099182129e-01,8.304699510335922241e-02,1.020481362938880920e-01,1.624218933284282684e-02,-7.895215600728988647e-02,-1.745088100433349609e-01,7.881708443164825439e-02,1.236757263541221619e-01,2.626821957528591156e-02,-1.657186746597290039e-01,4.443561285734176636e-02,-1.104030460119247437e-01,3.255968913435935974e-02
2.885413356125354767e-02,9.033799916505813599e-02,3.604546072892844677e-04,5.783882737159729004e-02,3.449015319347381592e-02,-1.026609316468238831e-01,-1.248011738061904907e-02,-1.322992742061614990e-01,-4.733142256736755371e-02,7.685955613851547241e-02,-4.815425723791122437e-02,1.371667236089706421e-01,-2.403312921524047852e-02,-5.478525534272193909e-02,6.218359991908073425e-02,-5.278605222702026367e-02,2.818507887423038483e-02,-2.054380625486373901e-01,-1.714578121900558472e-01,-1.346423625946044922e-01,-6.256132572889328003e-02,5.127417296171188354e-02,-1.360944379121065140e-02,-1.492747366428375244e-01,-3.758537024259567261e-02,-1.196064203977584839e-01,-9.672876447439193726e-03,1.582271605730056763e-02,8.261292241513729095e-03,-1.142862718552350998e-02,-4.275894165039062500e-02,-6.853348016738891602e-02,5.402993783354759216e-02,-2.241066470742225647e-02,2.391136065125465393e-02,-9.127143025398254395e-02,-7.430458813905715942e-02,-1.171755045652389526e-01,-3.189465999603271484e-01,-1.277571767568588257e-01,-1.291402131319046021e-01,5.192680656909942627e-02,-6.436876952648162842e-02,-1.519114375114440918e-01,6.083965674042701721e-02,9.046155959367752075e-02,-4.258620738983154297e-02,-1.092974767088890076e-01,-1.527526695281267166e-02,-2.633426189422607422e-01,3.027807734906673431e-02,-5.275346338748931885e-03,-1.636957228183746338e-01,6.272830814123153687e-02,-4.891699063591659069e-04,-5.202244967222213745e-02,1.557893864810466766e-02,-8.540675789117813110e-02,5.669217556715011597e-02,-2.518103830516338348e-02,8.923534303903579712e-02,-6.618487834930419922e-02,5.009886622428894043e-02,-9.751832485198974609e-02,-3.156622871756553650e-02,-3.137132152915000916e-02,-9.102107025682926178e-03,-8.107712119817733765e-02,-4.134242981672286987e-02,-1.408874243497848511e-02,-1.023026555776596069e-02,-8.919224143028259277e-02,-3.501715883612632751e-02,-3.499593585729598999e-02,-9.077564626932144165e-02,-2.356813400983810425e-01,2.470203489065170288e-02,-1.624214276671409607e-02,1.700083352625370026e-02,-3.162461519241333008e-02,8.426593244075775146e-02,-1.268364638090133667e-01,-9.499713033437728882e-02,1.078907698392868042e-01,7.459168136119842529e-02,-2.007200568914413452e-02,2.152169495820999146e-02,-3.070586919784545898e-02,-2.362627983093261719e-01,3.590374067425727844e-02,-1.229160800576210022e-01,-2.489408710971474648e-03,1.148865818977355957e-01,-6.552492082118988037e-02,-1.115376129746437073e-01,4.902131389826536179e-03,-3.937745839357376099e-02,-1.120923757553100586e-01,-6.296779215335845947e-02,-1.411061268299818039e-02,-1.482788920402526855e-01,1.238672528415918350e-02,-3.092647157609462738e-02,-6.343742460012435913e-02,-1.157890772446990013e-03,-9.357146918773651123e-02,1.892580837011337280e-02,-8.554124087095260620e-02,2.431543543934822083e-03,-2.187355756759643555e-01,-8.028876036405563354e-02,7.241646945476531982e-02,-1.020256355404853821e-01,-2.412183582782745361e-02,-2.091452479362487793e-01,4.902236908674240112e-02,-1.303427387028932571e-02,3.443713858723640442e-02,1.802773913368582726e-03,-1.086776629090309143e-01,-2.061353176832199097e-01,-9.742156416177749634e-02,-1.432723999023437500e-01,-8.153353817760944366e-03,1.054879575967788696e-01,8.280901610851287842e-02,3.565428406000137329e-02,-6.667730212211608887e-02
-3.806591778993606567e-02,-1.448206752538681030e-01,-3.466724753379821777e-01,-2.541948482394218445e-02,-2.329905629158020020e-01,2.345137745141983032e-01,-1.832830160856246948e-01,4.870266653597354889e-03,-1.059548091143369675e-02,-3.662804514169692993e-02,9.276369586586952209e-03,-1.227047592401504517e-01,6.193544343113899231e-02,2.697679027915000916e-02,-7.679172605276107788e-02,6.391251832246780396e-02,-3.407457843422889709e-03,-2.685693558305501938e-03,1.388784497976303101e-01,6.993602961301803589e-02,8.694633841514587402e-02,-1.970022171735763550e-01,1.321822255849838257e-01,3.070158883929252625e-02,8.247078396379947662e-03,7.780036330223083496e-02,-9.552226215600967407e-02,-7.100720424205064774e-03,-1.568241566419601440e-01,-2.375395298004150391e-01,8.906430751085281372e-02,-1.398262530565261841e-01,-2.163843512535095215e-01,-5.201776325702667236e-02,-3.500540554523468018e-02,-6.268882751464843750e-02,1.958263665437698364e-01,5.882867798209190369e-02,-4.706634208559989929e-02,8.510503172874450684e-02,-7.210851460695266724e-02,1.426478289067745209e-02,6.771872192621231079e-02,5.450046062469482422e-02,5.026882514357566833e-02,-1.310153752565383911e-01,-8.997703343629837036e-02,-1.019462347030639648e-01,6.915164738893508911e-02,-9.491213411092758179e-02,3.600836917757987976e-02,1.418097019195556641e-01,9.596419334411621094e-02,-2.917797863483428955e-01,-5.990472063422203064e-02,1.886546611785888672e-01,-8.184934966266155243e-03,6.150762736797332764e-02,8.407939225435256958e-02,-6.893207877874374390e-02,1.643439382314682007e-02,-1.313713751733303070e-02,-2.319641113281250000e-01,3.571962192654609680e-02,-3.677599877119064331e-02,9.404590725898742676e-02,1.967699453234672546e-02,3.789829462766647339e-02,-4.689161106944084167e-02,-9.548761695623397827e-02,-2.054934054613113403e-01,-9.565607458353042603e-02,9.547607041895389557e-03,-2.852743566036224365e-01,-3.217962980270385742e-01,5.601040273904800415e-02,-2.349741607904434204e-01,1.436140760779380798e-02,-7.814666628837585449e-02,-5.073647573590278625e-02,1.647704988718032837e-01,1.670867800712585449e-01,4.166221618652343750e-02,-3.022667579352855682e-02,6.430066376924514771e-02,5.366712436079978943e-02,-2.362413853406906128e-01,6.336977239698171616e-03,-2.969792671501636505e-02,-3.947720676660537720e-02,-5.210205912590026855e-02,-1.965417154133319855e-02,-2.323653176426887512e-02,-2.869109250605106354e-02,-9.840292483568191528e-02,-2.760544791817665100e-02,-3.580597937107086182e-01,2.937218174338340759e-02,-5.423684045672416687e-02,8.350378833711147308e-03,-2.116109803318977356e-02,1.973434910178184509e-02,6.376910954713821411e-02,3.470897302031517029e-02,2.718719542026519775e-01,2.384705282747745514e-02,1.666902750730514526e-02,8.357942104339599609e-02,8.384135365486145020e-02,-4.056130349636077881e-02,9.967265278100967407e-02,-1.453108340501785278e-01,-1.201489716768264771e-01,8.690884709358215332e-02,-2.691905945539474487e-02,1.803698241710662842e-01,2.245668321847915649e-02,-1.863353252410888672e-01,1.573047190904617310e-01,-2.470726333558559418e-02,-2.332129515707492828e-02,3.047952055931091309e-01,1.711519360542297363e-01,2.899844013154506683e-02,-2.001985907554626465e-03,1.300153732299804688e-01,-6.908802688121795654e-02,-4.589716717600822449e-02
1.475279778242111206e-01,-3.635836392641067505e-02,-2.568506635725498199e-02,2.103099524974822998e-01,8.693944662809371948e-02,-1.133198738098144531e-01,-3.347899764776229858e-02,-1.352500170469284058e-01,-1.090893074870109558e-01,7.247135788202285767e-02,1.060819551348686218e-01,-1.473454292863607407e-02,1.001621037721633911e-01,-2.816923148930072784e-02,5.875265970826148987e-02,2.628480084240436554e-02,4.811061546206474304e-03,-1.785677075386047363e-01,1.749712824821472168e-01,1.355811394751071930e-02,7.690736651420593262e-02,1.835508197546005249e-01,7.687617093324661255e-02,-3.236639127135276794e-02,1.418443769216537476e-01,-1.445329654961824417e-02,1.262286305427551270e-01,-1.013704463839530945e-01,6.510693579912185669e-02,1.217187196016311646e-01,-6.965348124504089355e-02,-7.760825753211975098e-02,-1.389710046350955963e-02,-6.082515791058540344e-02,-2.696433663368225098e-02,-4.673677310347557068e-02,4.948498681187629700e-02,-4.457783326506614685e-02,1.567811518907546997e-01,1.389876455068588257e-01,-4.625860229134559631e-02,1.426381319761276245e-01,6.140382029116153717e-03,9.968383610248565674e-02,-1.141201611608266830e-02,2.061295956373214722e-01,-4.868732765316963196e-02,1.096422374248504639e-01,6.225088611245155334e-02,7.116480916738510132e-02,-8.191563189029693604e-02,-8.010300248861312866e-02,-7.979927211999893188e-02,1.503862291574478149e-01,2.511411719024181366e-02,-5.321675911545753479e-02,1.949261873960494995e-01,1.250976324081420898e-01,7.848867028951644897e-02,5.658907070755958557e-02,9.114958345890045166e-02,8.592844009399414062e-02,-9.110507369041442871e-02,1.489214412868022919e-02,-2.368973568081855774e-02,6.319931894540786743e-02,1.364492345601320267e-02,-3.171136975288391113e-02,2.570642717182636261e-02,-4.188324883580207825e-02,-1.984004229307174683e-01,-2.219941839575767517e-02,1.142976619303226471e-02,-1.736914739012718201e-03,9.015546739101409912e-02,-6.299354881048202515e-02,-1.369514912366867065e-01,1.197913438081741333e-01,8.567044883966445923e-02,4.407119750976562500e-02,1.247148886322975159e-01,-6.663467735052108765e-02,3.794093057513237000e-02,-1.069429069757461548e-01,9.482720494270324707e-02,2.083594910800457001e-02,-4.250170662999153137e-02,1.013470217585563660e-01,3.947396203875541687e-02,2.770270593464374542e-02,-1.100118085741996765e-01,1.950332522392272949e-01,1.014347746968269348e-01,-3.082947572693228722e-03,-1.425338983535766602e-01,-8.568760938942432404e-03,-5.484441760927438736e-03,-1.079358756542205811e-01,1.367834210395812988e-01,1.121976971626281738e-01,-1.366063356399536133e-01,3.178736940026283264e-02,1.108331084251403809e-01,-8.032829314470291138e-02,-2.896755933761596680e-02,2.943755127489566803e-02,1.197114959359169006e-02,-1.611662656068801880e-01,-1.353840976953506470e-01,1.303219944238662720e-01,-8.394741266965866089e-02,-1.190984994173049927e-01,7.232622802257537842e-02,1.960400193929672241e-01,-4.847292974591255188e-02,-2.157244682312011719e-01,5.575424805283546448e-02,6.659002602100372314e-02,-4.941443353891372681e-02,2.543506398797035217e-02,4.308065026998519897e-02,1.620878130197525024e-01,-1.166101731359958649e-02,3.756088018417358398e-02,-4.499548114836215973e-03,-6.258569657802581787e-02,1.035317778587341309e-01,1.092300415039062500e-01
9.546705335378646851e-02,8.490995317697525024e-02,-5.949348956346511841e-02,7.360201794654130936e-03,7.400145381689071655e-02,1.112269386649131775e-01,-4.393082484602928162e-02,-2.626036107540130615e-01,-5.472345277667045593e-02,-3.654615581035614014e-02,6.232290714979171753e-02,3.224017843604087830e-02,1.457102149724960327e-01,-1.347101759165525436e-02,-2.190039865672588348e-02,6.257571280002593994e-02,3.256938606500625610e-02,-1.216984912753105164e-01,-3.261953890323638916e-01,5.273746699094772339e-02,-6.261950731277465820e-02,-3.313697874546051025e-02,-3.413152396678924561e-01,-3.122308477759361267e-02,-2.002575546503067017e-01,-4.185490682721138000e-02,2.634641714394092560e-02,-8.336423896253108978e-03,1.266123354434967041e-01,6.386351585388183594e-02,8.664070814847946167e-02,-1.373385041952133179e-01,5.942939594388008118e-02,4.840696230530738831e-03,-3.268488496541976929e-02,-1.540241092443466187e-01,-1.001570820808410645e-01,-1.588437333703041077e-02,-2.159546613693237305e-01,9.713783115148544312e-02,1.026098355650901794e-01,-4.623268730938434601e-03,-2.214137166738510132e-01,8.614863269031047821e-03,-3.138968348503112793e-02,5.497874319553375244e-02,3.357181325554847717e-02,2.114810794591903687e-01,8.350911736488342285e-02,1.157944723963737488e-01,-7.254483550786972046e-02,2.873972430825233459e-02,-3.240336179733276367e-01,5.853881686925888062e-02,8.801589906215667725e-02,4.391535371541976929e-02,-4.099832475185394287e-02,-1.008830592036247253e-01,-9.189281612634658813e-03,-1.044558361172676086e-01,-7.651190739125013351e-03,4.958662018179893494e-02,-1.254160515964031219e-02,-3.067018389701843262e-01,2.788604050874710083e-02,3.829218074679374695e-02,-6.423948705196380615e-02,5.866765230894088745e-02,-2.008901387453079224e-01,-3.641036748886108398e-01,-2.126755565404891968e-01,-2.466105297207832336e-02,3.000951930880546570e-02,-4.447751119732856750e-02,1.649831980466842651e-01,-1.550499796867370605e-01,8.619804680347442627e-02,-2.550455927848815918e-01,-5.482386332005262375e-03,-1.337220072746276855e-01,1.790596731007099152e-02,6.054246798157691956e-02,-1.004146188497543335e-01,-1.235080137848854065e-01,1.833532601594924927e-01,3.557889163494110107e-02,1.032309234142303467e-01,7.820228487253189087e-02,4.070324823260307312e-02,-3.042700141668319702e-02,1.098092049360275269e-01,-8.333321660757064819e-03,-9.050128608942031860e-02,8.982846513390541077e-03,1.500002890825271606e-01,-1.062837243080139160e-01,1.327720098197460175e-02,-1.526257693767547607e-01,-3.049039281904697418e-02,3.482364490628242493e-02,1.169341653585433960e-01,8.817174471914768219e-03,6.600748747587203979e-02,2.447385527193546295e-02,-2.855294048786163330e-01,8.914601989090442657e-03,1.851737201213836670e-01,1.886518001556396484e-01,-6.756355613470077515e-02,-3.626370728015899658e-01,1.032009050250053406e-01,8.288790285587310791e-02,1.984038203954696655e-01,-2.122754976153373718e-02,-1.577313244342803955e-01,4.623520001769065857e-02,3.453842550516128540e-02,-1.306176930665969849e-01,1.095751598477363586e-01,-8.143837749958038330e-02,2.015177607536315918e-01,-2.343087196350097656e-01,-2.680848538875579834e-01,-7.380659133195877075e-02,-8.849447220563888550e-02,2.439721114933490753e-02,-1.805973611772060394e-02,-6.539705395698547363e-02
9.069477021694183350e-02,9.464070945978164673e-02,9.895940870046615601e-02,8.479288779199123383e-03,-1.701387204229831696e-02,4.606474190950393677e-02,-5.987452343106269836e-03,1.871600002050399780e-01,8.534860610961914062e-02,-7.556611299514770508e-02,-1.083234995603561401e-01,4.356866702437400818e-02,-1.819793693721294403e-02,-5.228402838110923767e-02,-1.026852708309888840e-02,-2.570817768573760986e-01,6.541859358549118042e-02,1.017189323902130127e-01,-1.819368824362754822e-02,1.191650182008743286e-01,-1.015270203351974487e-01,-7.571086287498474121e-02,-2.680705487728118896e-02,2.064244747161865234e-01,-1.612501591444015503e-01,-1.196137517690658569e-01,1.354951560497283936e-01,3.115985542535781860e-02,1.112167313694953918e-01,8.864924311637878418e-02,-6.560312211513519287e-02,9.308176487684249878e-02,3.354150801897048950e-03,-9.032079018652439117e-03,9.021857753396034241e-03,-3.672416880726814270e-02,-5.614635720849037170e-02,1.750427111983299255e-02,2.509100735187530518e-02,1.266898959875106812e-01,-1.924159824848175049e-01,1.640537828207015991e-01,2.138587646186351776e-02,4.983492940664291382e-02,-7.453879714012145996e-02,8.202219754457473755e-02,6.966947764158248901e-02,2.029823809862136841e-01,8.944202214479446411e-02,1.535650044679641724e-01,-1.478256285190582275e-02,-1.070262864232063293e-02,3.030784614384174347e-02,-8.934156596660614014e-02,-1.496512349694967270e-02,-3.723325952887535095e-02,3.943420946598052979e-02,-1.826471537351608276e-01,-4.437822103500366211e-02,7.684062421321868896e-02,-3.566012531518936157e-02,1.108079776167869568e-01,-3.217982873320579529e-02,-3.032691031694412231e-02,1.947834789752960205e-01,-5.964034795761108398e-02,2.308613993227481842e-02,5.567881464958190918e-02,-4.183868691325187683e-02,3.113612905144691467e-02,-1.606981502845883369e-03,-1.878528040833771229e-03,9.504172205924987793e-02,-5.437546223402023315e-02,4.929366521537303925e-03,-1.751849502325057983e-01,1.791722923517227173e-01,-5.269578099250793457e-02,-1.390417963266372681e-01,7.963293232023715973e-03,-2.182170376181602478e-02,-1.036261115223169327e-02,2.345445193350315094e-02,-1.105062365531921387e-01,5.464904755353927612e-02,-4.200455173850059509e-02,2.518069446086883545e-01,-2.271015644073486328e-01,1.993523091077804565e-01,5.627266690135002136e-02,5.634167697280645370e-03,6.024998053908348083e-02,-8.477377146482467651e-02,1.262928079813718796e-02,1.017619445919990540e-01,-5.971852689981460571e-02,2.978529781103134155e-02,-7.208028435707092285e-02,2.905139699578285217e-02,-1.040236949920654297e-01,-3.835023567080497742e-02,-1.003213152289390564e-01,-7.219370454549789429e-02,4.940564185380935669e-02,-3.338347077369689941e-01,-9.745302051305770874e-02,3.510140255093574524e-02,5.181369557976722717e-02,-1.516327857971191406e-01,-7.628376036882400513e-02,-4.092107340693473816e-02,-1.567275077104568481e-01,-6.959627568721771240e-02,-9.624125435948371887e-03,1.178480908274650574e-01,2.434955909848213196e-02,-3.693550452589988708e-02,-3.073658794164657593e-02,-1.965050026774406433e-02,-3.158320486545562744e-02,8.999045193195343018e-02,1.200370937585830688e-01,4.791381582617759705e-02,2.860296331346035004e-02,-1.392268240451812744e-01,2.576239220798015594e-02,1.980490051209926605e-03,-1.861006766557693481e-02
-8.122130483388900757e-02,-9.533654153347015381e-02,-9.954315423965454102e-02,1.192141324281692505e-01,-2.580349333584308624e-02,2.415445595979690552e-01,-1.612843871116638184e-01,4.961996898055076599e-02,-2.998871915042400360e-02,-7.696437835693359375e-02,-1.912572085857391357e-01,-1.667724102735519409e-01,-1.532533089630305767e-03,5.593098700046539307e-02,3.867406630888581276e-03,1.967705935239791870e-01,4.008808732032775879e-02,3.829305991530418396e-02,-9.445957839488983154e-02,-9.101431071758270264e-02,-3.760690242052078247e-02,-1.283216178417205811e-01,1.837312728166580200e-01,-1.165529489517211914e-01,-3.315784409642219543e-02,9.115154296159744263e-02,-1.115612909197807312e-01,1.059405505657196045e-01,-3.546951338648796082e-02,-2.261679470539093018e-01,1.107013598084449768e-01,-1.197207197546958923e-01,-7.214094698429107666e-02,1.053356900811195374e-01,2.014186829328536987e-01,-1.782639883458614349e-02,6.456442177295684814e-02,2.233098261058330536e-02,-1.502807587385177612e-01,-1.636175513267517090e-01,-1.944965496659278870e-02,-4.483766853809356689e-02,1.678926497697830200e-01,6.402072310447692871e-02,-9.816832840442657471e-03,-1.507007032632827759e-01,9.256333857774734497e-02,9.874955564737319946e-02,-6.520041823387145996e-02,-1.396988928318023682e-01,-2.634574100375175476e-02,2.766962535679340363e-02,9.392869472503662109e-02,-2.432819157838821411e-01,1.564102247357368469e-02,9.969756752252578735e-02,3.285570815205574036e-02,3.319166228175163269e-02,-8.201706409454345703e-02,-4.543280228972434998e-02,-4.846240207552909851e-02,4.436936601996421814e-02,4.452797025442123413e-02,1.074279323220252991e-01,-1.068971082568168640e-01,-4.483554512262344360e-02,2.956550195813179016e-02,8.830858021974563599e-02,-2.049251087009906769e-02,-1.825026422739028931e-01,-3.263318166136741638e-02,-6.322209537029266357e-02,2.780178003013134003e-02,-2.120868712663650513e-01,4.401083290576934814e-02,1.690025627613067627e-02,2.005825936794281006e-01,-1.233162432909011841e-01,3.405517712235450745e-02,-1.401017457246780396e-01,-1.864702813327312469e-02,1.633720844984054565e-01,3.258578106760978699e-02,-2.164372056722640991e-02,5.769305676221847534e-02,9.936258196830749512e-02,-7.903371006250381470e-02,1.069564372301101685e-01,-8.510088920593261719e-02,-4.045173898339271545e-02,2.597653865814208984e-02,-1.098009273409843445e-01,-8.923500776290893555e-03,-1.388188730925321579e-02,2.079114168882369995e-01,4.669393599033355713e-02,2.089863084256649017e-02,2.291453629732131958e-01,4.286242648959159851e-02,-9.218845516443252563e-03,-9.602797776460647583e-02,7.140887528657913208e-02,1.910143159329891205e-02,5.975801497697830200e-02,1.034462451934814453e-01,5.449561029672622681e-02,2.946871891617774963e-02,2.394008077681064606e-02,7.391765713691711426e-02,-7.949115335941314697e-02,3.677912801504135132e-02,1.415662467479705811e-01,1.208863183856010437e-01,-5.235991626977920532e-02,1.063670292496681213e-01,2.159651964902877808e-01,7.082065939903259277e-02,-1.379821449518203735e-01,-1.702277362346649170e-01,9.189389646053314209e-02,1.048774123191833496e-01,3.244100138545036316e-02,-5.924290418624877930e-02,-2.342248708009719849e-02,6.312897801399230957e-02,-3.724391758441925049e-02,3.164163231849670410e-02,-2.111578173935413361e-02
9.237296134233474731e-02,-5.964085087180137634e-02,2.682831883430480957e-02,-1.962823271751403809e-01,1.061308849602937698e-02,-1.896016299724578857e-01,1.549437642097473145e-01,7.215443998575210571e-02,-1.659839414060115814e-02,-7.481229305267333984e-02,8.982496708631515503e-02,4.025126621127128601e-02,-4.225022159516811371e-03,6.624656380154192448e-04,-6.309275329113006592e-02,-1.824237219989299774e-02,-8.203000575304031372e-02,4.953418299555778503e-02,1.473057568073272705e-01,-8.956813253462314606e-03,1.245370134711265564e-01,5.510926246643066406e-02,5.263406317681074142e-03,1.905459165573120117e-02,7.394679635763168335e-02,4.081496968865394592e-03,1.045425981283187866e-01,2.896218746900558472e-02,4.799412935972213745e-02,4.162939637899398804e-02,2.249536104500293732e-03,1.714186370372772217e-02,-1.006905287504196167e-01,8.547800779342651367e-02,-1.285431087017059326e-01,1.345116645097732544e-01,6.759334355592727661e-02,1.013174727559089661e-01,1.582921594381332397e-01,4.013600945472717285e-02,-7.873882353305816650e-02,8.580353856086730957e-02,2.016454786062240601e-01,5.924186669290065765e-03,-3.805322200059890747e-02,-2.972172200679779053e-02,-7.918989658355712891e-02,-6.158506125211715698e-02,4.728301614522933960e-02,-5.066130310297012329e-02,1.182620320469141006e-02,-1.342136412858963013e-01,-2.445401158183813095e-03,1.321885082870721817e-02,-6.481242924928665161e-02,5.198188126087188721e-02,-1.942515373229980469e-01,8.988408371806144714e-03,-3.495791181921958923e-02,7.681261003017425537e-02,-5.321222543716430664e-02,4.290153458714485168e-02,-2.027427405118942261e-01,1.919695138931274414e-01,-4.380866512656211853e-02,-4.529472906142473221e-03,6.909911334514617920e-02,-2.049727737903594971e-02,6.548015773296356201e-02,6.396613270044326782e-02,-9.570187330245971680e-02,3.808709979057312012e-02,-7.200928032398223877e-02,1.007362753152847290e-01,-8.257392793893814087e-02,1.819438487291336060e-01,-2.386561334133148193e-01,-3.458052407950162888e-03,1.047138422727584839e-01,-1.068203002214431763e-01,2.124107182025909424e-01,4.162899777293205261e-02,-4.973480850458145142e-02,-1.028866041451692581e-02,-1.833238266408443451e-02,2.000014483928680420e-02,4.425721988081932068e-02,9.626678377389907837e-02,1.128346696496009827e-01,-4.053834453225135803e-02,-6.624660640954971313e-02,1.631084829568862915e-01,-9.738021530210971832e-03,7.199235260486602783e-02,-1.597771495580673218e-01,4.893993213772773743e-02,3.154067695140838623e-02,5.907624587416648865e-02,-2.901167050004005432e-02,-8.029762655496597290e-03,1.047243177890777588e-01,1.106516122817993164e-01,3.426545113325119019e-02,1.333028376102447510e-01,1.585757285356521606e-01,1.234405562281608582e-01,1.078745275735855103e-01,-1.132330298423767090e-01,8.762405812740325928e-02,4.362465813755989075e-02,-6.027603894472122192e-02,3.746710717678070068e-02,5.452749133110046387e-02,6.388430297374725342e-02,1.295073181390762329e-01,-1.483203023672103882e-01,-7.685183081775903702e-03,5.883163586258888245e-02,1.109010446816682816e-02,-8.407890796661376953e-02,3.792595863342285156e-02,2.673265757039189339e-03,1.805278658866882324e-01,4.460833594202995300e-02,-7.052766531705856323e-02,2.710314653813838959e-02,-1.598474532365798950e-01,-2.742596343159675598e-02
-1.671214774250984192e-02,-8.296924829483032227e-02,3.946520155295729637e-04,7.571857422590255737e-02,4.559416323900222778e-02,-7.679717987775802612e-02,1.331730782985687256e-01,8.539754897356033325e-02,5.474303290247917175e-02,1.907889172434806824e-02,9.812886267900466919e-02,-1.798270791769027710e-01,3.080322407186031342e-02,5.610765144228935242e-02,1.508043147623538971e-02,1.525237262248992920e-01,-9.486423368798568845e-05,1.801926195621490479e-01,2.442375198006629944e-02,1.652144789695739746e-01,-2.990135923027992249e-02,-5.624395795166492462e-03,-8.855332620441913605e-03,-4.812995716929435730e-02,-1.159339249134063721e-01,5.350986495614051819e-02,7.596033066511154175e-02,7.571743428707122803e-02,-3.811729699373245239e-02,1.317080296576023102e-02,-1.513429637998342514e-02,3.232093900442123413e-02,1.504156291484832764e-01,-5.325694009661674500e-02,-8.163653314113616943e-02,1.114583760499954224e-01,-6.913388613611459732e-03,1.885571926832199097e-01,-1.497443765401840210e-02,-7.016242295503616333e-02,9.617930650711059570e-02,6.799340993165969849e-02,-6.012159958481788635e-02,5.285375192761421204e-02,-5.015297979116439819e-02,-1.147174313664436340e-01,-1.100374013185501099e-01,-2.074595391750335693e-01,-2.332910336554050446e-02,-1.379210650920867920e-01,8.126100525259971619e-03,-6.139032542705535889e-02,-2.962984889745712280e-02,9.218596667051315308e-02,-1.755068451166152954e-01,4.200479388236999512e-02,-2.315109036862850189e-02,1.660094559192657471e-01,-3.747863322496414185e-02,4.763497784733772278e-02,4.671549424529075623e-02,4.023249074816703796e-02,-1.636204272508621216e-01,-6.984587758779525757e-03,-5.714540183544158936e-02,1.058204695582389832e-01,-8.689314126968383789e-03,-2.254379354417324066e-02,-1.963654607534408569e-01,-7.966390997171401978e-02,-1.526769846677780151e-01,6.823296844959259033e-02,2.023499272763729095e-02,1.663204841315746307e-02,2.495743334293365479e-02,1.543522924184799194e-01,7.171820849180221558e-02,-1.967921555042266846e-01,1.732693463563919067e-01,2.367343902587890625e-01,7.922463119029998779e-02,1.700128763914108276e-01,1.267492771148681641e-01,8.428695611655712128e-03,1.422771662473678589e-01,-3.889758884906768799e-02,-1.103253215551376343e-01,-4.341822490096092224e-02,-2.836399897933006287e-02,2.876726351678371429e-02,1.298054605722427368e-01,1.239252164959907532e-01,5.814933683723211288e-03,-1.285051256418228149e-01,8.217400312423706055e-02,3.052674978971481323e-02,-1.003940310329198837e-02,-4.941120641888119280e-05,1.032026931643486023e-01,-1.534938532859086990e-02,-3.995285332202911377e-01,4.136578738689422607e-02,-2.365931272506713867e-01,6.273995968513190746e-04,-4.027628153562545776e-02,5.601694062352180481e-02,-3.306943550705909729e-02,-3.418338950723409653e-03,9.134063124656677246e-02,6.686202436685562134e-02,3.130772337317466736e-02,3.556940704584121704e-03,5.857459828257560730e-02,-7.015661150217056274e-02,1.152380034327507019e-01,2.003852427005767822e-01,4.997078701853752136e-02,-4.636911302804946899e-02,-9.403328597545623779e-02,5.735690146684646606e-02,3.010265901684761047e-02,2.723546000197529793e-03,2.034035138785839081e-02,1.028673499822616577e-01,8.146085590124130249e-02,2.485898137092590332e-02,-5.589307285845279694e-03,3.226480260491371155e-02
-8.752377703785896301e-03,-1.232525333762168884e-01,-2.465959340333938599e-01,9.450329840183258057e-02,6.734299659729003906e-02,-1.216806769371032715e-01,7.672496885061264038e-02,-8.811595290899276733e-02,5.310206115245819092e-02,-2.079220674932003021e-02,1.059280261397361755e-01,-2.914582192897796631e-02,4.524113237857818604e-02,1.041725464165210724e-02,-3.152171522378921509e-02,2.653433084487915039e-01,3.722685948014259338e-02,-2.167744338512420654e-01,4.770691692829132080e-02,2.749164775013923645e-02,2.096886932849884033e-02,5.051822960376739502e-02,4.792788997292518616e-02,2.744827419519424438e-02,1.485694795846939087e-01,-4.621034860610961914e-02,-8.098355680704116821e-02,-2.608391689136624336e-03,8.350364863872528076e-02,1.158558651804924011e-01,1.034911163151264191e-02,1.358340680599212646e-02,6.852550897747278214e-03,5.480573698878288269e-02,6.306125968694686890e-02,5.717720370739698410e-03,-6.894649565219879150e-02,-1.401035785675048828e-01,6.982798874378204346e-02,-3.106548264622688293e-02,3.453360870480537415e-02,-6.330303847789764404e-02,-7.496058195829391479e-02,-8.299409598112106323e-02,2.144333906471729279e-02,2.081066928803920746e-02,-1.941474899649620056e-02,8.715101517736911774e-03,5.745595693588256836e-02,-3.044303506612777710e-02,1.816207356750965118e-02,1.055076122283935547e-01,-3.804529830813407898e-02,3.242523595690727234e-02,1.369627565145492554e-01,-1.820383220911026001e-01,1.012230068445205688e-01,1.172549948096275330e-01,6.087255477905273438e-02,1.617898046970367432e-01,1.448398828506469727e-02,-2.612650766968727112e-02,3.913636878132820129e-02,6.155576929450035095e-02,-3.707445412874221802e-02,-6.408785283565521240e-02,-5.208617448806762695e-02,5.788436532020568848e-02,-6.839481741189956665e-02,8.247219771146774292e-02,-1.674113422632217407e-01,-3.542823344469070435e-02,2.048867940902709961e-02,-1.813672780990600586e-01,1.288850754499435425e-01,-1.632972806692123413e-01,-1.602871902287006378e-02,3.378870338201522827e-02,7.508934941142797470e-03,7.238814234733581543e-02,9.094176441431045532e-02,-8.995790034532546997e-02,-1.518825255334377289e-02,3.245835006237030029e-02,1.535788029432296753e-01,-2.639716863632202148e-02,-1.296876519918441772e-01,-2.377040311694145203e-02,-4.561918601393699646e-02,-1.688971649855375290e-03,-7.147092372179031372e-02,1.882187835872173309e-02,1.131674498319625854e-01,-1.220557168126106262e-01,4.959456995129585266e-02,-8.082420378923416138e-02,-1.051785573363304138e-01,-2.224065363407135010e-02,1.792807132005691528e-01,1.207423731684684753e-01,-1.131576895713806152e-01,-6.329097598791122437e-02,2.860306948423385620e-02,-5.416951701045036316e-02,9.651952236890792847e-02,6.627880781888961792e-02,2.444913983345031738e-02,-7.167157530784606934e-02,-7.130333688110113144e-03,-6.318180263042449951e-02,-1.127025410532951355e-01,-7.526747137308120728e-02,9.589748084545135498e-02,6.918657571077346802e-02,3.875351324677467346e-02,-1.712860614061355591e-01,8.116187155246734619e-02,3.130800649523735046e-02,-2.065685391426086426e-02,1.085183694958686829e-01,5.044799763709306717e-03,1.095058023929595947e-01,5.739066377282142639e-02,9.213160723447799683e-02,-4.541179630905389786e-03,9.044668078422546387e-02,1.385053545236587524e-01,3.662602102849632502e-04
1.123722642660140991e-01,-3.939590603113174438e-02,-3.823417797684669495e-02,-5.828896164894104004e-02,7.156798988580703735e-02,1.232297439128160477e-02,-8.122853934764862061e-02,9.079068899154663086e-02,-1.713494770228862762e-02,7.512732408940792084e-03,-1.289038104005157948e-03,-9.692972898483276367e-02,2.278558351099491119e-02,-5.116361379623413086e-02,-4.397287592291831970e-02,-1.546493321657180786e-01,1.707177609205245972e-02,-1.589227765798568726e-01,-7.717396318912506104e-02,-8.187097311019897461e-02,-2.957932651042938232e-02,1.794691979885101318e-01,6.302920728921890259e-02,9.100012481212615967e-02,4.019035026431083679e-02,1.329428106546401978e-01,-1.567314751446247101e-02,1.226880867034196854e-02,-5.305040255188941956e-02,8.914855122566223145e-02,-1.207454130053520203e-02,9.066076576709747314e-02,-1.796031929552555084e-02,1.036412566900253296e-01,-3.501996397972106934e-02,7.767613977193832397e-03,-2.143727429211139679e-02,-3.623403310775756836e-01,1.384441107511520386e-01,-1.733228117227554321e-01,2.642169594764709473e-01,7.702726870775222778e-02,-3.317260369658470154e-02,-7.224921882152557373e-02,2.025279961526393890e-02,1.224581226706504822e-01,-1.870119012892246246e-02,-8.806576579809188843e-02,-1.128295995295047760e-02,7.050493359565734863e-02,7.457250356674194336e-02,2.194606065750122070e-01,-1.657810993492603302e-02,-3.118501603603363037e-02,8.790186792612075806e-02,4.831253737211227417e-02,-4.032026231288909912e-02,7.351898401975631714e-02,-1.453706528991460800e-03,1.725766062736511230e-01,-1.365723907947540283e-01,-6.502147018909454346e-02,1.566203534603118896e-01,3.650062531232833862e-02,1.124689802527427673e-01,1.344110351055860519e-02,-1.337338145822286606e-02,8.841142058372497559e-03,2.840923331677913666e-02,-2.095726281404495239e-01,-2.306220233440399170e-01,-8.928708732128143311e-02,2.963226661086082458e-02,3.300549834966659546e-02,-2.083973884582519531e-01,-3.270248696208000183e-02,-2.743873000144958496e-01,-5.613473430275917053e-02,-2.456659674644470215e-01,-2.400486171245574951e-01,1.100528761744499207e-01,-5.494859069585800171e-02,-1.178662627935409546e-01,-1.241251230239868164e-01,-1.578631438314914703e-02,4.904745146632194519e-02,9.758949279785156250e-02,-2.534046955406665802e-02,5.827266350388526917e-02,-3.312825411558151245e-02,-1.469538807868957520e-01,-2.282900065183639526e-01,1.588408946990966797e-01,1.135359480977058411e-01,-1.031071692705154419e-02,4.319191351532936096e-02,1.724009960889816284e-02,1.109081506729125977e-01,7.615922391414642334e-02,-8.787595480680465698e-02,6.031575426459312439e-02,-7.433385122567415237e-03,1.830226480960845947e-01,-1.007835194468498230e-01,1.442725360393524170e-01,-1.971643865108489990e-01,-1.182742193341255188e-01,2.408245764672756195e-02,-5.957306921482086182e-02,1.478186696767807007e-01,-4.506615176796913147e-02,-2.160206437110900879e-01,1.007927805185317993e-01,6.626523286104202271e-02,4.414523392915725708e-02,-1.477453857660293579e-01,-1.293199360370635986e-01,5.780354887247085571e-02,1.321717053651809692e-01,1.971736103296279907e-01,3.045899048447608948e-02,1.600832194089889526e-01,1.408120393753051758e-01,6.393884122371673584e-02,-8.645321428775787354e-02,-4.365546256303787231e-02,5.903075262904167175e-02,3.276808187365531921e-02
3.192444890737533569e-02,1.808691024780273438e-02,-1.405503302812576294e-01,-9.011019766330718994e-02,5.592573061585426331e-02,5.617746710777282715e-02,-3.110785223543643951e-02,6.016844138503074646e-02,-8.844082802534103394e-02,-6.719758361577987671e-02,-1.996530145406723022e-01,-1.242748945951461792e-01,4.514845833182334900e-02,-6.931143999099731445e-02,-7.831908017396926880e-02,-2.313652820885181427e-02,6.077684462070465088e-03,1.472369879484176636e-01,-9.475985169410705566e-02,1.147899478673934937e-01,1.513603422790765762e-02,-1.431041657924652100e-01,5.586245656013488770e-02,-8.145910501480102539e-02,-2.238226532936096191e-01,-5.316653102636337280e-02,-1.214449554681777954e-01,-6.119425967335700989e-02,9.415452182292938232e-02,-2.577817440032958984e-01,-6.134777888655662537e-02,-9.557812660932540894e-02,6.662762910127639771e-02,1.120837926864624023e-01,-3.545438870787620544e-03,3.427594527602195740e-02,7.680776715278625488e-02,1.200910955667495728e-01,-1.551833301782608032e-01,-1.216616481542587280e-02,-3.429531306028366089e-02,-1.518153399229049683e-01,-1.481144130229949951e-01,-7.556064054369926453e-03,-4.969936329871416092e-03,-3.698043525218963623e-02,2.179516479372978210e-02,-1.985127925872802734e-01,-5.681134015321731567e-02,7.519611716270446777e-02,6.369671970605850220e-02,7.563910633325576782e-02,2.487157844007015228e-02,1.234911009669303894e-01,-2.654517590999603271e-01,-2.574267424643039703e-02,-4.319589957594871521e-02,-2.290215715765953064e-02,5.007229000329971313e-02,-3.070157766342163086e-01,-9.110507369041442871e-02,-7.458642870187759399e-02,9.002809971570968628e-02,-1.385538429021835327e-01,1.688226461410522461e-01,7.091819494962692261e-02,-7.895226776599884033e-02,-4.437099024653434753e-02,-1.756574027240276337e-02,1.276145726442337036e-01,-1.301544010639190674e-01,3.572271391749382019e-02,2.298102190252393484e-04,-1.219597905874252319e-01,-2.087091505527496338e-01,2.672691643238067627e-02,-3.000650927424430847e-02,1.112623363733291626e-01,1.349858343601226807e-01,1.932301372289657593e-02,7.227720320224761963e-02,1.386336684226989746e-01,-2.188323065638542175e-02,1.058228835463523865e-01,1.357016414403915405e-01,6.958243250846862793e-02,-3.644380718469619751e-02,1.048611029982566833e-01,-1.829907745122909546e-01,-1.914749667048454285e-02,-9.779410064220428467e-02,8.405593223869800568e-03,5.676790699362754822e-02,-1.510273367166519165e-01,-1.970409415662288666e-02,4.626351594924926758e-02,-1.364157497882843018e-01,2.051375992596149445e-02,1.379409283399581909e-01,-1.104312613606452942e-01,-1.763600856065750122e-01,2.069951221346855164e-02,-1.360338330268859863e-01,-5.965254455804824829e-02,-1.841809973120689392e-02,1.114090010523796082e-01,1.001059357076883316e-02,2.270616590976715088e-02,4.971054568886756897e-02,5.539750680327415466e-02,1.650119125843048096e-01,1.084582731127738953e-01,-9.261812269687652588e-02,-1.294624805450439453e-02,6.049988791346549988e-02,1.733114868402481079e-01,2.866338565945625305e-02,-5.472026765346527100e-03,7.445190846920013428e-02,-1.441179513931274414e-01,9.974470734596252441e-02,1.523317694664001465e-01,-1.047777235507965088e-01,8.091253787279129028e-02,1.567674279212951660e-01,-5.160555616021156311e-02,-2.535435557365417480e-02,6.326943635940551758e-02
